SVM-light Version V6.20
0 # kernel type
3 # kernel parameter -d 
1 # kernel parameter -g 
1 # kernel parameter -s 
1 # kernel parameter -r 
empty# kernel parameter -u 
47 # highest feature index 
64 # number of training documents 
2 # number of support vectors plus 1 
0 # threshold b, each following line is a SV (starting with alpha*y)
1 1:0.1271264 2:-0.092694804 3:-0.81392306 4:0.16840042 5:-0.0041098478 11:0.10084765 12:0.22712715 13:1.0465906 14:-0.19620541 15:-0.11983266 16:-0.20906353 17:0.027761925 18:0.17760164 19:-0.2021835 20:-0.21484347 21:0.044177841 22:0.29424 23:0.8680281 24:0.5483824 25:0.17654447 26:-0.57458729 27:0.39918709 28:0.30861652 29:0.024566358 30:0.53454083 31:-1.0856733 32:0.65110135 33:-0.13731532 34:-0.87259799 35:0.42918688 36:0.76664752 37:-0.13877538 38:-0.57330066 39:0.8398087 40:-0.89592117 41:0.23575315 42:-0.21234156 44:-0.051070485 45:-0.15296023 46:-0.11328093 #
