SVM-light Version V6.20
0 # kernel type
3 # kernel parameter -d 
1 # kernel parameter -g 
1 # kernel parameter -s 
1 # kernel parameter -r 
empty# kernel parameter -u 
47 # highest feature index 
67 # number of training documents 
2 # number of support vectors plus 1 
0 # threshold b, each following line is a SV (starting with alpha*y)
1 1:0.11303716 2:-0.21290776 3:-0.53015703 4:-1.1246541 5:-0.084148593 11:0.13634458 12:1.1972666 13:-0.50762755 14:-0.21461247 15:-0.34196034 16:0.50899172 17:-0.2516354 18:0.45186058 19:-0.45801994 20:0.49542716 21:-0.71399015 22:0.40676281 23:-0.091499537 24:0.4381448 25:-0.10674988 26:0.53426075 27:-1.1771818 28:-0.049105503 29:1.1755178 30:-0.25947243 31:-0.26178375 32:0.69155902 33:1.4721895 34:-0.64112484 35:-0.12435534 36:0.077917814 37:1.205789 38:-0.25590205 39:0.14545077 40:-0.50657731 41:-0.13096158 42:0.054977193 44:-0.0111272 45:0.054811142 46:-0.30101505 #
