SVM-light Version V6.20
0 # kernel type
3 # kernel parameter -d 
1 # kernel parameter -g 
1 # kernel parameter -s 
1 # kernel parameter -r 
empty# kernel parameter -u 
47 # highest feature index 
62 # number of training documents 
2 # number of support vectors plus 1 
0 # threshold b, each following line is a SV (starting with alpha*y)
1 1:-0.1072454 2:-0.29127124 3:0.14802836 4:-0.33070233 5:-0.002519805 11:-0.055976473 12:0.004567055 13:-0.23985054 14:-0.011309557 15:-0.11715595 16:0.063924104 17:-0.24748591 18:-0.064544596 19:-0.034048233 20:0.079058222 21:0.067616202 22:-0.26170933 23:1.9708712 24:0.26357892 25:0.23968536 26:-0.076906428 27:0.54696238 28:0.35011441 29:0.4322094 30:0.04972655 31:-0.13110432 32:0.26615638 33:0.29481086 34:-0.086829782 35:0.20014419 36:-0.15308677 37:0.26836354 38:-0.63636684 39:1.2754307 40:-0.12071116 41:-0.099473983 42:-0.32377496 44:-0.11251648 45:-0.12264854 46:-0.48341507 #
