SVM-light Version V6.20
0 # kernel type
3 # kernel parameter -d 
1 # kernel parameter -g 
1 # kernel parameter -s 
1 # kernel parameter -r 
empty# kernel parameter -u 
47 # highest feature index 
66 # number of training documents 
2 # number of support vectors plus 1 
0 # threshold b, each following line is a SV (starting with alpha*y)
1 1:0.079926148 2:-0.41246754 3:0.38418263 4:-0.35964528 5:0.2257477 11:-0.21076548 12:-0.24977277 13:-0.080736212 14:0.30092981 15:-0.3794651 16:-0.088959605 17:-0.09149532 18:0.072313733 19:-0.32412708 20:-0.063295081 21:0.35797518 22:-0.54412138 23:1.3237643 24:-0.069293298 25:0.43081191 26:0.11192852 27:-0.18390222 28:0.35535482 29:0.064310521 30:0.26930866 31:0.066344813 32:-0.13574128 33:-0.12348195 34:-0.57728648 35:0.83081836 36:-0.32809407 37:-0.15781738 38:-0.50940728 39:0.62400401 40:0.516527 41:0.091244094 42:0.18774214 44:0.51989144 45:-0.59410346 46:0.0021932437 #
