SVM-light Version V6.20
0 # kernel type
3 # kernel parameter -d 
1 # kernel parameter -g 
1 # kernel parameter -s 
1 # kernel parameter -r 
empty# kernel parameter -u 
47 # highest feature index 
64 # number of training documents 
2 # number of support vectors plus 1 
0 # threshold b, each following line is a SV (starting with alpha*y)
1 1:0.031842154 2:0.73064399 3:0.95586324 4:-1.1354542 5:0.13337737 11:-0.13188717 12:-1.0979552 13:-0.88987333 14:0.75260127 15:-0.15096676 16:-0.0048896563 17:-0.19344194 18:0.064733647 19:-1.1644102 20:-0.0043996791 21:-0.40603834 22:0.09155149 23:0.4631421 24:0.12328781 25:0.21138096 26:-0.2784594 27:-0.039287139 28:0.7396515 29:0.10476516 30:0.36301196 31:-0.29773313 32:-0.25627252 33:0.27595142 34:0.73126274 35:0.27617875 36:-0.9340812 37:0.8365587 38:-0.32666814 39:1.1699568 40:-0.55182427 41:0.039291244 42:0.80702698 44:0.34700552 45:-0.22070913 46:-0.11685886 #
