SVM-light Version V6.20
0 # kernel type
3 # kernel parameter -d 
1 # kernel parameter -g 
1 # kernel parameter -s 
1 # kernel parameter -r 
empty# kernel parameter -u 
47 # highest feature index 
63 # number of training documents 
2 # number of support vectors plus 1 
0 # threshold b, each following line is a SV (starting with alpha*y)
1 1:-0.64535141 2:-0.30137971 3:-0.3794871 4:-0.69410735 5:-0.41019836 11:-0.061292589 12:-0.9658016 13:0.12626761 14:-0.56115699 15:0.015267961 16:-0.3391647 17:0.047421593 18:-0.15825839 19:-0.41198948 20:-0.33024877 21:0.36271062 22:-0.32783097 23:1.0523716 24:1.4545132 25:0.36453828 26:-0.48361883 27:-0.02436726 28:-0.11848024 29:0.65955114 30:-1.3738335 31:-0.44584215 32:1.5553172 33:0.68876517 34:-0.14535794 35:-0.33950326 36:-0.26992846 37:0.068097651 38:-0.31890246 39:1.1330894 40:0.45279625 41:0.20109792 42:-0.45708326 44:-0.43512887 45:-0.35062557 46:-0.14292856 #
