SVM-light Version V6.20
0 # kernel type
3 # kernel parameter -d 
1 # kernel parameter -g 
1 # kernel parameter -s 
1 # kernel parameter -r 
empty# kernel parameter -u 
47 # highest feature index 
64 # number of training documents 
2 # number of support vectors plus 1 
0 # threshold b, each following line is a SV (starting with alpha*y)
1 1:0.3063688 2:-0.712349 3:-0.76642954 4:-1.4190577 5:0.10571128 11:0.26317045 12:0.61826092 13:1.4088353 14:-0.41462111 15:-0.010084245 16:-0.17945847 17:-0.01161838 18:-0.28793675 19:1.583831 20:-0.16743121 21:-0.040116698 22:-0.51228195 23:0.80223197 24:-0.5560838 25:-0.21819672 26:-0.12089442 27:-0.30995107 28:0.77042049 29:-0.014842885 30:1.0890485 31:-0.84793943 32:-0.93795824 33:2.6945291 34:-0.5705272 35:-0.87733477 36:0.42705035 37:-0.085761428 38:0.72133255 39:0.72204626 40:-0.17479324 41:-0.50783515 42:-1.113892 44:0.50301498 45:-0.1609192 46:-0.11335804 #
