SVM-light Version V6.20
0 # kernel type
3 # kernel parameter -d 
1 # kernel parameter -g 
1 # kernel parameter -s 
1 # kernel parameter -r 
empty# kernel parameter -u 
47 # highest feature index 
63 # number of training documents 
2 # number of support vectors plus 1 
0 # threshold b, each following line is a SV (starting with alpha*y)
1 1:0.37183741 2:0.16859114 3:-1.2903588 4:-0.27315885 5:0.20470791 11:0.27912474 12:0.15382145 13:0.16831478 14:1.9492894 15:0.12317075 16:-0.28024238 17:0.040377829 18:0.62873685 19:-0.17269404 20:-0.28556493 21:0.030310446 22:-0.4473694 23:0.033200964 24:-1.2037385 25:-0.28761581 26:0.77906024 27:-0.99034745 28:0.32684833 29:0.72282231 30:-0.73678386 31:0.4218041 32:-0.075074457 33:-1.4683151 34:-0.29270658 35:0.70059323 36:-0.57509875 37:0.43509525 38:0.9432894 39:0.31481433 40:0.073875584 41:0.57929879 42:-0.64843243 44:0.2503514 45:0.10018197 46:-0.30131897 #
