SVM-light Version V6.20
0 # kernel type
3 # kernel parameter -d 
1 # kernel parameter -g 
1 # kernel parameter -s 
1 # kernel parameter -r 
empty# kernel parameter -u 
47 # highest feature index 
69 # number of training documents 
2 # number of support vectors plus 1 
0 # threshold b, each following line is a SV (starting with alpha*y)
1 1:-0.0095284348 2:-0.19177927 3:0.27857971 4:-0.40587163 5:-0.030925445 11:-0.42697254 12:-0.44437116 13:-0.28104824 14:-0.049612354 15:-0.16862401 16:0.071487904 17:0.0095383935 18:0.033121292 19:0.40439653 20:0.099444792 21:0.46572915 22:-0.19356838 23:1.6686479 24:-0.014708452 25:0.33124959 26:0.52221727 27:0.23638365 28:-0.1066595 29:0.36164588 30:-0.21832225 31:-0.38116738 32:0.43384856 33:0.3490071 34:-0.50873262 35:-0.037542421 36:0.51189649 37:0.28712711 38:-0.55615979 39:0.11152629 40:0.12728132 41:0.064820677 42:-0.73008341 44:0.13343908 45:-0.27494755 46:-0.18042544 #
