SVM-light Version V6.20
0 # kernel type
3 # kernel parameter -d 
1 # kernel parameter -g 
1 # kernel parameter -s 
1 # kernel parameter -r 
empty# kernel parameter -u 
47 # highest feature index 
66 # number of training documents 
2 # number of support vectors plus 1 
0 # threshold b, each following line is a SV (starting with alpha*y)
1 1:0.234621 2:0.095343709 3:-0.26991343 4:-0.51629072 5:0.20280744 11:0.015682837 12:-0.80999464 13:0.058377661 14:0.62854874 15:-0.19525044 16:-0.065981388 17:0.20484759 18:0.17770492 19:-0.75832337 20:-0.066746682 21:0.12551257 22:-0.49880248 23:0.53363138 24:0.32794729 25:0.53482491 26:-0.32204917 27:0.17855015 28:0.52767992 29:0.69673967 30:-1.1388801 31:0.19078474 32:1.0405931 33:-0.13146542 34:-0.69726533 35:-0.15344533 36:1.0865865 37:0.17733917 38:-0.49491653 39:1.1659857 40:0.40680021 41:0.089166157 42:0.26850227 44:0.0065826015 45:-0.15387517 46:-0.10616334 #
