SVM-light Version V6.20
0 # kernel type
3 # kernel parameter -d 
1 # kernel parameter -g 
1 # kernel parameter -s 
1 # kernel parameter -r 
empty# kernel parameter -u 
47 # highest feature index 
64 # number of training documents 
2 # number of support vectors plus 1 
0 # threshold b, each following line is a SV (starting with alpha*y)
1 1:-0.34887645 2:0.75080919 3:0.66635716 4:-0.48147702 5:-0.51201332 11:0.18799189 12:-1.4698448 13:-0.89537477 14:0.32448557 15:-0.16438667 16:0.455966 17:-0.1018441 18:0.17781779 19:-0.28557912 20:0.44542935 21:-0.51470602 22:0.54797679 23:0.80507481 24:0.81118065 25:0.3158429 26:-0.36192986 27:-0.029409887 28:0.72484016 29:1.009764 30:-0.32457253 31:-0.5511114 32:0.74152231 33:0.44132191 34:-0.18189929 35:-0.084925734 36:0.090665117 37:0.33567992 38:-0.39448187 39:0.77969158 40:-1.0753357 41:0.094067208 42:0.0098574329 44:-0.40796086 45:0.07237009 46:0.29535103 #
