SVM-light Version V6.20
0 # kernel type
3 # kernel parameter -d 
1 # kernel parameter -g 
1 # kernel parameter -s 
1 # kernel parameter -r 
empty# kernel parameter -u 
47 # highest feature index 
65 # number of training documents 
2 # number of support vectors plus 1 
0 # threshold b, each following line is a SV (starting with alpha*y)
1 1:0.07592921 2:0.3112807 3:0.57433498 4:-0.15382656 5:0.1633421 11:-0.1497636 12:-0.42167321 13:-0.53193241 14:-0.67048782 15:-0.22443491 16:-0.080543429 17:-0.0095325839 18:-0.0048767258 19:-0.26260996 20:-0.064118363 21:0.43665043 22:-0.81797171 23:1.2630327 24:0.22491701 25:0.24370483 26:-0.33375245 27:-0.010064664 28:0.63004142 29:0.78804773 30:0.098524496 31:-0.56403297 32:0.28667685 33:0.65039313 34:0.2229826 35:0.54376131 36:-0.47282058 37:0.31347165 38:-0.75936818 39:1.0460597 40:0.35923669 41:-0.13721545 42:0.10063198 44:0.083332263 45:-0.20280854 46:-0.44051734 #
