SVM-light Version V6.20
0 # kernel type
3 # kernel parameter -d 
1 # kernel parameter -g 
1 # kernel parameter -s 
1 # kernel parameter -r 
empty# kernel parameter -u 
47 # highest feature index 
65 # number of training documents 
2 # number of support vectors plus 1 
0 # threshold b, each following line is a SV (starting with alpha*y)
1 1:-0.33137509 2:-0.60061747 3:0.48283345 4:-0.72260201 5:-0.2111727 11:0.12546667 12:0.50338161 13:0.06434828 14:-0.0094288383 15:0.09013474 16:0.15630777 17:-0.13538226 18:-0.39205128 19:-0.50096208 20:0.1571541 21:-0.056322865 22:0.041352354 23:1.753545 24:-0.27321953 25:0.28370598 26:-0.24338697 27:0.081748202 28:0.21541159 29:0.029578695 30:-0.079026483 31:0.072572373 32:-0.035062525 33:0.081892475 34:-0.50751126 35:1.2834001 36:-0.1470762 37:0.13920869 38:0.2009078 39:0.5802865 40:0.011528941 41:-0.14389506 42:-0.17446926 44:-0.038417671 45:0.062302727 46:-0.30200183 #
