SVM-light Version V6.20
0 # kernel type
3 # kernel parameter -d 
1 # kernel parameter -g 
1 # kernel parameter -s 
1 # kernel parameter -r 
empty# kernel parameter -u 
47 # highest feature index 
65 # number of training documents 
2 # number of support vectors plus 1 
0 # threshold b, each following line is a SV (starting with alpha*y)
1 1:-0.49983501 2:0.32956645 3:0.22785811 4:-0.33364838 5:-0.36797559 11:-0.03404608 12:0.049540527 13:0.0036323532 14:-0.76921409 15:0.037085235 16:0.31008106 17:-0.33237764 18:-0.55117738 19:-0.52385622 20:0.31438228 21:-0.038737353 22:-0.08699435 23:1.6466695 24:0.21650989 25:0.10357814 26:-0.92504263 27:-0.29424644 28:0.95472753 29:-0.10571219 30:-0.023678487 31:0.3535414 32:0.24104044 33:0.91004694 34:0.37801796 35:0.3305617 36:-0.56567955 37:0.2412177 38:-0.18770948 39:0.36910206 40:0.092447758 41:-0.13786806 42:-0.22559485 44:-0.095966831 45:0.35577556 46:-0.30064091 #
