SVM-light Version V6.20
0 # kernel type
3 # kernel parameter -d 
1 # kernel parameter -g 
1 # kernel parameter -s 
1 # kernel parameter -r 
empty# kernel parameter -u 
47 # highest feature index 
63 # number of training documents 
2 # number of support vectors plus 1 
0 # threshold b, each following line is a SV (starting with alpha*y)
1 1:-0.20681772 2:0.22089551 3:0.066665478 4:-0.33669308 5:0.09629824 11:-0.42350793 12:0.052425027 13:-0.46611151 14:1.0511553 15:0.1115341 16:-0.0015152672 17:-0.34692156 18:0.62233686 19:-0.67423028 20:0.00081470283 21:0.1886171 22:-0.63527745 23:1.2919949 24:-0.10033479 25:0.080566876 26:-0.45846781 27:0.081370138 28:0.32708639 29:0.12859325 30:0.5626263 31:-0.063064665 32:0.16800185 33:-0.5191521 34:0.41551617 35:-0.50938046 36:-0.42234704 37:-0.21944901 38:-0.19529463 39:0.52812326 40:0.23543793 41:0.06283132 42:0.3173629 44:0.3301104 45:-0.24204962 46:-0.4861756 #
