SVM-light Version V6.20
0 # kernel type
3 # kernel parameter -d 
1 # kernel parameter -g 
1 # kernel parameter -s 
1 # kernel parameter -r 
empty# kernel parameter -u 
47 # highest feature index 
67 # number of training documents 
2 # number of support vectors plus 1 
0 # threshold b, each following line is a SV (starting with alpha*y)
1 1:-0.51799613 2:-0.86448449 3:-0.031351395 4:-0.21250819 5:-0.41915539 11:-0.44250682 12:1.3969089 13:0.35574299 14:-0.26561406 15:-0.12610073 16:0.51943243 17:0.084344603 18:-0.076250568 19:-0.23611093 20:0.52481151 21:-0.046645697 22:-0.038238674 23:1.5248045 24:0.32829222 25:-0.41520354 26:0.34604076 27:-0.19724822 28:-0.41125706 29:-0.41512182 30:0.17981797 31:0.21775497 32:-0.096720904 33:0.2823796 34:0.10897635 35:0.086870357 36:0.34335181 37:0.82222515 38:-0.42234662 39:0.52850378 40:-1.1673155 41:0.52696335 42:-0.39716861 44:0.030237975 45:0.23446487 46:-0.24947467 #
