SVM-light Version V6.20
0 # kernel type
3 # kernel parameter -d 
1 # kernel parameter -g 
1 # kernel parameter -s 
1 # kernel parameter -r 
empty# kernel parameter -u 
47 # highest feature index 
63 # number of training documents 
2 # number of support vectors plus 1 
0 # threshold b, each following line is a SV (starting with alpha*y)
1 1:-0.34144658 2:-0.13580602 3:0.43436477 4:-0.40592542 5:-0.47412333 11:-0.0026167796 12:0.59089744 13:-1.3774146 14:-0.87982893 15:-0.12041837 16:0.27061433 17:-0.19835421 18:-0.10136576 19:0.35059187 20:0.26349014 21:-0.36706394 22:-0.55281043 23:1.2292726 24:-0.48151597 25:-0.23094293 26:0.74831486 27:-0.87285942 28:0.22606306 29:0.53935635 30:-0.21976168 31:0.87526643 32:0.14565326 33:1.6143363 34:-0.35039011 35:0.66326845 36:-0.90492886 37:-0.17370646 38:-0.16355479 39:0.9758389 40:0.78721672 41:-0.23077674 42:-0.291412 44:-0.092929251 45:-0.091567203 46:0.25497034 #
