SVM-light Version V6.20
0 # kernel type
3 # kernel parameter -d 
1 # kernel parameter -g 
1 # kernel parameter -s 
1 # kernel parameter -r 
empty# kernel parameter -u 
47 # highest feature index 
61 # number of training documents 
2 # number of support vectors plus 1 
0 # threshold b, each following line is a SV (starting with alpha*y)
1 1:-0.72186166 2:0.23674719 3:-0.19948648 4:-1.1355844 5:-0.30671704 11:-0.2628265 12:-0.622554 13:0.1824965 14:-0.26070347 15:0.11455663 16:-0.067699105 17:-0.32694837 18:-0.37910876 19:-1.0975959 20:-0.072815299 21:0.31317726 22:-0.91827011 23:1.4382409 24:0.95197868 25:0.30346724 26:-0.76731765 27:0.057733782 28:-0.21381378 29:-0.15878904 30:-0.83631611 31:-0.12946351 32:1.4472258 33:-0.092251375 34:0.07626342 35:0.41155925 36:-0.076316953 37:0.41197777 38:-0.45637894 39:0.99551392 40:1.2218169 41:0.2899282 42:-0.52937239 44:-0.4994989 45:-0.15843377 46:-0.44350073 #
