SVM-light Version V6.20
0 # kernel type
3 # kernel parameter -d 
1 # kernel parameter -g 
1 # kernel parameter -s 
1 # kernel parameter -r 
empty# kernel parameter -u 
47 # highest feature index 
63 # number of training documents 
2 # number of support vectors plus 1 
0 # threshold b, each following line is a SV (starting with alpha*y)
1 1:-0.097264908 2:-0.17338313 3:-0.068838753 4:-0.54963207 5:-0.19015953 11:0.191423 12:-0.087040335 13:0.25554362 14:-0.41707334 15:-0.025826467 16:0.12547781 17:0.062612139 18:-0.70625079 19:-0.5039416 20:0.13337632 21:-0.57733727 22:0.59683281 23:0.91560709 24:0.25151768 25:0.34076139 26:-0.84867537 27:0.23321487 28:0.88529265 29:0.18606034 30:-0.33883607 31:-0.24435674 32:0.67849123 33:0.47628596 34:0.42167321 35:1.0387175 36:-1.0515938 37:0.64164001 38:-0.7664848 39:0.81871051 40:-0.0043396149 41:-0.14035574 42:0.15648329 44:-0.19493228 45:-0.10426702 46:0.0079554757 #
