SVM-light Version V6.20
0 # kernel type
3 # kernel parameter -d 
1 # kernel parameter -g 
1 # kernel parameter -s 
1 # kernel parameter -r 
empty# kernel parameter -u 
47 # highest feature index 
63 # number of training documents 
2 # number of support vectors plus 1 
0 # threshold b, each following line is a SV (starting with alpha*y)
1 1:-0.032507062 2:-0.32229874 3:0.17468402 4:-0.51102358 5:-0.12028231 11:0.25961468 12:-0.13327502 13:-0.019926146 14:0.20983005 15:0.12107789 16:-0.043611933 17:-0.28919983 18:0.088239059 19:0.010696796 20:-0.034155007 21:0.15816271 22:-0.81214416 23:1.732941 24:0.38014397 25:0.14914431 26:-0.22860272 27:0.23928791 28:0.80766469 29:0.65442818 30:-0.6477077 31:-0.2382891 32:0.57269651 33:0.10691167 34:0.31210843 35:-0.099134117 36:-0.034893077 37:-0.026272163 38:-0.44869003 39:0.84148312 40:0.33813104 41:-0.13541472 42:-0.13224655 44:0.019430922 45:-0.27115601 46:-0.46454775 #
