SVM-light Version V6.20
0 # kernel type
3 # kernel parameter -d 
1 # kernel parameter -g 
1 # kernel parameter -s 
1 # kernel parameter -r 
empty# kernel parameter -u 
47 # highest feature index 
63 # number of training documents 
2 # number of support vectors plus 1 
0 # threshold b, each following line is a SV (starting with alpha*y)
1 1:0.055661 2:-0.21898115 3:0.25030947 4:-0.12729302 5:0.1575847 11:0.0095753958 12:-0.095732041 13:-0.054791283 14:-0.58496207 15:-0.1516442 16:-0.1519288 17:-0.30424216 18:-0.47159442 19:-0.52664477 20:-0.15331995 21:-0.43539184 22:-0.62654573 23:1.3835117 24:0.55571115 25:0.25391427 26:-0.80407429 27:0.050413515 28:0.90825683 29:0.81438261 30:0.28310618 31:-0.6064592 32:-0.16416633 33:0.58797467 34:0.4591448 35:-0.63759685 36:0.23930477 37:0.092464045 38:-0.26503044 39:0.4827255 40:0.27569911 41:0.48854047 42:0.15540063 44:-0.19573292 45:0.18228669 46:-0.0055215443 #
