SVM-light Version V6.20
0 # kernel type
3 # kernel parameter -d 
1 # kernel parameter -g 
1 # kernel parameter -s 
1 # kernel parameter -r 
empty# kernel parameter -u 
47 # highest feature index 
61 # number of training documents 
2 # number of support vectors plus 1 
0 # threshold b, each following line is a SV (starting with alpha*y)
1 1:-0.59977794 2:-0.029446542 3:0.48884594 4:0.23042043 5:-0.25728029 11:-0.21695116 12:-0.13143651 13:0.30483231 14:-0.54948783 15:0.023855016 16:0.3353191 17:-0.42340738 18:-0.12039173 19:-0.36313221 20:0.37101391 21:0.14070079 22:-0.71666735 23:1.0871851 24:0.014299558 25:-0.013313647 26:-0.14084458 27:-0.056147303 28:0.74607974 29:-0.38730037 30:-0.73621351 31:-0.37418756 32:1.1236249 33:-0.28354958 34:-0.31994808 35:1.4130114 36:-0.06372495 37:0.14934798 38:-0.68370992 39:1.0863826 40:0.31728518 41:0.0074038883 42:0.056506064 44:0.10334073 45:0.32609224 46:-0.52759683 #
