SVM-light Version V6.20
0 # kernel type
3 # kernel parameter -d 
1 # kernel parameter -g 
1 # kernel parameter -s 
1 # kernel parameter -r 
empty# kernel parameter -u 
47 # highest feature index 
62 # number of training documents 
2 # number of support vectors plus 1 
0 # threshold b, each following line is a SV (starting with alpha*y)
1 1:-0.17363143 2:-0.0095392829 3:-0.57041734 4:-0.17086564 5:-0.33891776 11:0.088245824 12:0.04303284 13:0.9126147 14:-0.57495683 15:0.038053386 16:0.12626792 17:-0.21933131 18:-0.2303526 19:-0.26479751 20:0.097145855 21:-0.41441727 22:-0.46763089 23:1.2675325 24:-0.29281566 25:-0.042578917 26:-0.53084153 27:0.71797782 28:0.097629957 29:0.20801079 30:0.10191231 31:-0.30186829 32:0.030146066 33:0.4446747 34:0.21524727 35:0.95456332 36:-0.86971128 37:0.3796415 38:0.10695022 39:0.71584392 40:0.60360295 41:0.11822394 42:-0.049490742 44:-0.27420551 45:0.19249573 46:-0.058236182 #
