SVM-light Version V6.20
0 # kernel type
3 # kernel parameter -d 
1 # kernel parameter -g 
1 # kernel parameter -s 
1 # kernel parameter -r 
empty# kernel parameter -u 
47 # highest feature index 
66 # number of training documents 
2 # number of support vectors plus 1 
0 # threshold b, each following line is a SV (starting with alpha*y)
1 1:-0.64263445 2:0.15860927 3:-0.28266671 4:-0.71511286 5:-0.66656107 11:0.21144837 12:0.49604923 13:0.62520856 14:0.2861827 15:0.13041504 16:0.49734786 17:-0.56757516 18:0.079697311 19:-0.2423517 20:0.51072627 21:-0.13824584 22:0.34404367 23:0.47593668 24:0.41295609 25:0.016769968 26:-1.4525447 27:-0.25182194 28:1.282216 29:0.21276093 30:-0.12596446 31:0.48777503 32:-0.45195031 33:0.56910175 34:-0.27021292 35:-1.063181 36:0.73139644 37:-0.20065539 38:0.35232168 39:0.59998167 40:-0.58045 41:-0.20514001 42:-0.18129443 44:-0.48624185 45:0.58617753 46:0.15996988 #
