SVM-light Version V6.20
0 # kernel type
3 # kernel parameter -d 
1 # kernel parameter -g 
1 # kernel parameter -s 
1 # kernel parameter -r 
empty# kernel parameter -u 
47 # highest feature index 
64 # number of training documents 
2 # number of support vectors plus 1 
0 # threshold b, each following line is a SV (starting with alpha*y)
1 1:-0.21893539 2:-0.047732301 3:0.55453604 4:-0.63356441 5:-0.12793276 11:0.018023228 12:-0.28569558 13:0.2402615 14:-0.45488587 15:-0.022329008 16:0.22039545 17:-0.033671189 18:-0.29541293 19:-0.53576797 20:0.23187993 21:0.026752986 22:-0.0070872572 23:1.359883 24:-0.19406778 25:0.44224814 26:-0.30704626 27:-0.022238394 28:0.46449086 29:0.079615496 30:-0.29779229 31:-0.16025785 32:0.21784924 33:0.69043058 34:-0.35973701 35:0.40415406 36:0.16560061 37:0.42737129 38:-0.2092655 39:0.8179934 40:0.43023816 41:0.10964606 42:-0.40263793 44:0.16456096 45:-0.3356117 46:-0.0034093552 #
