SVM-light Version V6.20
0 # kernel type
3 # kernel parameter -d 
1 # kernel parameter -g 
1 # kernel parameter -s 
1 # kernel parameter -r 
empty# kernel parameter -u 
47 # highest feature index 
65 # number of training documents 
2 # number of support vectors plus 1 
0 # threshold b, each following line is a SV (starting with alpha*y)
1 1:-0.14031337 2:0.46850783 3:-0.68329006 4:0.27066377 5:-0.15348244 11:-0.05369753 12:-0.4909322 13:0.44432917 14:-0.68599427 15:-0.031819448 16:0.041355893 17:-0.0031729203 18:-0.032484964 19:-0.13897033 20:0.025138281 21:0.75738472 22:-0.72392529 23:1.5479718 24:-0.23785967 25:0.32085481 26:0.19401939 27:-0.084417038 28:0.10230751 29:0.3153404 30:-0.22537336 31:0.070456684 32:0.48877043 33:0.22803818 34:-0.39367822 35:-0.14957109 36:0.64392215 37:-0.10143287 38:-0.16732922 39:0.44620812 40:0.084154874 41:-0.11148488 42:-0.12805043 44:0.12683973 45:-0.19057174 46:-0.28575593 #
