SVM-light Version V6.20
0 # kernel type
3 # kernel parameter -d 
1 # kernel parameter -g 
1 # kernel parameter -s 
1 # kernel parameter -r 
empty# kernel parameter -u 
47 # highest feature index 
66 # number of training documents 
2 # number of support vectors plus 1 
0 # threshold b, each following line is a SV (starting with alpha*y)
1 1:-0.0041354424 2:-0.18162492 3:0.25333479 4:0.37768689 5:-0.10230727 11:0.2769649 12:0.11050151 13:-0.10127447 14:-0.94549567 15:0.033337418 16:0.033006512 17:-0.15705645 18:-0.31108943 19:-0.49168974 20:0.047651019 21:0.43040609 22:-0.53616011 23:0.64288563 24:0.26007003 25:-0.26479271 26:-0.56996292 27:0.34127468 28:0.25278592 29:-0.070415318 30:0.28454104 31:0.58373064 32:-0.11597455 33:0.60711789 34:-0.80085194 35:0.11460867 36:0.82313687 37:-0.66321474 38:0.0050828331 39:0.26915219 40:0.842498 41:-0.34373686 42:0.4977394 44:0.17510596 45:0.21228053 46:0.041099835 #
