SVM-light Version V6.20
0 # kernel type
3 # kernel parameter -d 
1 # kernel parameter -g 
1 # kernel parameter -s 
1 # kernel parameter -r 
empty# kernel parameter -u 
47 # highest feature index 
62 # number of training documents 
2 # number of support vectors plus 1 
0 # threshold b, each following line is a SV (starting with alpha*y)
1 1:0.13313971 2:-0.23115665 3:0.56332374 4:0.90491337 5:-0.075740278 11:0.46179077 12:-0.20890658 13:-0.39404741 14:-0.79614878 15:0.47706631 16:-0.041627932 17:-0.096157573 18:0.074751139 19:0.32674754 20:-0.053545848 21:0.076133288 22:0.79361552 23:0.6559633 24:-0.092516668 25:0.0070504402 26:-0.52692187 27:0.52782637 28:0.27290118 29:0.15601568 30:-0.28893512 31:0.27818951 32:0.43873718 33:-0.12299722 34:0.12365205 35:-0.32155925 36:0.43486077 37:-0.27060348 38:-0.022780987 39:-0.40503162 40:-0.070954703 41:0.41595212 42:-0.95484155 44:0.26244268 45:-0.15357715 46:0.085522272 #
