SVM-light Version V6.20
0 # kernel type
3 # kernel parameter -d 
1 # kernel parameter -g 
1 # kernel parameter -s 
1 # kernel parameter -r 
empty# kernel parameter -u 
47 # highest feature index 
63 # number of training documents 
2 # number of support vectors plus 1 
0 # threshold b, each following line is a SV (starting with alpha*y)
1 1:0.0073018409 2:0.13285576 3:-0.052110393 4:-1.1147084 5:0.12768669 11:-0.26211885 12:-0.065653138 13:-0.060335584 14:0.29566729 15:-0.1493367 16:0.17978539 17:0.22369218 18:-0.0041062408 19:-0.49127582 20:0.16460074 21:-1.043052 22:-0.23655981 23:1.2197076 24:0.98770463 25:0.14876303 26:-0.38121235 27:-0.44313905 28:0.83548093 29:0.58298057 30:-0.32541701 31:0.18910912 32:0.11575469 33:1.1361346 34:0.010604682 35:-0.028045204 36:-0.1943341 37:0.82767218 38:-0.46397606 39:0.78364396 40:-0.41874105 41:-0.078423545 42:0.12371523 44:0.25938246 45:-0.40531883 46:-0.21140876 #
