SVM-light Version V6.20
0 # kernel type
3 # kernel parameter -d 
1 # kernel parameter -g 
1 # kernel parameter -s 
1 # kernel parameter -r 
empty# kernel parameter -u 
47 # highest feature index 
67 # number of training documents 
2 # number of support vectors plus 1 
0 # threshold b, each following line is a SV (starting with alpha*y)
1 1:0.28919739 2:-0.059216943 3:0.20529877 4:0.84344047 5:0.081768379 11:-0.055205137 12:-0.052076489 13:-0.66519666 14:-0.30561063 15:-0.44906947 16:-0.076469146 17:-0.035272557 18:0.31370544 19:-0.40236655 20:-0.10794604 21:-0.13172776 22:0.29350138 23:0.763722 24:0.08488559 25:-0.7076807 26:-0.062469453 27:0.4143666 28:0.67523831 29:1.0487956 30:-0.39984405 31:-0.41601896 32:0.24431948 33:-0.28318202 34:0.10438234 35:0.75676256 36:-1.2611487 37:0.65412062 38:-0.015368991 39:0.49345359 40:-0.83788824 41:0.62190443 42:-0.13843548 44:0.16682996 45:-0.32160702 46:0.2751973 #
