SVM-light Version V6.20
0 # kernel type
3 # kernel parameter -d 
1 # kernel parameter -g 
1 # kernel parameter -s 
1 # kernel parameter -r 
empty# kernel parameter -u 
47 # highest feature index 
67 # number of training documents 
2 # number of support vectors plus 1 
0 # threshold b, each following line is a SV (starting with alpha*y)
1 1:-0.16675755 2:0.073171169 3:0.52541763 4:-0.34823161 5:-0.1187333 11:-0.027604185 12:-0.16699798 13:-0.47229037 14:0.077025786 15:-0.003162683 16:0.063739859 17:-0.24623653 18:-0.19269432 19:-0.27272683 20:0.083594479 21:0.084958583 22:-0.91745198 23:1.4484082 24:-0.25536701 25:0.33605558 26:-0.41965199 27:-0.015489879 28:0.84105992 29:0.49846238 30:0.12800741 31:-0.39893675 32:0.22759254 33:0.20027478 34:0.12037405 35:0.12858486 36:-0.34593648 37:0.48381966 38:0.0086322529 39:1.2445791 40:-0.023513356 41:-0.084564582 42:-0.13424405 44:0.070703737 45:-0.45503986 46:-0.073266879 #
