SVM-light Version V6.20
0 # kernel type
3 # kernel parameter -d 
1 # kernel parameter -g 
1 # kernel parameter -s 
1 # kernel parameter -r 
empty# kernel parameter -u 
47 # highest feature index 
67 # number of training documents 
2 # number of support vectors plus 1 
0 # threshold b, each following line is a SV (starting with alpha*y)
1 1:-0.81527764 2:-0.016818594 3:0.054701041 4:-0.81566799 5:-0.39653966 11:-0.21453869 12:-0.97374201 13:0.045839537 14:-0.88461345 15:0.16286375 16:-0.14662641 17:-0.1212774 18:-0.24980713 19:-0.51813453 20:-0.1519694 21:0.11155152 22:0.19864056 23:0.87904269 24:1.1394069 25:0.32085249 26:-0.42372784 27:-0.059870999 28:-0.39111978 29:0.16593786 30:-1.3101003 31:0.076554142 32:1.0512491 33:0.69519287 34:-0.17052269 35:-0.12661286 36:-0.19684812 37:0.24947788 38:-0.463875 39:1.0566905 40:0.57723069 41:0.15322143 42:-0.62521285 44:-0.68797022 45:-0.16968724 46:-0.25771683 #
