SVM-light Version V6.20
0 # kernel type
3 # kernel parameter -d 
1 # kernel parameter -g 
1 # kernel parameter -s 
1 # kernel parameter -r 
empty# kernel parameter -u 
47 # highest feature index 
64 # number of training documents 
2 # number of support vectors plus 1 
0 # threshold b, each following line is a SV (starting with alpha*y)
1 1:0.057626702 2:-0.11839809 3:0.24552274 4:-0.56882119 5:0.067646012 11:-0.058439627 12:-0.20011424 13:-0.40132856 14:-0.14335777 15:-0.11041897 16:0.0037476551 17:-0.37337792 18:0.059703127 19:-0.072895788 20:0.019482775 21:0.040359709 22:-0.29421836 23:1.867324 24:0.027166333 25:0.21576995 26:-0.03918919 27:0.22674824 28:0.50128627 29:0.4903962 30:-0.4779548 31:0.034563687 32:0.64170134 33:0.85126066 34:-0.14512458 35:0.56982011 36:-0.64870316 37:0.12184556 38:-0.096222021 39:1.2571827 40:-0.33182952 41:-0.13744549 42:-0.12550433 44:0.20918649 45:-0.39685524 46:-0.18364374 #
