SVM-light Version V6.20
0 # kernel type
3 # kernel parameter -d 
1 # kernel parameter -g 
1 # kernel parameter -s 
1 # kernel parameter -r 
empty# kernel parameter -u 
47 # highest feature index 
64 # number of training documents 
2 # number of support vectors plus 1 
0 # threshold b, each following line is a SV (starting with alpha*y)
1 1:-0.15529168 2:0.13284063 3:1.0898566 4:0.38704118 5:-0.0001231355 11:0.060905505 12:-0.39608273 13:0.070787407 14:-1.2376071 15:0.17134948 16:0.018446295 17:-0.15663615 18:-0.21946755 19:-0.30452085 20:0.03635408 21:-0.4284336 22:0.35728651 23:0.30664191 24:-0.2896758 25:0.57549477 26:0.17462631 27:-0.74090713 28:0.024085065 29:-0.69520539 30:0.11740119 31:-0.75156218 32:0.66933811 33:0.27046141 34:1.0402925 35:0.57733548 36:-0.9002853 37:0.41250512 38:0.066450909 39:1.2940731 40:-0.56316233 41:0.019121984 42:0.24038531 44:0.31244963 45:0.020411454 46:-0.064210206 #
