SVM-light Version V6.20
0 # kernel type
3 # kernel parameter -d 
1 # kernel parameter -g 
1 # kernel parameter -s 
1 # kernel parameter -r 
empty# kernel parameter -u 
47 # highest feature index 
66 # number of training documents 
2 # number of support vectors plus 1 
0 # threshold b, each following line is a SV (starting with alpha*y)
1 1:0.2732653 2:0.13704215 3:0.24284193 4:-0.58955115 5:0.4382132 11:-0.20828338 12:-1.135805 13:0.10311825 14:-0.23204015 15:-0.20361023 16:-0.19773172 17:0.049626023 18:0.011480111 19:-0.33741114 20:-0.16137171 21:0.056856159 22:0.025816232 23:1.2956253 24:-0.44378728 25:0.59521174 26:-1.1712387 27:0.7032249 28:0.80029577 29:0.17025043 30:0.56276375 31:-0.27519339 32:-0.21896453 33:0.62950969 34:-0.58348513 35:0.55805475 36:0.25300118 37:0.49234065 38:0.22886203 39:0.30608624 40:-0.51705784 41:0.37882951 42:0.00586322 44:-0.08100412 45:0.56751043 46:-0.23071256 #
