SVM-light Version V6.20
0 # kernel type
3 # kernel parameter -d 
1 # kernel parameter -g 
1 # kernel parameter -s 
1 # kernel parameter -r 
empty# kernel parameter -u 
47 # highest feature index 
65 # number of training documents 
2 # number of support vectors plus 1 
0 # threshold b, each following line is a SV (starting with alpha*y)
1 1:-0.44748196 2:1.0494035 3:0.50794375 4:-0.11169448 5:-0.17015289 11:-0.099824958 12:-1.1877527 13:-0.30931816 14:-1.2760185 15:0.055853263 16:0.32006091 17:-0.35909125 18:-0.24930903 19:-0.38132539 20:0.33994931 21:-0.11277382 22:0.24465394 23:0.58176327 24:0.0059708343 25:0.38524756 26:-0.093701445 27:0.37006858 28:-0.66865617 29:-0.1147508 30:-0.45597455 31:-0.032054946 32:0.87050855 33:1.1635176 34:-0.98334986 35:1.5740256 36:-0.62566888 37:-0.048532922 38:0.030253626 39:0.3744967 40:0.66680437 41:-0.15744217 42:-0.045657635 44:0.22889212 45:0.28531882 46:0.040357579 #
