SVM-light Version V6.20
0 # kernel type
3 # kernel parameter -d 
1 # kernel parameter -g 
1 # kernel parameter -s 
1 # kernel parameter -r 
empty# kernel parameter -u 
47 # highest feature index 
62 # number of training documents 
2 # number of support vectors plus 1 
0 # threshold b, each following line is a SV (starting with alpha*y)
1 1:-0.2753 2:-0.043856461 3:0.60926294 4:-0.25859377 5:-0.26913601 11:-0.0085336156 12:0.021563146 13:-0.82670563 14:0.614214 15:0.041370526 16:0.086478621 17:-0.30585149 18:0.024902042 19:-0.49460295 20:0.079033569 21:0.75160789 22:-0.36005187 23:1.6012473 24:-0.2077305 25:0.048220269 26:-0.082532264 27:-0.047030106 28:0.15593554 29:0.50601518 30:0.188233 31:-0.57947034 32:0.51552081 33:-0.48615283 34:-0.51233554 35:0.74950331 36:0.013081931 37:-0.039900225 38:-0.42014214 39:0.42070729 40:0.035392024 41:0.17709973 42:0.0068640611 44:-0.26113051 45:0.11034319 46:-0.35613444 #
