SVM-light Version V6.20
0 # kernel type
3 # kernel parameter -d 
1 # kernel parameter -g 
1 # kernel parameter -s 
1 # kernel parameter -r 
empty# kernel parameter -u 
47 # highest feature index 
64 # number of training documents 
2 # number of support vectors plus 1 
0 # threshold b, each following line is a SV (starting with alpha*y)
1 1:0.14278767 2:0.33793145 3:0.31313688 4:-0.53619701 5:0.14291924 11:-0.20861705 12:-0.78815258 13:-0.32375646 14:0.54461873 15:-0.34150934 16:0.14520602 17:-0.090577178 18:-0.0515939 19:-0.60195148 20:0.13828053 21:0.4188979 22:-0.69166416 23:1.1608754 24:-0.58667344 25:0.34689748 26:-0.21334466 27:0.23570845 28:0.3057929 29:-0.012544684 30:0.47122222 31:-0.069163874 32:0.11854455 33:-0.10984727 34:-0.14304008 35:0.059623878 36:0.10738949 37:0.83589989 38:-0.20993841 39:0.79722327 40:0.54720551 41:-0.069082126 42:-0.18631528 44:0.06082692 45:-0.17280123 46:-0.1313538 #
