SVM-light Version V6.20
0 # kernel type
3 # kernel parameter -d 
1 # kernel parameter -g 
1 # kernel parameter -s 
1 # kernel parameter -r 
empty# kernel parameter -u 
47 # highest feature index 
62 # number of training documents 
2 # number of support vectors plus 1 
0 # threshold b, each following line is a SV (starting with alpha*y)
1 1:0.13507172 2:0.29017022 3:0.15507349 4:-0.55963993 5:0.091115065 11:0.037387166 12:-0.9709782 13:-0.3225151 14:-0.55900663 15:-0.18479459 16:0.010362264 17:0.17223071 18:-0.17314027 19:-0.41293481 20:0.019541804 21:0.21894789 22:-0.79182053 23:1.1556604 24:-0.30092773 25:0.48536047 26:-0.78219759 27:0.23573864 28:0.90239149 29:0.63355172 30:-0.32781735 31:-0.085871525 32:0.49644592 33:1.0680252 34:-0.099053487 35:-0.12695904 36:0.14891309 37:0.98369873 38:-0.037159964 39:1.0217538 40:0.46943709 41:0.09686242 42:-0.1504536 44:0.24875428 45:-0.24639246 46:-0.27547425 #
