SVM-light Version V6.20
0 # kernel type
3 # kernel parameter -d 
1 # kernel parameter -g 
1 # kernel parameter -s 
1 # kernel parameter -r 
empty# kernel parameter -u 
47 # highest feature index 
63 # number of training documents 
2 # number of support vectors plus 1 
0 # threshold b, each following line is a SV (starting with alpha*y)
1 1:-0.22357126 2:-0.011548108 3:0.6331656 4:0.43028 5:-0.08879254 11:-0.18845156 12:-0.5406397 13:-0.78998834 14:-0.47214553 15:-0.24159838 16:0.11336649 17:-0.097502619 18:-0.15882681 19:-0.32908279 20:0.11212069 21:0.6324507 22:-0.39475334 23:1.5230762 24:0.50077379 25:0.60893226 26:-0.46075448 27:0.66109163 28:0.30807316 29:0.096767113 30:-0.00014400692 31:-0.1559484 32:0.31124032 33:0.19620557 34:-0.1967786 35:0.077181518 36:0.083968677 37:0.42102093 38:-1.0803292 39:0.29520172 40:-0.14003803 41:0.31238398 42:-0.31823114 44:-0.036636107 45:-0.11433508 46:-0.4531635 #
