SVM-light Version V6.20
0 # kernel type
3 # kernel parameter -d 
1 # kernel parameter -g 
1 # kernel parameter -s 
1 # kernel parameter -r 
empty# kernel parameter -u 
47 # highest feature index 
59 # number of training documents 
2 # number of support vectors plus 1 
0 # threshold b, each following line is a SV (starting with alpha*y)
1 1:-0.45836651 2:0.19169657 3:0.092713349 4:-0.52895796 5:-0.35764036 11:-0.049402691 12:-0.16395068 13:0.56170148 14:-0.19871165 15:-0.032028068 16:0.50229031 17:-0.23915376 18:-0.39897308 19:-0.17129619 20:0.50507981 21:-0.23758537 22:-0.12637194 23:1.7516791 24:0.097307757 25:0.10077641 26:-0.64392632 27:0.19745307 28:0.90198529 29:0.053847257 30:-0.40640211 31:-0.17795871 32:0.41073555 33:0.58913291 34:-0.045707438 35:0.82053822 36:-0.6919114 37:0.12061929 38:-0.087953158 39:1.1399114 40:0.0069506839 41:-0.14653841 42:-0.32597929 44:0.026224164 45:-0.076915897 46:-0.16977499 #
