SVM-light Version V6.20
0 # kernel type
3 # kernel parameter -d 
1 # kernel parameter -g 
1 # kernel parameter -s 
1 # kernel parameter -r 
empty# kernel parameter -u 
47 # highest feature index 
65 # number of training documents 
2 # number of support vectors plus 1 
0 # threshold b, each following line is a SV (starting with alpha*y)
1 1:-0.19233261 2:0.36983752 3:0.075696379 4:-0.63720834 5:0.02613008 11:-0.080528215 12:0.34966752 13:0.39243513 14:-0.46279663 15:-0.075707562 16:0.17603692 17:-0.18498756 18:-0.10016946 19:-0.29825532 20:0.17817986 21:-0.34055665 22:0.3683708 23:1.3197259 24:-0.20967054 25:-0.10936874 26:-0.3871026 27:-0.32304347 28:0.41409206 29:0.013929137 30:-0.060897928 31:0.40324068 32:-0.26806977 33:0.96927726 34:-0.59257287 35:0.71730483 36:-0.033490364 37:0.044678438 38:-0.10954621 39:0.98576969 40:-0.093938574 41:0.18530397 42:-0.33795807 44:0.059502281 45:-0.089955881 46:-0.43108511 #
