SVM-light Version V6.20
0 # kernel type
3 # kernel parameter -d 
1 # kernel parameter -g 
1 # kernel parameter -s 
1 # kernel parameter -r 
empty# kernel parameter -u 
47 # highest feature index 
66 # number of training documents 
2 # number of support vectors plus 1 
0 # threshold b, each following line is a SV (starting with alpha*y)
1 1:-0.06863787 2:-0.21584584 3:0.31126514 4:-0.21417724 5:0.24563245 11:-0.22789499 12:-0.20647867 13:-0.19467241 14:-0.19546697 15:0.022510383 16:-0.012721291 17:-0.21990991 18:0.075593464 19:-0.13689309 20:0.020466737 21:0.42491341 22:0.14690025 23:1.4147305 24:-0.15031816 25:0.11010661 26:0.13723558 27:0.16852914 28:0.20487534 29:0.5472067 30:-0.62242526 31:-0.1331221 32:0.3334637 33:0.36666486 34:0.094336726 35:-0.2120921 36:0.060329802 37:-0.31614205 38:-0.15637559 39:0.062179033 40:0.17225845 41:-0.10032746 42:-0.069545083 44:-0.32346427 45:0.061703876 46:0.022435727 #
