SVM-light Version V6.20
0 # kernel type
3 # kernel parameter -d 
1 # kernel parameter -g 
1 # kernel parameter -s 
1 # kernel parameter -r 
empty# kernel parameter -u 
47 # highest feature index 
60 # number of training documents 
2 # number of support vectors plus 1 
0 # threshold b, each following line is a SV (starting with alpha*y)
1 1:-0.21969992 2:-0.15226477 3:-0.42230439 4:0.33668935 5:-0.22509684 11:0.26627454 12:-0.18881983 13:0.27604398 14:-0.44860542 15:-0.0065413276 16:-0.02436531 17:-0.37829486 18:0.081283666 19:0.16981491 20:-0.033705175 21:0.17331971 22:0.34192249 23:1.1136172 24:0.022418769 25:0.25525036 26:-0.50714427 27:0.42783678 28:0.52289492 29:0.57796764 30:-0.056193318 31:-0.206405 32:0.19476505 33:0.37465277 34:-0.57098198 35:-0.10517185 36:0.3550908 37:0.20506307 38:-0.8310622 39:0.99428606 40:-0.22961804 41:-0.060210004 42:-0.34983581 44:-0.16728555 45:0.27649471 46:0.11169423 #
