SVM-light Version V6.20
0 # kernel type
3 # kernel parameter -d 
1 # kernel parameter -g 
1 # kernel parameter -s 
1 # kernel parameter -r 
empty# kernel parameter -u 
47 # highest feature index 
65 # number of training documents 
2 # number of support vectors plus 1 
0 # threshold b, each following line is a SV (starting with alpha*y)
1 1:0.057043247 2:0.91716808 3:0.94751197 4:-0.76926303 5:0.3663812 11:-0.5317502 12:-1.4515746 13:-1.2064952 14:0.026029753 15:-0.28596488 16:-0.054822352 17:-0.44251817 18:0.057609875 19:-0.19671571 20:-0.050724924 21:0.50156057 22:-0.24721561 23:0.78798139 24:-0.0512789 25:1.2726471 26:-0.16186568 27:-0.16472842 28:-0.14427336 29:0.12954402 30:-0.63098574 31:0.40959039 32:0.65223867 33:0.86947751 34:0.1649572 35:0.12523456 36:-0.40651512 37:-0.066930659 38:-0.0034376185 39:0.32562125 40:-0.32867971 41:-0.42100084 42:0.50098348 44:-0.39981249 45:0.52382761 46:-0.025974337 #
