SVM-light Version V6.20
0 # kernel type
3 # kernel parameter -d 
1 # kernel parameter -g 
1 # kernel parameter -s 
1 # kernel parameter -r 
empty# kernel parameter -u 
47 # highest feature index 
67 # number of training documents 
2 # number of support vectors plus 1 
0 # threshold b, each following line is a SV (starting with alpha*y)
1 1:-0.16994245 2:0.78278345 3:0.016922608 4:0.029214799 5:-0.2798169 11:0.35358071 12:-0.74279922 13:-0.83035636 14:-1.1439834 15:0.2432248 16:-0.07769236 17:-0.14152524 18:0.15902948 19:-0.49581456 20:-0.088588886 21:0.051125783 22:-1.2956094 23:0.75712323 24:-0.18422906 25:0.39347202 26:-0.70654523 27:0.16621161 28:0.42983764 29:-0.049519774 30:-0.17867143 31:0.23713134 32:0.88573331 33:1.4347212 34:-0.093175061 35:-0.70503402 36:0.5234642 37:0.4140242 38:-0.5231148 39:0.50349468 40:1.3339298 41:0.19474773 42:0.0025050703 44:-0.02598271 45:-0.044907279 46:-0.16590466 #
