SVM-light Version V6.20
0 # kernel type
3 # kernel parameter -d 
1 # kernel parameter -g 
1 # kernel parameter -s 
1 # kernel parameter -r 
empty# kernel parameter -u 
47 # highest feature index 
63 # number of training documents 
2 # number of support vectors plus 1 
0 # threshold b, each following line is a SV (starting with alpha*y)
1 1:-0.092987195 2:-0.50215542 3:0.034347285 4:0.13900907 5:0.058749743 11:-0.069235526 12:-0.0081277108 13:0.58106494 14:-0.41556481 15:-0.23092006 16:0.34591535 17:-0.083542794 18:-0.29614064 19:-0.41335234 20:0.34323278 21:0.5687691 22:-0.20615591 23:0.77729613 24:-0.56602651 25:0.52188092 26:-0.30362931 27:0.16894409 28:-0.20650432 29:-0.09564849 30:0.16735147 31:-0.14915384 32:0.20320609 33:-0.35094166 34:1.0325832 35:0.4894886 36:-0.65572912 37:0.43150511 38:0.22793122 39:0.53650707 40:-0.69224107 41:0.1464207 42:0.24983372 44:-0.51706761 45:0.23537177 46:0.037245728 #
