SVM-light Version V6.20
0 # kernel type
3 # kernel parameter -d 
1 # kernel parameter -g 
1 # kernel parameter -s 
1 # kernel parameter -r 
empty# kernel parameter -u 
47 # highest feature index 
60 # number of training documents 
2 # number of support vectors plus 1 
0 # threshold b, each following line is a SV (starting with alpha*y)
1 1:-0.18013577 2:0.073125638 3:0.11935018 4:-1.1145868 5:-0.25198126 11:0.045413367 12:-1.129131 13:-0.51158577 14:-0.39351395 15:-0.21011624 16:-0.2252536 17:-0.0092872623 18:0.091440462 19:0.06372758 20:-0.23688485 21:0.21190986 22:-0.33335674 23:0.82949024 24:0.88490564 25:0.54642993 26:-0.42658111 27:-0.043237004 28:-0.20509532 29:0.29227191 30:0.22804308 31:-0.47459385 32:0.47940177 33:0.63958657 34:0.12466792 35:-0.67897946 36:-0.22225912 37:0.31264985 38:-0.15146551 39:0.75825858 40:0.79500955 41:-0.11897688 42:-0.48600057 44:-0.22533254 45:0.078030527 46:0.21445359 #
