SVM-light Version V6.20
0 # kernel type
3 # kernel parameter -d 
1 # kernel parameter -g 
1 # kernel parameter -s 
1 # kernel parameter -r 
empty# kernel parameter -u 
47 # highest feature index 
64 # number of training documents 
2 # number of support vectors plus 1 
0 # threshold b, each following line is a SV (starting with alpha*y)
1 1:0.044788063 2:-0.43955347 3:0.18485492 4:0.44916898 5:0.15527032 11:-0.15101692 12:0.056140516 13:-0.11679055 14:-0.65658468 15:-0.11903617 16:0.033020418 17:-0.09593489 18:-0.260658 19:-0.1227288 20:0.05336649 21:0.20549563 22:-0.09808819 23:1.1495667 24:0.046683092 25:0.072224319 26:-0.47977194 27:0.281059 28:0.84693617 29:0.22106232 30:-0.65766841 31:0.34689704 32:0.56852502 33:0.24582793 34:0.03473296 35:-0.53512007 36:0.076226331 37:0.55815625 38:-0.36664349 39:0.88494796 40:-0.42465445 41:-0.066381209 42:-0.093706571 44:0.13235773 45:-0.17007221 46:0.021968076 #
