SVM-light Version V6.20
0 # kernel type
3 # kernel parameter -d 
1 # kernel parameter -g 
1 # kernel parameter -s 
1 # kernel parameter -r 
empty# kernel parameter -u 
47 # highest feature index 
63 # number of training documents 
2 # number of support vectors plus 1 
0 # threshold b, each following line is a SV (starting with alpha*y)
1 1:-0.63570768 2:0.53583038 3:-0.22554785 4:-0.5823679 5:-0.75993437 11:0.60583389 12:-0.15243581 13:-0.56781608 14:0.52381623 15:0.13666221 16:0.638044 17:-0.55314434 18:0.89155263 19:-0.5382911 20:0.64910275 21:0.39313844 22:-0.49708226 23:0.4143832 24:-1.0495225 25:-0.54426837 26:0.17885654 27:-0.38058499 28:1.1348165 29:0.48801354 30:0.37552154 31:0.12407856 32:-0.38288727 33:0.49249491 34:-0.22646566 35:0.15014978 36:-0.41405138 37:-0.051970981 38:1.2071961 39:0.1518635 40:-0.3959226 41:0.072720177 42:0.7846821 44:-0.7020238 45:0.82565486 46:0.17098846 #
