SVM-light Version V6.20
0 # kernel type
3 # kernel parameter -d 
1 # kernel parameter -g 
1 # kernel parameter -s 
1 # kernel parameter -r 
empty# kernel parameter -u 
47 # highest feature index 
63 # number of training documents 
2 # number of support vectors plus 1 
0 # threshold b, each following line is a SV (starting with alpha*y)
1 1:0.29298466 2:0.053172886 3:0.0036586402 4:-0.24744014 5:0.33165339 11:-0.33846325 12:-0.13371012 13:-0.27350974 14:-0.11408549 15:-0.018669497 16:-0.0012544038 17:0.051715765 18:-0.12387009 19:-0.0069016684 20:0.015748737 21:0.81897986 22:-0.12827937 23:0.14111066 24:-0.25810811 25:-0.28999114 26:0.65230173 27:-0.043546472 28:-0.055562556 29:0.79181182 30:-0.34120914 31:0.44515672 32:-0.34478772 33:0.45100632 34:-0.13735688 35:-1.053001 36:0.45137995 37:-0.35944122 38:-0.31664389 39:0.5302192 40:0.92002553 41:-0.54955304 42:0.56027055 44:0.40333372 45:-0.48817363 46:-0.12000339 #
