SVM-light Version V6.20
0 # kernel type
3 # kernel parameter -d 
1 # kernel parameter -g 
1 # kernel parameter -s 
1 # kernel parameter -r 
empty# kernel parameter -u 
47 # highest feature index 
61 # number of training documents 
2 # number of support vectors plus 1 
0 # threshold b, each following line is a SV (starting with alpha*y)
1 1:-0.079781488 2:-0.03947359 3:-0.51066273 4:-0.12500548 5:-0.21331351 11:0.096748911 12:0.23550521 13:-0.36421072 14:-0.51598459 15:-0.12592232 16:0.027028032 17:-0.055615965 18:0.861426 19:0.078273132 20:0.0059487438 21:-0.061430488 22:-0.30254298 23:0.4575952 24:0.037871305 25:0.37164062 26:0.22381844 27:-0.5267511 28:-0.080074616 29:-0.16068232 30:0.49407327 31:0.33396763 32:0.042056717 33:0.8006658 34:-0.68893492 35:-0.35440722 36:1.171046 37:0.9123171 38:-0.31771883 39:0.9120627 40:-0.6043492 41:-0.08849369 42:0.41419622 44:-0.38819054 45:0.17136824 46:-0.41463304 #
