SVM-light Version V6.20
0 # kernel type
3 # kernel parameter -d 
1 # kernel parameter -g 
1 # kernel parameter -s 
1 # kernel parameter -r 
empty# kernel parameter -u 
47 # highest feature index 
64 # number of training documents 
2 # number of support vectors plus 1 
0 # threshold b, each following line is a SV (starting with alpha*y)
1 1:-0.19323643 2:-0.30708268 3:0.33889699 4:-0.13597858 5:-0.076764248 11:0.016589178 12:0.36347845 13:-0.60681623 14:-0.065305218 15:-0.0023424237 16:0.096367858 17:0.027641734 18:0.0088516381 19:0.032481849 20:0.094911486 21:0.22396724 22:0.24898204 23:1.5540892 24:0.066435017 25:0.28694996 26:0.42129707 27:-0.69593203 28:0.31550783 29:0.70114809 30:-0.34516257 31:0.015889777 32:0.39633331 33:0.49244127 34:0.65668309 35:-0.8059895 36:-0.17112635 37:-0.1971778 38:-0.31913686 39:0.59633714 40:-0.43777457 41:0.060616974 42:-0.3340947 44:0.48693332 45:-0.45137942 46:-0.44907784 #
