SVM-light Version V6.20
0 # kernel type
3 # kernel parameter -d 
1 # kernel parameter -g 
1 # kernel parameter -s 
1 # kernel parameter -r 
empty# kernel parameter -u 
47 # highest feature index 
65 # number of training documents 
2 # number of support vectors plus 1 
0 # threshold b, each following line is a SV (starting with alpha*y)
1 1:0.50386119 2:0.13029242 3:0.389514 4:0.28926739 5:0.10471278 11:0.21793807 12:-0.2543036 13:-0.6860007 14:-0.4867667 15:-0.4490923 16:-0.030351514 17:-0.49814105 18:0.24254708 19:-0.18232939 20:-0.032767814 21:0.80284995 22:-0.18409206 23:0.93093884 24:-1.9253725 25:0.427275 26:0.18748532 27:-0.038585544 28:0.23393662 29:0.040564824 30:-0.062840365 31:0.42231667 32:-0.015684295 33:-0.41388214 34:0.25243178 35:-0.42260069 36:0.53374606 37:0.14322422 38:0.59482181 39:0.16083972 40:0.39921799 41:-0.3063153 42:0.32184997 44:0.56376731 45:-0.28259769 46:-0.15657349 #
