SVM-light Version V6.20
0 # kernel type
3 # kernel parameter -d 
1 # kernel parameter -g 
1 # kernel parameter -s 
1 # kernel parameter -r 
empty# kernel parameter -u 
47 # highest feature index 
63 # number of training documents 
2 # number of support vectors plus 1 
0 # threshold b, each following line is a SV (starting with alpha*y)
1 1:-0.30521673 2:-0.13830616 3:-0.13970935 4:0.56984317 5:0.065011866 11:-0.51161134 12:0.34161058 13:0.91198385 14:-0.931041 15:0.011161149 16:0.19054829 17:-0.74860096 18:-0.37459287 19:-0.7020545 20:0.23242854 21:-0.44192737 22:-0.059830599 23:0.15750186 24:0.38845414 25:-0.53446221 26:-0.16825356 27:0.51672792 28:0.77001363 29:-0.4857932 30:-0.085807569 31:-0.3081457 32:0.19880238 33:0.52373528 34:-0.49411118 35:0.31719309 36:0.27896717 37:-0.53576553 38:-0.43516183 39:-0.44796965 40:1.8469508 41:-0.34002614 42:1.10932 44:0.17864506 45:0.12743741 46:-0.079036258 #
