SVM-light Version V6.20
0 # kernel type
3 # kernel parameter -d 
1 # kernel parameter -g 
1 # kernel parameter -s 
1 # kernel parameter -r 
empty# kernel parameter -u 
47 # highest feature index 
64 # number of training documents 
2 # number of support vectors plus 1 
0 # threshold b, each following line is a SV (starting with alpha*y)
1 1:0.038513549 2:0.14141977 3:-0.00020795139 4:0.27928963 5:0.041407395 11:-0.3603856 12:-0.20783047 13:-0.68713892 14:-0.23887843 15:-0.4822402 16:0.28726268 17:0.41703102 18:0.6557802 19:-0.46896431 20:0.25829461 21:0.40945762 22:-0.039409582 23:0.26880404 24:-0.11565357 25:0.34556878 26:-0.92951566 27:0.42547274 28:0.61130995 29:0.56456286 30:0.74134552 31:-0.77632684 32:0.43344685 33:0.52559716 34:-0.23665088 35:0.50497216 36:-0.51919878 37:-0.079295725 38:-0.30231914 39:0.13611849 40:0.69360536 41:-0.043471873 42:0.61062878 44:-0.12953734 45:-0.079032749 46:-0.44999853 #
