SVM-light Version V6.20
0 # kernel type
3 # kernel parameter -d 
1 # kernel parameter -g 
1 # kernel parameter -s 
1 # kernel parameter -r 
empty# kernel parameter -u 
47 # highest feature index 
66 # number of training documents 
2 # number of support vectors plus 1 
0 # threshold b, each following line is a SV (starting with alpha*y)
1 1:-0.01837494 2:-0.29933763 3:0.017648343 4:0.47449914 5:0.073661812 11:0.00069660658 12:0.17980079 13:-0.57994992 14:-0.47228912 15:0.23037326 16:-0.058882024 17:-0.32246932 18:0.51466137 19:-0.35751098 20:-0.039059512 21:0.038954686 22:-1.0766267 23:0.92813772 24:-0.45829245 25:0.39459935 26:0.47833517 27:-0.2908268 28:0.16679768 29:0.86333871 30:-0.18663506 31:0.45701084 32:-0.26794568 33:-0.28041115 34:-0.51688653 35:0.67955709 36:-0.22981229 37:0.21273234 38:-0.22095181 39:0.64449847 40:0.68389124 41:-0.70226103 42:0.66321808 44:0.32627326 45:-0.51487577 46:-0.18397607 #
