SVM-light Version V6.20
0 # kernel type
3 # kernel parameter -d 
1 # kernel parameter -g 
1 # kernel parameter -s 
1 # kernel parameter -r 
empty# kernel parameter -u 
47 # highest feature index 
62 # number of training documents 
2 # number of support vectors plus 1 
0 # threshold b, each following line is a SV (starting with alpha*y)
1 1:0.33079049 2:-0.18220615 3:0.23764485 4:-0.28908956 5:0.019998193 11:-0.020336809 12:-0.38456854 13:0.10258951 14:0.54936254 15:-0.3251684 16:0.12025102 17:0.096765786 18:-0.30937174 19:0.016542938 20:0.10457367 21:-0.89271498 22:0.90302205 23:0.86138928 24:-0.96436113 25:0.26930171 26:-0.55509853 27:0.52689284 28:0.13049898 29:-0.36154875 30:0.45378217 31:-0.37178501 32:0.5951125 33:-0.068269745 34:0.28111222 35:0.16236632 36:-0.79882801 37:0.12179822 38:0.59076709 39:0.13327655 40:0.36984351 41:0.05446298 42:-0.45856676 44:0.0060024252 45:0.43388325 46:-0.15114845 #
