SVM-light Version V6.20
0 # kernel type
3 # kernel parameter -d 
1 # kernel parameter -g 
1 # kernel parameter -s 
1 # kernel parameter -r 
empty# kernel parameter -u 
47 # highest feature index 
64 # number of training documents 
2 # number of support vectors plus 1 
0 # threshold b, each following line is a SV (starting with alpha*y)
1 1:-0.38837612 2:0.26967818 3:-0.34549242 4:0.19392122 5:-0.1928319 11:0.19540453 12:0.30181381 13:0.093995996 14:-0.44638053 15:0.042779032 16:0.33103135 17:-0.053780504 18:0.23555386 19:-1.2024119 20:0.3110618 21:-0.24334736 22:-0.43791792 23:0.98127955 24:0.51087272 25:-0.017870467 26:-0.63348043 27:0.28515607 28:-0.09773799 29:-0.24362417 30:0.32315642 31:0.060437307 32:0.16380222 33:0.65862554 34:-0.59917963 35:0.79881805 36:-0.51265782 37:0.025340026 38:-0.93162763 39:0.53776771 40:0.55542988 41:0.54513603 42:0.67896724 44:-0.26215371 45:0.081733711 46:-0.55564672 #
