SVM-light Version V6.20
0 # kernel type
3 # kernel parameter -d 
1 # kernel parameter -g 
1 # kernel parameter -s 
1 # kernel parameter -r 
empty# kernel parameter -u 
47 # highest feature index 
61 # number of training documents 
2 # number of support vectors plus 1 
0 # threshold b, each following line is a SV (starting with alpha*y)
1 1:0.21375598 2:-0.12618473 3:0.086556822 4:-0.70168698 5:-0.048005663 11:0.0015532309 12:-0.26921514 13:-0.11549269 14:-0.35495445 15:-0.36715519 16:0.16058841 17:-0.15203948 18:-0.021028349 19:-0.89641619 20:0.16303599 21:0.17883067 22:0.024776939 23:1.2683843 24:0.41391689 25:0.64273703 26:-0.19871615 27:0.60760623 28:-0.064223424 29:-0.19176085 30:-0.076232217 31:0.36290553 32:0.11735376 33:1.1944505 34:-0.0070641255 35:-0.092505515 36:-0.1879767 37:-0.17338225 38:-0.68115073 39:0.22166538 40:-0.084525675 41:0.19058655 42:0.45561826 44:-0.018943651 45:-0.085146464 46:-0.097804025 #
