SVM-light Version V6.20
0 # kernel type
3 # kernel parameter -d 
1 # kernel parameter -g 
1 # kernel parameter -s 
1 # kernel parameter -r 
empty# kernel parameter -u 
47 # highest feature index 
63 # number of training documents 
2 # number of support vectors plus 1 
0 # threshold b, each following line is a SV (starting with alpha*y)
1 1:-0.017455988 2:-0.28953797 3:0.01720597 4:0.18227661 5:0.085263886 11:-0.065964922 12:-0.066837452 13:-0.13485022 14:-0.34789512 15:0.070233591 16:-0.08540161 17:-0.10436525 18:-0.0027409715 19:-0.2177663 20:-0.067927822 21:0.61510384 22:0.18238367 23:1.3464831 24:-0.071944408 25:0.35965213 26:-0.69168597 27:0.56738156 28:0.66579896 29:-0.023596287 30:-0.21268661 31:0.033311311 32:0.67675579 33:0.069297284 34:0.050746091 35:-0.30780917 36:0.13755567 37:0.13753541 38:-0.69759983 39:1.186116 40:-0.58226907 41:0.10645137 42:-0.24631065 44:-0.17880388 45:-0.025752617 46:-0.14342359 #
