SVM-light Version V6.20
0 # kernel type
3 # kernel parameter -d 
1 # kernel parameter -g 
1 # kernel parameter -s 
1 # kernel parameter -r 
empty# kernel parameter -u 
47 # highest feature index 
62 # number of training documents 
2 # number of support vectors plus 1 
0 # threshold b, each following line is a SV (starting with alpha*y)
1 1:-0.27803895 2:-0.21273632 3:0.27274328 4:0.1715619 5:-0.092088096 11:-0.028606767 12:-0.19316855 13:-0.2327854 14:-0.5908466 15:0.053904846 16:0.060643002 17:-0.24668497 18:-0.031389598 19:-0.23044024 20:0.084186777 21:0.087646827 22:-0.14677349 23:1.8845432 24:0.12994903 25:0.46862435 26:-0.060112312 27:0.19471931 28:0.51937962 29:0.34601882 30:-0.015449792 31:-0.31135377 32:0.3496871 33:0.24614392 34:0.0011771929 35:0.074204117 36:-0.17692627 37:0.081079632 38:-0.43101475 39:1.2670161 40:-0.081018038 41:-0.014025745 42:-0.26069865 44:0.068607919 45:-0.38934442 46:-0.0033670079 #
