SVM-light Version V6.20
0 # kernel type
3 # kernel parameter -d 
1 # kernel parameter -g 
1 # kernel parameter -s 
1 # kernel parameter -r 
empty# kernel parameter -u 
47 # highest feature index 
61 # number of training documents 
2 # number of support vectors plus 1 
0 # threshold b, each following line is a SV (starting with alpha*y)
1 1:-0.82709318 2:0.097898774 3:-0.1859515 4:-0.66807419 5:-0.37894607 11:-0.28052688 12:-0.96881115 13:0.027877549 14:-0.66267848 15:0.15976201 16:-0.072189718 17:-0.070989408 18:-0.33944103 19:-0.81626654 20:-0.073506989 21:0.07509993 22:-0.11901973 23:1.1223234 24:1.3659428 25:0.44812009 26:-0.74115705 27:0.038022861 28:-0.2944766 29:0.21045323 30:-1.2046934 31:-0.27241066 32:1.4165365 33:0.036181789 34:0.21632561 35:0.2520605 36:-0.60328382 37:0.60282159 38:-0.47585586 39:0.9551127 40:0.40409693 41:0.14589077 42:-0.56407261 44:-0.66072226 45:-0.14783381 46:-0.44316402 #
