SVM-light Version V6.20
0 # kernel type
3 # kernel parameter -d 
1 # kernel parameter -g 
1 # kernel parameter -s 
1 # kernel parameter -r 
empty# kernel parameter -u 
47 # highest feature index 
63 # number of training documents 
2 # number of support vectors plus 1 
0 # threshold b, each following line is a SV (starting with alpha*y)
1 1:-0.23613553 2:0.017321253 3:1.0879041 4:0.012130924 5:-0.15786484 11:0.016240181 12:0.16249488 13:-0.6917699 14:-0.33954659 15:-0.021794667 16:0.063227572 17:-0.048753899 18:-0.58758754 19:-0.43832478 20:0.071199849 21:0.20433427 22:0.036948368 23:1.3137963 24:-0.15732922 25:0.1821311 26:-1.0501781 27:-0.037270401 28:0.80263072 29:0.17165853 30:-0.19676404 31:0.16799679 32:0.54629362 33:0.0044478639 34:0.38770542 35:0.47478899 36:-0.49243289 37:-0.28792167 38:-1.0634515 39:1.0682821 40:0.50173336 41:0.011792462 42:0.11675216 44:-0.20105629 45:0.16068859 46:0.2786091 #
