SVM-light Version V6.20
0 # kernel type
3 # kernel parameter -d 
1 # kernel parameter -g 
1 # kernel parameter -s 
1 # kernel parameter -r 
empty# kernel parameter -u 
47 # highest feature index 
66 # number of training documents 
2 # number of support vectors plus 1 
0 # threshold b, each following line is a SV (starting with alpha*y)
1 1:-0.12393879 2:0.20620269 3:0.78746504 4:-0.92789078 5:-0.10311221 11:0.097910568 12:-0.2431158 13:0.24547076 14:0.04215667 15:-0.063572854 16:0.035516653 17:-0.35446113 18:-0.47816271 19:0.53475523 20:0.0087444121 21:-0.44422498 22:-0.0038234571 23:1.210977 24:-0.11915787 25:-0.20375864 26:-0.869461 27:0.42833251 28:0.64148933 29:-0.19865942 30:0.089743294 31:0.13302186 32:-0.77289957 33:1.0223227 34:-0.63252008 35:0.9042955 36:-0.12115898 37:0.44946453 38:0.093079232 39:0.53908914 40:-0.1274689 41:-0.059310243 42:-0.7792576 44:0.13955589 45:-0.020494891 46:0.12313654 #
