SVM-light Version V6.20
0 # kernel type
3 # kernel parameter -d 
1 # kernel parameter -g 
1 # kernel parameter -s 
1 # kernel parameter -r 
empty# kernel parameter -u 
47 # highest feature index 
64 # number of training documents 
2 # number of support vectors plus 1 
0 # threshold b, each following line is a SV (starting with alpha*y)
1 1:-0.41363302 2:-0.25238919 3:-0.26169822 4:0.091475561 5:-0.4405489 11:0.10358479 12:0.49161682 13:-0.0026980559 14:0.0046638828 15:0.16506536 16:0.20213586 17:0.17865697 18:-0.01756447 19:-0.85077196 20:0.166274 21:0.18351473 22:0.53698564 23:0.63923377 24:0.65640551 25:-0.11926551 26:0.31684044 27:-0.25900784 28:-0.19571671 29:0.029823905 30:0.06669315 31:-0.45489568 32:0.86315465 33:-0.40475538 34:-0.39932933 35:0.24891563 36:0.37320668 37:-0.49130177 38:-0.16332303 39:0.16036785 40:-0.011779438 41:-0.23621844 42:0.48018599 44:-0.2306207 45:-0.1562611 46:-0.32328701 #
