SVM-light Version V6.20
0 # kernel type
3 # kernel parameter -d 
1 # kernel parameter -g 
1 # kernel parameter -s 
1 # kernel parameter -r 
empty# kernel parameter -u 
47 # highest feature index 
67 # number of training documents 
2 # number of support vectors plus 1 
0 # threshold b, each following line is a SV (starting with alpha*y)
1 1:0.5840289 2:0.68799675 3:0.31453094 4:-0.40020508 5:0.40167174 11:-0.21214272 12:-0.575876 13:-0.45162967 14:0.80423367 15:-0.63562495 16:-0.22181189 17:-0.024160448 18:0.4257845 19:0.13910303 20:-0.24555738 21:0.85771251 22:-0.22276764 23:0.95627403 24:-0.88497579 25:-0.0061497078 26:0.34069133 27:-0.54575312 28:0.32012102 29:0.38443345 30:-0.50570333 31:0.32539317 32:0.5344159 33:-0.54985917 34:0.41381088 35:0.0064759343 36:-0.31575063 37:0.025582453 38:0.040642954 39:0.57169503 40:-0.40672308 41:0.12978072 42:-0.47538486 44:0.11518085 45:-0.15268983 46:-0.14930119 #
