SVM-light Version V6.20
0 # kernel type
3 # kernel parameter -d 
1 # kernel parameter -g 
1 # kernel parameter -s 
1 # kernel parameter -r 
empty# kernel parameter -u 
47 # highest feature index 
62 # number of training documents 
2 # number of support vectors plus 1 
0 # threshold b, each following line is a SV (starting with alpha*y)
1 1:0.22508711 2:-0.53412694 3:0.4224951 4:0.14015731 5:0.055414636 11:-0.01138725 12:0.4876321 13:-0.43704435 14:-0.51314288 15:-0.31240577 16:-0.16541018 17:-0.091879703 18:-0.074531063 19:-0.44833434 20:-0.17369395 21:-0.16933759 22:-0.5049215 23:1.1758451 24:0.067495443 25:0.46350339 26:0.82378489 27:-0.94061971 28:-0.070685431 29:0.092405424 30:0.15928289 31:0.31436947 32:-0.082724728 33:0.24160498 34:-0.21351698 35:0.049884431 36:0.13470286 37:0.75117779 38:-1.0121267 39:0.7590968 40:0.36687386 41:-0.14404339 42:0.055101719 44:-0.0036595911 45:-0.13261211 46:-0.41370821 #
