SVM-light Version V6.20
0 # kernel type
3 # kernel parameter -d 
1 # kernel parameter -g 
1 # kernel parameter -s 
1 # kernel parameter -r 
empty# kernel parameter -u 
47 # highest feature index 
64 # number of training documents 
2 # number of support vectors plus 1 
0 # threshold b, each following line is a SV (starting with alpha*y)
1 1:-0.26725215 2:-0.16089472 3:-0.29854965 4:-0.39441085 5:-0.12295313 11:-0.10120083 12:0.52730501 13:0.018588733 14:-0.11259914 15:-0.094408207 16:0.065036893 17:-0.0011603576 18:-0.24129049 19:-0.3191587 20:0.08322829 21:0.22799076 22:-0.31513113 23:1.2034413 24:-0.17910588 25:0.49413648 26:-0.54818916 27:0.56471169 28:-0.22144087 29:0.49591675 30:0.16824701 31:-0.78009266 32:0.41492042 33:0.5377878 34:-0.23731029 35:0.4543322 36:-0.26838565 37:-0.29210368 38:0.320721 39:0.52618754 40:0.4975521 41:-0.11840999 42:-0.098809302 44:0.047893651 45:-0.14038244 46:-0.43436372 #
