SVM-light Version V6.20
0 # kernel type
3 # kernel parameter -d 
1 # kernel parameter -g 
1 # kernel parameter -s 
1 # kernel parameter -r 
empty# kernel parameter -u 
47 # highest feature index 
60 # number of training documents 
2 # number of support vectors plus 1 
0 # threshold b, each following line is a SV (starting with alpha*y)
1 1:0.021071728 2:-0.47087118 3:0.22434846 4:0.70201075 5:0.22322302 11:-0.17259569 12:-0.28369018 13:-0.63699216 14:-1.1408198 15:-0.27705476 16:-0.023119209 17:0.15790033 18:0.24182609 19:-0.54346192 20:-0.03046469 21:0.1453159 22:-0.29933849 23:1.0081675 24:-0.82404375 25:0.50845534 26:-0.59980893 27:0.38052157 28:0.54708594 29:0.064524435 30:-0.027563702 31:0.54709828 32:0.15707697 33:0.52222413 34:-0.055064909 35:-0.20050189 36:0.020236894 37:0.90906674 38:-0.016576994 39:0.6070019 40:0.27430049 41:-0.0030342794 42:0.16974398 44:0.16097735 45:-0.17639169 46:-0.039467651 #
