SVM-light Version V6.20
0 # kernel type
3 # kernel parameter -d 
1 # kernel parameter -g 
1 # kernel parameter -s 
1 # kernel parameter -r 
empty# kernel parameter -u 
47 # highest feature index 
63 # number of training documents 
2 # number of support vectors plus 1 
0 # threshold b, each following line is a SV (starting with alpha*y)
1 1:-0.2370369 2:0.17853577 3:0.21256489 4:-0.17484939 5:-0.27127808 11:0.043665159 12:-0.2480893 13:0.073710099 14:-0.36555552 15:-0.012940606 16:0.18284494 17:-0.15218756 18:-0.06920176 19:-0.26844355 20:0.18470713 21:0.2283272 22:-0.42730939 23:1.3005912 24:0.38742325 25:-0.074616745 26:-0.92688262 27:0.066342182 28:0.92406964 29:0.51314193 30:0.1635671 31:-0.99185473 32:0.79701161 33:0.14479052 34:0.1659144 35:0.6948387 36:-0.52768862 37:-0.13775468 38:-0.16323251 39:0.25440592 40:0.024229322 41:-0.40580583 42:0.2086096 44:-0.21694963 45:0.26875776 46:-0.52000451 #
