SVM-light Version V6.20
0 # kernel type
3 # kernel parameter -d 
1 # kernel parameter -g 
1 # kernel parameter -s 
1 # kernel parameter -r 
empty# kernel parameter -u 
47 # highest feature index 
65 # number of training documents 
2 # number of support vectors plus 1 
0 # threshold b, each following line is a SV (starting with alpha*y)
1 1:-0.20927554 2:0.51543605 3:0.64355743 4:-0.12055764 5:-0.13536133 11:-0.020778606 12:-1.0327991 13:-0.098189339 14:-0.39427084 15:-0.079145648 16:0.25063273 17:-0.13554066 18:-0.24815562 19:0.016129775 20:0.25614703 21:0.27939251 22:-0.46262938 23:1.3280244 24:0.097745501 25:0.34357136 26:-0.17965353 27:0.21070856 28:0.37709069 29:0.06335675 30:0.026968181 31:-0.022275437 32:0.12422586 33:0.35720614 34:-0.034064561 35:0.23341258 36:-0.07260491 37:0.38430321 38:-0.4133482 39:0.89734644 40:0.13633977 41:0.35567698 42:-0.27619091 44:-0.061674751 45:-0.057292394 46:-0.024009334 #
