SVM-light Version V6.20
0 # kernel type
3 # kernel parameter -d 
1 # kernel parameter -g 
1 # kernel parameter -s 
1 # kernel parameter -r 
empty# kernel parameter -u 
47 # highest feature index 
63 # number of training documents 
2 # number of support vectors plus 1 
0 # threshold b, each following line is a SV (starting with alpha*y)
1 1:-0.20919153 2:-0.82648021 3:0.4568418 4:0.27261141 5:-0.26584625 11:0.091030307 12:0.85710543 13:-0.67902356 14:-0.74951869 15:-0.090403154 16:-0.028185312 17:-0.34764937 18:0.23358278 19:-0.73215163 20:-0.051885575 21:0.041449737 22:0.29536533 23:1.0353788 24:-0.49025032 25:-0.48604602 26:0.78460997 27:0.30052102 28:-0.39803386 29:0.40946892 30:0.35447633 31:-0.3140972 32:-0.024664134 33:0.84629226 34:0.13582574 35:0.20963715 36:-0.98054528 37:0.14967881 38:0.56238163 39:-0.40633824 40:0.0083453692 41:0.10316528 42:0.37992868 44:-0.16155237 45:0.30096957 46:-0.35201344 #
