SVM-light Version V6.20
0 # kernel type
3 # kernel parameter -d 
1 # kernel parameter -g 
1 # kernel parameter -s 
1 # kernel parameter -r 
empty# kernel parameter -u 
47 # highest feature index 
62 # number of training documents 
2 # number of support vectors plus 1 
0 # threshold b, each following line is a SV (starting with alpha*y)
1 1:-0.75258261 2:-0.1283682 3:-0.25126278 4:-0.95570606 5:-0.38859302 11:-0.1940359 12:-0.4886986 13:-0.43474737 14:0.20079826 15:0.21121843 16:-0.19084519 17:-0.22321616 18:-0.07788559 19:-0.56560636 20:-0.17216446 21:0.2745015 22:-0.20591608 23:2.1744826 24:0.83940881 25:0.56722218 26:-0.27609244 27:-0.32361776 28:0.70419031 29:0.89951068 30:-1.1931883 31:-0.36138517 32:1.0200621 33:0.10233101 34:-0.076832838 35:-0.20010887 36:-0.052611984 37:-0.052537099 38:-0.47459948 39:0.98608536 40:0.26912951 41:0.13412246 42:-0.69410616 44:-0.35768449 45:-0.79516935 46:-0.71877605 #
