SVM-light Version V6.20
0 # kernel type
3 # kernel parameter -d 
1 # kernel parameter -g 
1 # kernel parameter -s 
1 # kernel parameter -r 
empty# kernel parameter -u 
47 # highest feature index 
63 # number of training documents 
2 # number of support vectors plus 1 
0 # threshold b, each following line is a SV (starting with alpha*y)
1 1:-0.76902038 2:0.0080136163 3:0.39138362 4:-0.86675656 5:-0.48010466 11:-0.058185633 12:-0.92450589 13:-0.15159498 14:-0.62646306 15:0.17453243 16:-0.14587913 17:-0.2405462 18:-0.27403978 19:-0.16516246 20:-0.15300423 21:0.16462362 22:0.10378082 23:0.84575576 24:0.93371272 25:0.28901562 26:-0.58279628 27:0.12359757 28:-0.30772817 29:0.16996484 30:-0.85118395 31:0.16927281 32:0.39253849 33:0.52659106 34:-0.53151 35:0.016835721 36:-0.23161198 37:-0.031125341 38:-0.16975102 39:0.98623037 40:0.83155954 41:-0.04409752 42:-0.58334947 44:-0.59435678 45:-0.15960713 46:0.013843013 #
