SVM-light Version V6.20
0 # kernel type
3 # kernel parameter -d 
1 # kernel parameter -g 
1 # kernel parameter -s 
1 # kernel parameter -r 
empty# kernel parameter -u 
47 # highest feature index 
61 # number of training documents 
2 # number of support vectors plus 1 
0 # threshold b, each following line is a SV (starting with alpha*y)
1 1:-0.10177523 2:0.42636353 3:0.25581795 4:-0.84769094 5:-0.086482629 11:0.051567148 12:-0.70114177 13:0.18840954 14:0.17215244 15:0.039538737 16:-0.11122318 17:-0.18503809 18:-0.4210726 19:-0.65260476 20:-0.095725261 21:0.73513126 22:-1.027545 23:1.3793578 24:0.25693434 25:0.29306826 26:0.055513777 27:-0.20290089 28:0.37925816 29:0.4713724 30:-0.80814213 31:0.23376907 32:-0.0061577205 33:0.86424249 34:0.20658019 35:-0.35413578 36:-0.47088179 37:-0.18023761 38:0.038713854 39:-0.10411528 40:0.37218562 41:-0.12667714 42:0.38217267 44:0.52605277 45:-0.39419398 46:-0.11102102 #
