SVM-light Version V6.20
0 # kernel type
3 # kernel parameter -d 
1 # kernel parameter -g 
1 # kernel parameter -s 
1 # kernel parameter -r 
empty# kernel parameter -u 
47 # highest feature index 
63 # number of training documents 
2 # number of support vectors plus 1 
0 # threshold b, each following line is a SV (starting with alpha*y)
1 1:-0.13088417 2:-0.13691723 3:0.73622024 4:-0.17705552 5:0.052867502 11:-0.18152712 12:-0.015598315 13:-0.51804674 14:0.14351201 15:-0.053978737 16:0.10695289 17:-0.14720501 18:-0.22335477 19:-0.22842047 20:0.1324829 21:-0.48176676 22:0.49542111 23:1.0846101 24:0.22529313 25:-0.2247636 26:0.058201641 27:0.35006496 28:0.17519936 29:0.38130102 30:0.19168238 31:-0.2781508 32:0.13220558 33:-0.16711529 34:0.29029897 35:-0.12831928 36:-0.010951604 37:0.70659631 38:-0.44486889 39:0.66191316 40:-0.49774918 41:0.21810395 42:-0.27624917 44:-0.054896835 45:-0.1215825 46:-0.02661827 #
