SVM-light Version V6.20
0 # kernel type
3 # kernel parameter -d 
1 # kernel parameter -g 
1 # kernel parameter -s 
1 # kernel parameter -r 
empty# kernel parameter -u 
47 # highest feature index 
65 # number of training documents 
2 # number of support vectors plus 1 
0 # threshold b, each following line is a SV (starting with alpha*y)
1 1:0.3804926 2:0.50367022 3:-0.20496868 4:0.87502009 5:0.10802358 11:-0.091114074 12:-0.24898726 13:0.56380236 14:-0.57153189 15:-0.56688064 16:-0.10558068 17:-0.50042665 18:0.19420794 19:-0.048739459 20:-0.082577191 21:1.2612224 22:0.60502881 23:0.87548733 24:-0.76098669 25:0.11166011 26:0.30037209 27:0.2266642 28:-0.56953895 29:-0.57844329 30:-0.75417143 31:0.65499932 32:0.57077432 33:-0.3614777 34:0.41443124 35:-0.70831203 36:0.48446941 37:-0.11566008 38:-0.051066104 39:-0.48759666 40:-0.37051591 41:0.05858244 42:-0.24079041 44:0.26414767 45:-0.37128022 46:-0.15235405 #
