SVM-light Version V6.20
0 # kernel type
3 # kernel parameter -d 
1 # kernel parameter -g 
1 # kernel parameter -s 
1 # kernel parameter -r 
empty# kernel parameter -u 
47 # highest feature index 
65 # number of training documents 
2 # number of support vectors plus 1 
0 # threshold b, each following line is a SV (starting with alpha*y)
1 1:0.29523909 2:-0.11961044 3:0.27273509 4:0.088879749 5:-0.039435476 11:0.36944109 12:-0.20739278 13:-0.89345723 14:0.34208572 15:-0.28451416 16:-0.31019253 17:0.18873549 18:0.059390336 19:-0.10816649 20:-0.30970174 21:-0.22404838 22:-0.46865103 23:0.87255341 24:-0.51653975 25:-0.28695542 26:-0.689529 27:0.62779975 28:0.57885545 29:1.2253389 30:0.47506541 31:-0.70734113 32:0.046809029 33:-0.8402583 34:-0.11636428 35:0.77224946 36:-0.59438401 37:0.52005643 38:0.23051795 39:0.65434372 40:0.35309327 41:-0.24379329 42:0.17807193 44:-0.099218398 45:-0.054792248 46:-0.23182729 #
