SVM-light Version V6.20
0 # kernel type
3 # kernel parameter -d 
1 # kernel parameter -g 
1 # kernel parameter -s 
1 # kernel parameter -r 
empty# kernel parameter -u 
47 # highest feature index 
62 # number of training documents 
2 # number of support vectors plus 1 
0 # threshold b, each following line is a SV (starting with alpha*y)
1 1:-0.27891919 2:0.35761997 3:0.34474272 4:-0.69820428 5:-0.22756419 11:0.16966346 12:-0.58247119 13:0.37718025 14:0.045746028 15:0.12267733 16:0.16427889 17:0.053601839 18:-0.57451946 19:-0.47258168 20:0.16406676 21:-0.39136681 22:0.24797879 23:1.3654726 24:0.50650948 25:0.0071148551 26:-0.4401328 27:-0.18150377 28:1.0068532 29:0.20185314 30:-0.058389917 31:-0.27928898 32:-0.015837379 33:0.64573127 34:-0.13813153 35:0.64037144 36:-0.5576179 37:0.69581795 38:-0.73021364 39:0.8767761 40:-0.40455413 41:0.09851899 42:-0.10529537 44:0.026196061 45:0.060460314 46:-0.15574001 #
