SVM-light Version V6.20
0 # kernel type
3 # kernel parameter -d 
1 # kernel parameter -g 
1 # kernel parameter -s 
1 # kernel parameter -r 
empty# kernel parameter -u 
47 # highest feature index 
61 # number of training documents 
2 # number of support vectors plus 1 
0 # threshold b, each following line is a SV (starting with alpha*y)
1 1:0.24331693 2:-0.77137834 3:0.17779312 4:0.56358439 5:-0.032432821 11:0.20683014 12:0.16594332 13:0.42339525 14:0.26200306 15:-0.1817714 16:-0.11075049 17:-0.43564847 18:-0.27279839 19:-0.5107398 20:-0.10333845 21:0.19564636 22:0.64824134 23:0.98929733 24:0.34688932 25:0.38955235 26:-0.35285994 27:0.37546891 28:0.17275229 29:-0.70188147 30:-0.093757436 31:0.87899971 32:-0.088862926 33:-0.98443657 34:0.25203189 35:-0.51655006 36:0.28786948 37:-0.68006587 38:-0.39411101 39:0.02070207 40:-0.25348663 41:0.18838078 42:-0.019694213 44:0.21245 45:-0.15390107 46:-0.16067326 #
