SVM-light Version V6.20
0 # kernel type
3 # kernel parameter -d 
1 # kernel parameter -g 
1 # kernel parameter -s 
1 # kernel parameter -r 
empty# kernel parameter -u 
47 # highest feature index 
65 # number of training documents 
2 # number of support vectors plus 1 
0 # threshold b, each following line is a SV (starting with alpha*y)
1 1:0.093682297 2:0.80545771 3:0.21833736 4:-0.19527364 5:-0.096757695 11:0.262196 12:-1.0259007 13:-0.47433653 14:-0.16541055 15:0.038424876 16:-0.23531854 17:-0.3327879 18:0.042004164 19:0.022765569 20:-0.23063715 21:-0.12669758 22:-0.69277984 23:1.4582454 24:0.070711441 25:-0.023722081 26:-0.060944673 27:0.44862828 28:0.20667687 29:0.45122242 30:0.37698805 31:-0.15367194 32:0.17893991 33:0.084006563 34:0.41885152 35:0.36653137 36:-0.80675066 37:0.30068105 38:-0.47297558 39:0.69794625 40:0.17754039 41:-0.10595336 42:0.20455852 44:0.34128219 45:-0.52354437 46:-0.17478636 #
