SVM-light Version V6.20
0 # kernel type
3 # kernel parameter -d 
1 # kernel parameter -g 
1 # kernel parameter -s 
1 # kernel parameter -r 
empty# kernel parameter -u 
47 # highest feature index 
64 # number of training documents 
2 # number of support vectors plus 1 
0 # threshold b, each following line is a SV (starting with alpha*y)
1 1:-0.17113385 2:-0.21259809 3:0.13728775 4:-0.0049834964 5:-0.15159249 11:0.19610409 12:0.31656921 13:-0.061963309 14:0.0073838383 15:0.36757973 16:0.075098656 17:0.28138658 18:0.29235584 19:-0.23385827 20:0.088556051 21:-0.27833366 22:-0.62908208 23:1.3823385 24:-0.57373607 25:0.54989749 26:-0.026668722 27:-0.040256448 28:0.022304282 29:0.37805727 30:0.27061579 31:-0.680408 32:0.33693436 33:-0.14606363 34:0.20803913 35:-0.2298128 36:0.013312596 37:0.48770022 38:0.44584456 39:0.63365316 40:-0.2959125 41:0.074239552 42:-0.17202184 44:0.19213016 45:-0.55921829 46:-0.30365005 #
