SVM-light Version V6.20
0 # kernel type
3 # kernel parameter -d 
1 # kernel parameter -g 
1 # kernel parameter -s 
1 # kernel parameter -r 
empty# kernel parameter -u 
47 # highest feature index 
64 # number of training documents 
2 # number of support vectors plus 1 
0 # threshold b, each following line is a SV (starting with alpha*y)
1 1:-0.2611016 2:-0.097404949 3:0.32052967 4:-0.42537349 5:-0.26524031 11:0.031326797 12:-0.19338509 13:-0.39706099 14:-0.077099398 15:-0.039602872 16:0.24142429 17:-0.24337596 18:-0.023092175 19:-0.46583137 20:0.24306455 21:0.31522611 22:-0.11237553 23:2.0648386 24:0.62348086 25:0.49078578 26:-0.18067352 27:-0.0026024701 28:0.61239576 29:0.46265689 30:-0.14919427 31:0.012438603 32:0.24431403 33:0.33348519 34:0.2590403 35:0.31409734 36:-0.51989746 37:0.18023978 38:-1.0360062 39:1.0222185 40:-0.22873731 41:-0.11869023 42:-0.0017224912 44:0.06013215 45:-0.45130298 46:-0.23239379 #
