SVM-light Version V6.20
0 # kernel type
3 # kernel parameter -d 
1 # kernel parameter -g 
1 # kernel parameter -s 
1 # kernel parameter -r 
empty# kernel parameter -u 
47 # highest feature index 
61 # number of training documents 
2 # number of support vectors plus 1 
0 # threshold b, each following line is a SV (starting with alpha*y)
1 1:0.28217319 2:-0.51095724 3:0.57861936 4:-0.52040476 5:0.2819314 11:-0.061573993 12:0.39585456 13:-0.5603168 14:0.060668785 15:-0.20157079 16:-0.36588949 17:0.48941237 18:-0.37640041 19:-0.73185825 20:-0.3572734 21:0.046573788 22:-0.18403968 23:0.97594565 24:-0.49096519 25:0.48152742 26:-0.051301017 27:-0.33908781 28:0.22162956 29:-0.042450517 30:-0.17790093 31:0.095343523 32:0.31750429 33:0.46701735 34:-0.46433279 35:-0.032702472 36:0.14384845 37:0.559524 38:-0.22965816 39:0.53401816 40:0.48017973 41:-0.17368029 42:0.30811939 44:-0.21784154 45:-0.37908232 46:-0.16601314 #
