SVM-light Version V6.20
0 # kernel type
3 # kernel parameter -d 
1 # kernel parameter -g 
1 # kernel parameter -s 
1 # kernel parameter -r 
empty# kernel parameter -u 
47 # highest feature index 
66 # number of training documents 
2 # number of support vectors plus 1 
0 # threshold b, each following line is a SV (starting with alpha*y)
1 1:0.1325471 2:0.86422271 3:0.13786353 4:-0.27340394 5:0.15024088 11:0.25277203 12:-0.93821329 13:0.070973299 14:0.21344128 15:0.058132891 16:-0.064211935 17:-0.51579362 18:-0.31745273 19:-0.83089721 20:-0.082514912 21:-0.38823724 22:-0.014058888 23:0.60991329 24:-0.94212967 25:-0.10054692 26:0.29020557 27:0.45424035 28:-0.36996698 29:0.10542774 30:-0.37256265 31:0.22849858 32:0.57216471 33:-0.50889009 34:0.70667577 35:0.32336837 36:-0.23292631 37:0.8320573 38:-0.067672014 39:0.53988165 40:-0.35186553 41:-0.70743793 42:0.50423032 44:0.098752171 45:0.19221218 46:-0.025135165 #
