SVM-light Version V6.20
0 # kernel type
3 # kernel parameter -d 
1 # kernel parameter -g 
1 # kernel parameter -s 
1 # kernel parameter -r 
empty# kernel parameter -u 
47 # highest feature index 
60 # number of training documents 
2 # number of support vectors plus 1 
0 # threshold b, each following line is a SV (starting with alpha*y)
1 1:-0.21356441 2:0.4437151 3:0.50321341 4:-0.14676782 5:-0.2575739 11:0.29693079 12:-1.6596822 13:-0.90546811 14:-0.85316592 15:-0.065273628 16:-0.190239 17:0.28543141 18:-0.032932017 19:-0.085031629 20:-0.19449575 21:0.29982665 22:-0.10052017 23:0.98566818 24:0.66766238 25:0.95207149 26:-0.48364419 27:-0.37363669 28:0.066666827 29:0.4777244 30:0.51763093 31:-0.3843714 32:0.026662335 33:0.47398731 34:-0.114483 35:-0.28244463 36:-0.39758778 37:0.044008892 38:-0.346791 39:0.8613798 40:0.68200064 41:-0.059993837 42:-0.45225051 44:-0.28359362 45:-0.07777334 46:0.17421727 #
