SVM-light Version V6.20
0 # kernel type
3 # kernel parameter -d 
1 # kernel parameter -g 
1 # kernel parameter -s 
1 # kernel parameter -r 
empty# kernel parameter -u 
47 # highest feature index 
63 # number of training documents 
2 # number of support vectors plus 1 
0 # threshold b, each following line is a SV (starting with alpha*y)
1 1:-0.26344872 2:1.3664478 3:0.24229096 4:-0.2684924 5:-0.060068965 11:0.046324473 12:-1.0921414 13:-0.78059065 14:0.051587231 15:0.18119957 16:0.083824098 17:0.018453216 18:0.11505132 19:-0.61746794 20:0.096278779 21:-0.61178392 22:0.2498154 23:0.57776874 24:0.28277108 25:0.27713212 26:-0.36311039 27:-0.23758505 28:-0.044393491 29:-0.19541334 30:0.51781422 31:0.043841343 32:0.79689026 33:0.096627563 34:0.10207283 35:0.70267987 36:-0.83014417 37:0.6189909 38:-0.51954406 39:0.8568151 40:-0.070703104 41:-0.17474827 42:0.41944113 44:-0.11675917 45:-0.30142435 46:-0.08521311 #
