SVM-light Version V6.20
0 # kernel type
3 # kernel parameter -d 
1 # kernel parameter -g 
1 # kernel parameter -s 
1 # kernel parameter -r 
empty# kernel parameter -u 
47 # highest feature index 
64 # number of training documents 
2 # number of support vectors plus 1 
0 # threshold b, each following line is a SV (starting with alpha*y)
1 1:-0.68429178 2:-0.091416314 3:-1.0907849 4:-1.1180414 5:-0.36781138 11:0.057590783 12:-0.34479252 13:0.64344811 14:0.64052606 15:-0.0036164024 16:0.70079684 17:0.67494655 18:-0.23854573 19:-0.45692134 20:0.7043516 21:-0.19372512 22:0.5851174 23:0.21567391 24:1.2187297 25:1.3035823 26:-0.90650219 27:-0.24654411 28:0.56383491 29:-0.4043124 30:-0.5219267 31:0.53477496 32:0.86287755 33:0.56423885 34:-0.37727016 35:-0.59807968 36:0.52864987 37:0.58416384 38:0.33025965 39:-0.17800936 40:-1.2810401 41:0.12201622 42:0.23143518 44:-0.61004502 45:0.23240407 46:0.22986999 #
