SVM-light Version V6.20
0 # kernel type
3 # kernel parameter -d 
1 # kernel parameter -g 
1 # kernel parameter -s 
1 # kernel parameter -r 
empty# kernel parameter -u 
47 # highest feature index 
64 # number of training documents 
2 # number of support vectors plus 1 
0 # threshold b, each following line is a SV (starting with alpha*y)
1 1:0.28063676 2:-0.65732604 3:0.040841624 4:-0.43400449 5:0.12037884 11:0.16469045 12:0.2494383 13:0.21260747 14:0.15691182 15:-0.17659572 16:-0.26911074 17:0.12838234 18:-0.29034072 19:-0.14809051 20:-0.26762372 21:0.32585871 22:-0.34813288 23:0.44199458 24:-0.15341468 25:0.13150966 26:-0.72295326 27:0.44193503 28:0.55973226 29:-0.10414435 30:0.67365283 31:-0.4943051 32:0.11388148 33:0.56565177 34:-0.4264257 35:0.4470852 36:-0.35854509 37:0.93614125 38:-0.79131645 39:0.92269212 40:0.29929841 41:0.2423794 42:-0.54370672 44:-0.0039072973 45:-0.28475171 46:0.25542805 #
