SVM-light Version V6.20
0 # kernel type
3 # kernel parameter -d 
1 # kernel parameter -g 
1 # kernel parameter -s 
1 # kernel parameter -r 
empty# kernel parameter -u 
47 # highest feature index 
63 # number of training documents 
2 # number of support vectors plus 1 
0 # threshold b, each following line is a SV (starting with alpha*y)
1 1:0.091234304 2:0.70141417 3:-0.20007592 4:-0.1633552 5:0.066725247 11:-0.19832975 12:-1.291386 13:0.59896028 14:0.31038222 15:-0.29821688 16:0.051240392 17:-0.18891478 18:-0.17027088 19:-0.21105109 20:0.036983024 21:-0.29919341 22:0.046405457 23:1.1125026 24:-0.23390692 25:0.64689654 26:-0.57206571 27:0.62535989 28:0.37779263 29:0.053839859 30:-0.84875029 31:-0.33283675 32:0.98714608 33:0.10477284 34:-0.12768009 35:-0.39921805 36:0.52835226 37:0.62662214 38:-0.49393705 39:1.2573605 40:-0.14392903 41:0.060572233 42:-0.20707674 44:0.16686693 45:-0.18104103 46:-0.1171509 #
