SVM-light Version V6.20
0 # kernel type
3 # kernel parameter -d 
1 # kernel parameter -g 
1 # kernel parameter -s 
1 # kernel parameter -r 
empty# kernel parameter -u 
47 # highest feature index 
63 # number of training documents 
2 # number of support vectors plus 1 
0 # threshold b, each following line is a SV (starting with alpha*y)
1 1:-0.035122123 2:-0.11229495 3:-0.58223695 4:-0.20211361 5:0.088847384 11:-0.071149968 12:-1.0056281 13:0.7894882 14:1.2852099 15:-0.26844755 16:0.12679468 17:-0.059208468 18:-0.40883827 19:-0.61519837 20:0.12382621 21:-1.6844057 22:0.24986605 23:0.024100378 24:-0.24826743 25:1.9120313 26:-1.215243 27:0.21330008 28:0.30872601 29:-0.39241505 30:0.056216914 31:-0.11556011 32:0.23771602 33:-1.2202688 34:-0.8137058 35:0.22918907 36:0.78627771 37:0.57658523 38:0.57316929 39:0.45655259 40:0.51801854 41:-0.2477349 42:0.81892961 44:-0.19741745 45:-0.4387244 46:0.38263488 #
