SVM-light Version V6.20
0 # kernel type
3 # kernel parameter -d 
1 # kernel parameter -g 
1 # kernel parameter -s 
1 # kernel parameter -r 
empty# kernel parameter -u 
47 # highest feature index 
63 # number of training documents 
2 # number of support vectors plus 1 
0 # threshold b, each following line is a SV (starting with alpha*y)
1 1:0.18728122 2:0.22675078 3:-0.45901906 4:-1.0254928 5:0.13252871 11:-0.21828949 12:-0.53029108 13:0.13898851 14:-0.24893756 15:-0.28276622 16:0.062863424 17:-0.092359781 18:0.62680221 19:0.10899571 20:0.03526618 21:0.83299911 22:-0.52714169 23:0.59289604 24:0.072507069 25:0.71447825 26:0.033237353 27:-0.22478716 28:0.015323327 29:0.49509254 30:0.46633768 31:-0.22899239 32:-0.14364667 33:1.5563833 34:0.10890978 35:0.049085982 36:-0.45565215 37:0.36286518 38:-0.62441921 39:0.57677215 40:-0.32971486 41:-0.16785733 42:0.2393925 44:0.28624937 45:0.22857089 46:-0.65716213 #
