SVM-light Version V6.20
0 # kernel type
3 # kernel parameter -d 
1 # kernel parameter -g 
1 # kernel parameter -s 
1 # kernel parameter -r 
empty# kernel parameter -u 
47 # highest feature index 
63 # number of training documents 
2 # number of support vectors plus 1 
0 # threshold b, each following line is a SV (starting with alpha*y)
1 1:-0.090397403 2:0.75365299 3:0.47690406 4:-0.37763944 5:-0.22781546 11:-0.19908294 12:-0.64807248 13:0.020736264 14:-0.16482055 15:-0.37379009 16:0.33369848 17:-0.23734607 18:-0.094321474 19:-0.25840953 20:0.33872011 21:0.35689119 22:-0.0091871182 23:1.7998003 24:-0.23403995 25:0.16124617 26:-0.49532184 27:-0.15005171 28:0.88597357 29:-0.076584004 30:0.17997716 31:0.2436152 32:-0.2097211 33:0.03308098 34:0.18628432 35:0.62343818 36:-0.27124199 37:-0.28952566 38:-0.077919468 39:0.65458781 40:0.11367496 41:-0.36634934 42:-0.19788232 44:0.15996142 45:0.022632156 46:-0.31966245 #
