SVM-light Version V6.20
0 # kernel type
3 # kernel parameter -d 
1 # kernel parameter -g 
1 # kernel parameter -s 
1 # kernel parameter -r 
empty# kernel parameter -u 
47 # highest feature index 
63 # number of training documents 
2 # number of support vectors plus 1 
0 # threshold b, each following line is a SV (starting with alpha*y)
1 1:-0.096714742 2:0.67842364 3:0.38268396 4:-0.49931872 5:0.0080477148 11:0.27121356 12:-0.69341433 13:-0.50563681 14:-0.47207406 15:0.374982 16:-0.21581498 17:-0.37905237 18:0.39376566 19:0.1547059 20:-0.21681625 21:-1.2782049 22:0.086338557 23:0.80856884 24:-0.36370876 25:0.40498596 26:1.195309 27:-0.86763543 28:-0.61654866 29:0.89087451 30:-0.75505376 31:1.0067433 32:-0.46109635 33:1.1623402 34:-0.62191743 35:0.82644147 36:-0.59123456 37:-0.25039229 38:0.82306188 39:-0.95969003 40:0.40711761 41:-0.39833519 42:0.37271246 44:0.35534164 45:-0.54845059 46:0.39517555 #
