SVM-light Version V6.20
0 # kernel type
3 # kernel parameter -d 
1 # kernel parameter -g 
1 # kernel parameter -s 
1 # kernel parameter -r 
empty# kernel parameter -u 
47 # highest feature index 
65 # number of training documents 
2 # number of support vectors plus 1 
0 # threshold b, each following line is a SV (starting with alpha*y)
1 1:-0.33165419 2:-0.39466134 3:0.44519359 4:-0.29066595 5:-0.31515455 11:0.22009739 12:-0.012383151 13:-0.85713506 14:0.30120349 15:0.0064838212 16:0.29149956 17:-0.16270751 18:0.10821518 19:-0.020653578 20:0.28345656 21:0.50849056 22:0.1243405 23:1.5575116 24:0.42359743 25:0.19414103 26:0.20646599 27:0.084736757 28:0.33816335 29:0.93061513 30:-0.54969996 31:0.031793226 32:0.40267569 33:0.24466877 34:-0.085560896 35:0.37541625 36:-0.42805114 37:-0.28047213 38:-0.46170247 39:0.2555809 40:-0.14753036 41:0.099513307 42:-0.31355354 44:0.12705323 45:-0.36130139 46:-0.20082496 #
