SVM-light Version V6.20
0 # kernel type
3 # kernel parameter -d 
1 # kernel parameter -g 
1 # kernel parameter -s 
1 # kernel parameter -r 
empty# kernel parameter -u 
47 # highest feature index 
63 # number of training documents 
2 # number of support vectors plus 1 
0 # threshold b, each following line is a SV (starting with alpha*y)
1 1:-0.012222821 2:-0.019123027 3:0.28162447 4:-0.21995097 5:-0.11009219 11:0.045419708 12:-0.1710532 13:-0.080965362 14:-0.3164281 15:-0.05068763 16:-0.08251366 17:0.034197841 18:-0.083501808 19:0.056267347 20:-0.065643154 21:0.43969464 22:-0.99285173 23:1.6483412 24:0.43586317 25:0.42170843 26:-0.38954943 27:0.30558982 28:0.43232071 29:0.49269205 30:-0.43267253 31:-0.29788011 32:0.49463454 33:0.67899311 34:0.19155841 35:0.11931267 36:-0.6550675 37:0.34113029 38:-1.1101755 39:0.95770007 40:0.44142702 41:-0.21157469 42:-0.22210227 44:0.15610853 45:-0.35074121 46:-0.2959666 #
