SVM-light Version V6.20
0 # kernel type
3 # kernel parameter -d 
1 # kernel parameter -g 
1 # kernel parameter -s 
1 # kernel parameter -r 
empty# kernel parameter -u 
47 # highest feature index 
60 # number of training documents 
2 # number of support vectors plus 1 
0 # threshold b, each following line is a SV (starting with alpha*y)
1 1:-0.041555364 2:0.10154522 3:0.21229114 4:-0.26221046 5:-0.018320516 11:-0.08764267 12:-0.52464038 13:-0.20940425 14:-0.1882931 15:-0.15692323 16:0.044031389 17:-0.17669606 18:-0.026391327 19:-0.13218546 20:0.060218666 21:-0.11078643 22:-0.26823416 23:1.9394494 24:-0.19050264 25:0.44749129 26:-0.057933036 27:0.34841979 28:0.47462279 29:0.33388406 30:-0.26578903 31:0.099671416 32:0.2328018 33:0.40315887 34:0.070342384 35:-0.043325122 36:-0.26728639 37:0.38790402 38:-0.17829587 39:1.2282214 40:-0.11562148 41:-0.10050987 42:-0.16196555 44:0.27716151 45:-0.48219416 46:-0.29825193 #
