SVM-light Version V6.20
0 # kernel type
3 # kernel parameter -d 
1 # kernel parameter -g 
1 # kernel parameter -s 
1 # kernel parameter -r 
empty# kernel parameter -u 
47 # highest feature index 
62 # number of training documents 
2 # number of support vectors plus 1 
0 # threshold b, each following line is a SV (starting with alpha*y)
1 1:-0.26286411 2:0.044895757 3:0.23301262 4:-0.47307286 5:-0.3891663 11:0.10363819 12:0.043453056 13:0.073236793 14:-0.38421652 15:-0.12624733 16:0.37272328 17:-0.32005697 18:-0.44311437 19:-0.55526739 20:0.3762033 21:-0.16737972 22:-0.97349864 23:1.7820611 24:-0.22073069 25:0.39296776 26:-0.57188112 27:-0.29621661 28:0.86879289 29:0.17811693 30:-0.23689632 31:-0.27271506 32:0.67142534 33:0.42767519 34:-0.39196292 35:0.96992081 36:-0.19422665 37:0.70997787 38:0.15757509 39:1.0936936 40:0.3084493 41:0.20488052 42:-0.25855675 44:0.0088765565 45:-0.072655044 46:0.052330885 #
