SVM-light Version V6.20
0 # kernel type
3 # kernel parameter -d 
1 # kernel parameter -g 
1 # kernel parameter -s 
1 # kernel parameter -r 
empty# kernel parameter -u 
47 # highest feature index 
65 # number of training documents 
2 # number of support vectors plus 1 
0 # threshold b, each following line is a SV (starting with alpha*y)
1 1:-0.32464206 2:0.048465867 3:-0.009189398 4:-0.4632608 5:-0.2234993 11:0.015363337 12:-0.16567358 13:0.42203024 14:-0.64492083 15:-0.033048604 16:0.30188835 17:0.12379783 18:-0.49241567 19:-0.70732242 20:0.30200487 21:-0.23593563 22:1.1786942 23:1.0547678 24:-0.28199306 25:0.084745601 26:0.060023624 27:0.13988332 28:-0.10365361 29:-0.045702901 30:-0.34455281 31:-0.0066717598 32:0.59514815 33:1.0333507 34:-0.20097627 35:0.7237553 36:-0.48137513 37:0.14192086 38:-0.70376319 39:0.6841464 40:0.019578507 41:0.05240389 42:0.21808337 44:-0.42074531 45:0.14080717 46:0.028114676 #
