SVM-light Version V6.20
0 # kernel type
3 # kernel parameter -d 
1 # kernel parameter -g 
1 # kernel parameter -s 
1 # kernel parameter -r 
empty# kernel parameter -u 
47 # highest feature index 
64 # number of training documents 
2 # number of support vectors plus 1 
0 # threshold b, each following line is a SV (starting with alpha*y)
1 1:-0.30155343 2:0.1450156 3:0.27558818 4:-0.19370823 5:-0.51533419 11:0.2935783 12:-0.25087044 13:0.071926288 14:-0.33413884 15:-0.069329962 16:0.3458524 17:0.10555582 18:-0.34840909 19:-0.48862481 20:0.31653643 21:-0.34849119 22:-0.85302794 23:1.0737805 24:-0.47102776 25:0.637339 26:-0.20110211 27:0.076297544 28:-0.0090217879 29:-0.48095527 30:1.0246971 31:-0.66900295 32:0.27837127 33:0.31542024 34:-0.3539432 35:0.14458948 36:0.27661207 37:0.75565732 38:-0.086816922 39:0.90523463 40:0.70631063 41:0.15118095 42:-0.13290483 44:-0.090089336 45:-0.33093163 46:0.18708062 #
