SVM-light Version V6.20
0 # kernel type
3 # kernel parameter -d 
1 # kernel parameter -g 
1 # kernel parameter -s 
1 # kernel parameter -r 
empty# kernel parameter -u 
47 # highest feature index 
67 # number of training documents 
2 # number of support vectors plus 1 
0 # threshold b, each following line is a SV (starting with alpha*y)
1 1:0.096909963 2:0.14989619 3:1.1053925 4:0.61606526 5:-0.047642924 11:0.023173992 12:-0.73351753 13:-1.0492582 14:0.36087054 15:-0.19776374 16:-0.34238932 17:0.94669431 18:-0.11606327 19:0.56509084 20:-0.33687982 21:-0.086217701 22:-0.080538221 23:0.45310327 24:0.75966311 25:0.46276772 26:-0.14517455 27:0.17471877 28:0.44902208 29:-0.15988351 30:-0.23876263 31:-0.030890578 32:0.42098579 33:-0.75587076 34:-0.15083228 35:0.7166276 36:-0.40908816 37:0.087800741 38:-0.19421412 39:-0.15908314 40:-0.21607912 41:0.44850695 42:-0.58991414 44:0.088857442 45:-0.29786325 46:-0.059192225 #
