SVM-light Version V6.20
0 # kernel type
3 # kernel parameter -d 
1 # kernel parameter -g 
1 # kernel parameter -s 
1 # kernel parameter -r 
empty# kernel parameter -u 
47 # highest feature index 
64 # number of training documents 
2 # number of support vectors plus 1 
0 # threshold b, each following line is a SV (starting with alpha*y)
1 1:-0.31783462 2:0.0032797973 3:0.28706431 4:0.25394067 5:-0.28128049 11:-0.0075363643 12:0.077236712 13:0.50560802 14:-0.07280457 15:-0.22960368 16:0.19355179 17:0.1620717 18:-0.74780613 19:-0.77003467 20:0.17598525 21:0.40318245 22:0.18360467 23:1.3674088 24:0.10166802 25:-0.062524289 26:0.47379914 27:-0.56402707 28:0.31764349 29:-0.3409678 30:-0.85839522 31:0.6667214 32:0.005443552 33:-0.0085938647 34:-0.13931002 35:1.0213206 36:-0.56970513 37:-0.47229549 38:-0.80515128 39:-0.101353 40:0.64428145 41:0.32335225 42:-0.31135041 44:-0.26268694 45:0.26816788 46:0.11806796 #
