SVM-light Version V6.20
0 # kernel type
3 # kernel parameter -d 
1 # kernel parameter -g 
1 # kernel parameter -s 
1 # kernel parameter -r 
empty# kernel parameter -u 
47 # highest feature index 
61 # number of training documents 
2 # number of support vectors plus 1 
0 # threshold b, each following line is a SV (starting with alpha*y)
1 1:-0.11416586 2:0.17196809 3:0.55603492 4:-0.13896629 5:-0.2635529 11:0.12137324 12:-0.18514982 13:-0.7124511 14:-0.46948582 15:-0.074822947 16:0.098667912 17:0.075455271 18:-0.28813347 19:0.10279346 20:0.10303436 21:0.45881605 22:-0.30088687 23:1.5806078 24:0.29112613 25:0.32515994 26:-0.083070338 27:-0.35889989 28:0.67795634 29:0.51584297 30:-0.25458744 31:0.2956512 32:0.17915216 33:0.47856385 34:0.090192474 35:0.17792977 36:-0.55097753 37:-0.095902346 38:-0.45524368 39:0.81168264 40:-0.49046811 41:0.095525235 42:-0.31414917 44:0.1842984 45:-0.54053849 46:-0.15395893 #
