SVM-light Version V6.20
0 # kernel type
3 # kernel parameter -d 
1 # kernel parameter -g 
1 # kernel parameter -s 
1 # kernel parameter -r 
empty# kernel parameter -u 
47 # highest feature index 
66 # number of training documents 
2 # number of support vectors plus 1 
0 # threshold b, each following line is a SV (starting with alpha*y)
1 1:0.11464353 2:0.18261768 3:0.67495531 4:-0.66622889 5:-0.019397967 11:-0.29778859 12:-0.88464171 13:-0.15673104 14:0.54449141 15:-0.3482368 16:-0.049505763 17:-0.27180293 18:-0.028163865 19:-0.69514757 20:-0.046949938 21:0.53897363 22:-0.85892057 23:0.92231703 24:0.16398719 25:0.27958816 26:0.50514323 27:-0.03689222 28:-0.18757622 29:0.19475135 30:0.018415557 31:-0.14325835 32:-0.46114567 33:0.36722779 34:-0.55632508 35:0.86572969 36:-0.40677595 37:-0.43826777 38:0.21697342 39:0.67839414 40:-0.089528143 41:0.90195417 42:-0.035667792 44:-0.18162607 45:0.45880589 46:0.10072251 #
