SVM-light Version V6.20
0 # kernel type
3 # kernel parameter -d 
1 # kernel parameter -g 
1 # kernel parameter -s 
1 # kernel parameter -r 
empty# kernel parameter -u 
47 # highest feature index 
65 # number of training documents 
2 # number of support vectors plus 1 
0 # threshold b, each following line is a SV (starting with alpha*y)
1 1:0.063492104 2:8.305908e-05 3:0.409253 4:0.0032446166 5:0.031409625 11:-0.2466992 12:-0.61530459 13:-0.80098641 14:-0.23281796 15:-0.1169652 16:0.04036811 17:-0.23958747 18:-0.38490039 19:0.05843785 20:0.059258211 21:-0.33769217 22:-0.10829063 23:0.40411511 24:-0.19643976 25:-0.028129075 26:0.23768806 27:0.21444206 28:0.51713669 29:0.26875001 30:-0.36302108 31:-0.23287298 32:0.8951503 33:0.18467052 34:-0.30155137 35:-0.078155622 36:0.10642253 37:0.91079849 38:-0.25288835 39:1.3710587 40:-0.03322614 41:-0.10253932 42:0.16509049 44:0.34666717 45:-0.33214343 46:0.19646378 #
