SVM-light Version V6.20
0 # kernel type
3 # kernel parameter -d 
1 # kernel parameter -g 
1 # kernel parameter -s 
1 # kernel parameter -r 
empty# kernel parameter -u 
47 # highest feature index 
64 # number of training documents 
2 # number of support vectors plus 1 
0 # threshold b, each following line is a SV (starting with alpha*y)
1 1:-0.12860459 2:-0.045597006 3:0.69903159 4:-0.41090134 5:-0.21137391 11:0.15143089 12:-0.24729738 13:-1.0739055 14:0.33889809 15:0.11555178 16:-0.0052562575 17:-0.041229121 18:-0.028086381 19:-0.07321775 20:0.0049068965 21:0.50398797 22:-0.50702119 23:1.6263499 24:0.0012778252 25:0.13810468 26:-0.18051931 27:-0.1116219 28:0.73409557 29:0.54045653 30:-0.53305209 31:0.42882121 32:0.30553129 33:-0.098763302 34:0.25258219 35:0.062544957 36:-0.13788466 37:0.30385998 38:-0.59426248 39:0.60562444 40:0.070840046 41:-0.057187174 42:-0.33480585 44:0.16745593 45:-0.19355823 46:-0.178349 #
