SVM-light Version V6.20
0 # kernel type
3 # kernel parameter -d 
1 # kernel parameter -g 
1 # kernel parameter -s 
1 # kernel parameter -r 
empty# kernel parameter -u 
47 # highest feature index 
64 # number of training documents 
2 # number of support vectors plus 1 
0 # threshold b, each following line is a SV (starting with alpha*y)
1 1:-0.28517148 2:-0.18116201 3:-0.017080838 4:0.19426094 5:-0.10925993 11:-0.049647294 12:0.14152142 13:0.62246138 14:-0.21653244 15:-0.04171234 16:0.36959904 17:-0.074625082 18:-0.056027673 19:-0.44907582 20:0.37316382 21:0.56676692 22:-0.56406575 23:1.2774698 24:0.77609068 25:-0.011300349 26:-0.26464835 27:0.032984607 28:0.51740801 29:0.20646724 30:-0.25070208 31:0.024209032 32:-0.057490855 33:-0.18788588 34:0.0066169291 35:0.69394684 36:-0.245635 37:-0.15581656 38:-0.5842554 39:0.60062474 40:0.51876247 41:-0.10824586 42:-0.22121809 44:-0.10747881 45:0.076803118 46:-0.29667622 #
