SVM-light Version V6.20
0 # kernel type
3 # kernel parameter -d 
1 # kernel parameter -g 
1 # kernel parameter -s 
1 # kernel parameter -r 
empty# kernel parameter -u 
47 # highest feature index 
61 # number of training documents 
2 # number of support vectors plus 1 
0 # threshold b, each following line is a SV (starting with alpha*y)
1 1:-0.049078666 2:-0.73948675 3:0.61536515 4:0.12576477 5:0.00012073869 11:-0.25620112 12:1.3230025 13:-0.080436766 14:-0.59062368 15:-0.038678341 16:0.26961258 17:0.62546164 18:-0.54956615 19:-0.79812104 20:0.3167012 21:0.39865452 22:1.5955902 23:0.099143177 24:-0.68686956 25:0.37006128 26:0.76391566 27:-0.50164986 28:-0.38789564 29:-0.34194499 30:0.064624585 31:-0.057893388 32:-0.21149053 33:0.28202385 34:-0.25682122 35:-0.67260516 36:0.82796341 37:-0.1617209 38:0.68921715 39:-0.21194077 40:-0.9081465 41:0.5478189 42:0.032527748 44:-0.35655326 45:-0.33187708 46:0.30675575 #
