SVM-light Version V6.20
0 # kernel type
3 # kernel parameter -d 
1 # kernel parameter -g 
1 # kernel parameter -s 
1 # kernel parameter -r 
empty# kernel parameter -u 
47 # highest feature index 
64 # number of training documents 
2 # number of support vectors plus 1 
0 # threshold b, each following line is a SV (starting with alpha*y)
1 1:0.095911272 2:-0.18799122 3:1.0187465 4:-0.81619078 5:-0.22249219 11:0.23050906 12:0.095431693 13:-0.21113275 14:-0.091517799 15:-0.27786294 16:0.046675369 17:-0.093155786 18:0.034199998 19:-0.30704775 20:0.0013518607 21:-0.20295596 22:0.046256159 23:0.62016827 24:0.4968811 25:0.65975285 26:-0.12317885 27:0.093914039 28:-0.48973596 29:-0.435316 30:-0.33362687 31:-0.20367892 32:0.45076355 33:0.5772019 34:0.33442181 35:0.51319021 36:-0.41869608 37:0.43438464 38:-0.98212284 39:0.96005082 40:0.25020352 41:0.13462599 42:0.14602789 44:-0.041064851 45:0.10300284 46:-0.2753624 #
