SVM-light Version V6.20
0 # kernel type
3 # kernel parameter -d 
1 # kernel parameter -g 
1 # kernel parameter -s 
1 # kernel parameter -r 
empty# kernel parameter -u 
47 # highest feature index 
62 # number of training documents 
2 # number of support vectors plus 1 
0 # threshold b, each following line is a SV (starting with alpha*y)
1 1:0.013097086 2:-0.15534472 3:0.23628055 4:0.086189561 5:0.0041240449 11:-0.051096927 12:-0.59769189 13:-0.12003826 14:-0.33583593 15:-0.18469639 16:-0.049302556 17:0.29626954 18:-0.13737282 19:-0.15076713 20:-0.050221827 21:0.51683003 22:-1.1024389 23:1.5618851 24:-0.040685717 25:0.52719122 26:-0.8817932 27:0.55931056 28:0.72118258 29:0.24771079 30:-0.030914655 31:-0.28074804 32:0.52335727 33:0.30524886 34:0.20437337 35:-0.47532561 36:0.18825929 37:0.45008746 38:-0.18908733 39:1.3738722 40:0.026931921 41:-0.20446153 42:-0.25184482 44:-0.042751413 45:-0.1759979 46:-0.17466882 #
