SVM-light Version V6.20
0 # kernel type
3 # kernel parameter -d 
1 # kernel parameter -g 
1 # kernel parameter -s 
1 # kernel parameter -r 
empty# kernel parameter -u 
47 # highest feature index 
63 # number of training documents 
2 # number of support vectors plus 1 
0 # threshold b, each following line is a SV (starting with alpha*y)
1 1:-0.059155125 2:-0.3052212 3:0.55546653 4:-0.40379438 5:-0.018671317 11:-0.23053505 12:0.020051343 13:-0.46150047 14:-0.69207937 15:-0.066314764 16:-0.029238973 17:-0.33565855 18:-0.044210654 19:-0.14769119 20:-0.01306069 21:0.52130836 22:-0.4950026 23:1.7588638 24:0.25769317 25:0.1676157 26:-0.34621704 27:0.45185435 28:0.43884334 29:0.52082705 30:-0.2020196 31:-0.2013472 32:0.39257076 33:0.99641269 34:0.2003736 35:0.26367277 36:-0.52811337 37:-0.026165973 38:-0.23285429 39:0.72371966 40:-0.25300017 41:-0.095919818 42:-0.086185753 44:0.16756687 45:-0.11341724 46:-0.46411517 #
