SVM-light Version V6.20
0 # kernel type
3 # kernel parameter -d 
1 # kernel parameter -g 
1 # kernel parameter -s 
1 # kernel parameter -r 
empty# kernel parameter -u 
47 # highest feature index 
61 # number of training documents 
2 # number of support vectors plus 1 
0 # threshold b, each following line is a SV (starting with alpha*y)
1 1:-0.37005278 2:1.0058829 3:-0.058632977 4:0.16680117 5:0.13125899 11:-0.18943638 12:-0.59842187 13:0.78015119 14:-0.66797423 15:0.18273602 16:0.040731419 17:-0.44362906 18:-0.1089934 19:-0.27354884 20:0.047769293 21:-0.50633019 22:-0.062232308 23:0.34228143 24:-0.29568353 25:0.59330076 26:0.28281069 27:-0.59701908 28:-0.57479578 29:-0.86746019 30:0.9484241 31:0.46674031 32:-0.85086834 33:0.16861156 34:-0.90364683 35:0.020004435 36:0.64454001 37:-0.23135155 38:0.15230359 39:1.3082306 40:0.35293123 41:0.23750238 42:0.22197345 44:-0.12416641 45:0.21608075 46:-0.17715235 #
