SVM-light Version V6.20
0 # kernel type
3 # kernel parameter -d 
1 # kernel parameter -g 
1 # kernel parameter -s 
1 # kernel parameter -r 
empty# kernel parameter -u 
47 # highest feature index 
62 # number of training documents 
2 # number of support vectors plus 1 
0 # threshold b, each following line is a SV (starting with alpha*y)
1 1:0.17176045 2:-0.080698624 3:-0.23294647 4:-0.05527379 5:0.10305294 11:0.12313206 12:-0.59565139 13:0.28476524 14:-0.59810621 15:-0.10342237 16:-0.11579233 17:-0.0044183335 18:-0.13934484 19:-0.38284069 20:-0.10397533 21:0.08319921 22:-0.74973834 23:1.3245472 24:-0.25836891 25:0.46116975 26:-0.30958027 27:0.25901115 28:0.68152392 29:0.25671548 30:-0.052439675 31:-0.17673166 32:0.28956428 33:0.40350711 34:-0.41856217 35:0.074174009 36:0.42599052 37:0.54927504 38:0.020045612 39:1.0671899 40:0.64317906 41:0.13071348 42:-0.45122278 44:0.2245079 45:-0.33198985 46:-0.11227517 #
