SVM-light Version V6.20
0 # kernel type
3 # kernel parameter -d 
1 # kernel parameter -g 
1 # kernel parameter -s 
1 # kernel parameter -r 
empty# kernel parameter -u 
47 # highest feature index 
66 # number of training documents 
2 # number of support vectors plus 1 
0 # threshold b, each following line is a SV (starting with alpha*y)
1 1:0.18325266 2:0.068140246 3:0.47272339 4:-1.0521344 5:-0.020186391 11:0.27192888 12:0.14683397 13:-0.61893713 14:0.79909223 15:-0.14862308 16:0.095973991 17:-0.24768014 18:-0.33347061 19:-0.87152058 20:0.082343146 21:-0.0030092059 22:0.020222276 23:1.1488763 24:-0.96955401 25:0.32174915 26:0.24208087 27:0.070618987 28:-0.3157163 29:-0.62123847 30:0.68845946 31:0.11841675 32:0.25582379 33:-0.17917982 34:0.14287831 35:0.71134043 36:-0.39074823 37:-0.37953463 38:0.49164978 39:-0.018934112 40:0.91943043 41:-0.13512334 42:0.28274021 44:0.23621882 45:-0.2859928 46:-0.070936963 #
