SVM-light Version V6.20
0 # kernel type
3 # kernel parameter -d 
1 # kernel parameter -g 
1 # kernel parameter -s 
1 # kernel parameter -r 
empty# kernel parameter -u 
47 # highest feature index 
63 # number of training documents 
2 # number of support vectors plus 1 
0 # threshold b, each following line is a SV (starting with alpha*y)
1 1:-0.094799034 2:0.21352221 3:0.38268998 4:-0.4205631 5:-0.17717505 11:0.04387664 12:-0.10553603 13:0.10460812 14:-0.82487816 15:-0.068297781 16:0.24966687 17:0.11137184 18:-0.65803605 19:-0.40590057 20:0.24517982 21:0.19256797 22:-0.30619994 23:1.6164932 24:-0.29096976 25:0.12158281 26:-0.4722296 27:0.026514633 28:0.46079141 29:0.27973613 30:-0.33518955 31:-0.099798523 32:0.45371076 33:0.57324928 34:-0.087226883 35:0.70060086 36:-0.12489163 37:0.11324136 38:-0.029651454 39:0.95689535 40:0.54757649 41:0.089370228 42:-0.35911649 44:-0.001414692 45:-0.051347293 46:-0.12256811 #
