SVM-light Version V6.20
0 # kernel type
3 # kernel parameter -d 
1 # kernel parameter -g 
1 # kernel parameter -s 
1 # kernel parameter -r 
empty# kernel parameter -u 
47 # highest feature index 
64 # number of training documents 
2 # number of support vectors plus 1 
0 # threshold b, each following line is a SV (starting with alpha*y)
1 1:0.078856975 2:0.091072038 3:0.048311785 4:-0.22562787 5:0.047542211 11:0.088513561 12:-0.11777541 13:-0.30874649 14:-0.095580615 15:-0.062079955 16:-0.19535984 17:0.026940277 18:-0.10981002 19:-0.44237313 20:-0.18292964 21:-0.45382467 22:-0.59192371 23:1.2747704 24:0.35945889 25:-0.16331261 26:0.069568366 27:-0.15653415 28:0.706016 29:0.73384827 30:-1.2559001 31:-0.0023355009 32:1.2240334 33:0.045014288 34:0.34009668 35:0.76099461 36:-0.83028954 37:0.67258626 38:0.064645305 39:0.35734242 40:-0.37697411 41:0.31822789 42:-0.16811575 44:0.1760281 45:-0.20370378 46:-0.44435081 #
