SVM-light Version V6.20
0 # kernel type
3 # kernel parameter -d 
1 # kernel parameter -g 
1 # kernel parameter -s 
1 # kernel parameter -r 
empty# kernel parameter -u 
47 # highest feature index 
63 # number of training documents 
2 # number of support vectors plus 1 
0 # threshold b, each following line is a SV (starting with alpha*y)
1 1:-0.22778884 2:0.018501472 3:0.28702629 4:-0.6026575 5:-0.11508305 11:-0.077097014 12:-0.22935666 13:0.274405 14:0.10579802 15:-0.028816482 16:0.15977886 17:-0.24459909 18:-0.59365678 19:-0.60764629 20:0.16289967 21:0.16172126 22:0.31551167 23:1.4427329 24:-0.063389629 25:0.19403383 26:-0.27472723 27:0.12075333 28:0.35126796 29:0.53034288 30:-0.30181977 31:-0.26200733 32:0.02463459 33:0.7727614 34:0.31176972 35:0.27152428 36:-0.6815058 37:-0.29944509 38:-0.35420829 39:0.73933142 40:0.035472509 41:0.054060783 42:0.20265682 44:0.18849151 45:-0.13355826 46:0.080589272 #
