SVM-light Version V6.20
0 # kernel type
3 # kernel parameter -d 
1 # kernel parameter -g 
1 # kernel parameter -s 
1 # kernel parameter -r 
empty# kernel parameter -u 
47 # highest feature index 
65 # number of training documents 
2 # number of support vectors plus 1 
0 # threshold b, each following line is a SV (starting with alpha*y)
1 1:-0.20603429 2:-0.29950774 3:-0.47651616 4:-0.71342552 5:-0.038040925 11:-0.1535719 12:-0.12870239 13:0.21334468 14:0.070563249 15:-0.088857055 16:-0.19378035 17:-0.28365549 18:-0.23097886 19:-0.64313698 20:-0.1851697 21:0.94907767 22:-1.481964 23:1.7600628 24:0.62749457 25:-0.24962503 26:-1.0628992 27:0.3996796 28:0.92838877 29:0.38061148 30:-0.51703012 31:-0.65657717 32:1.5652975 33:0.3521063 34:0.016481772 35:0.032985535 36:-0.093792118 37:0.64948618 38:-0.75002855 39:1.2685205 40:1.0966682 41:0.0052776942 42:-0.57798904 44:-0.10861363 45:-0.44252989 46:-0.047328584 #
