SVM-light Version V6.20
0 # kernel type
3 # kernel parameter -d 
1 # kernel parameter -g 
1 # kernel parameter -s 
1 # kernel parameter -r 
empty# kernel parameter -u 
47 # highest feature index 
66 # number of training documents 
2 # number of support vectors plus 1 
0 # threshold b, each following line is a SV (starting with alpha*y)
1 1:0.093382522 2:0.45306143 3:-0.028950095 4:0.10686697 5:-0.11670755 11:-0.071149394 12:-0.51706797 13:0.32278895 14:-1.0008142 15:-0.48172727 16:-0.011891482 17:0.70833659 18:-0.45588312 19:0.94768131 20:-0.02955739 21:-0.91622066 22:0.20287026 23:0.64506787 24:-0.3600215 25:0.068966925 26:-0.91123706 27:0.087087214 28:0.2493798 29:-0.74720412 30:1.0326266 31:0.86108953 32:-0.9603346 33:1.240696 34:-1.1637048 35:0.97196096 36:-0.20597912 37:-0.04709458 38:0.27804539 39:1.1012723 40:0.033893872 41:-0.24431077 42:-0.67006129 44:-0.058759589 45:0.11518765 46:-0.1221736 #
