SVM-light Version V6.20
0 # kernel type
3 # kernel parameter -d 
1 # kernel parameter -g 
1 # kernel parameter -s 
1 # kernel parameter -r 
empty# kernel parameter -u 
47 # highest feature index 
65 # number of training documents 
2 # number of support vectors plus 1 
0 # threshold b, each following line is a SV (starting with alpha*y)
1 1:-0.057072569 2:0.9409709 3:0.60424 4:-0.23748249 5:0.059648633 11:0.016839832 12:-1.4982414 13:-0.39845774 14:-0.73063153 15:0.026372438 16:0.15645772 17:-0.047239821 18:-0.20536436 19:0.36655021 20:0.18961254 21:0.67168099 22:-0.10868815 23:1.1162795 24:-0.18606251 25:0.78656304 26:0.043201867 27:-0.07453201 28:0.054372866 29:0.076024897 30:-0.048869196 31:-0.44058073 32:0.8321476 33:0.79781651 34:0.16403325 35:0.15389416 36:-0.17020509 37:0.21994154 38:-0.60197139 39:0.67937976 40:-0.49684629 41:-0.27819762 42:-0.22190508 44:-0.24652515 45:-0.31178814 46:0.13917108 #
