SVM-light Version V6.20
0 # kernel type
3 # kernel parameter -d 
1 # kernel parameter -g 
1 # kernel parameter -s 
1 # kernel parameter -r 
empty# kernel parameter -u 
47 # highest feature index 
63 # number of training documents 
2 # number of support vectors plus 1 
0 # threshold b, each following line is a SV (starting with alpha*y)
1 1:-0.13409731 2:0.08871226 3:-0.48300061 4:-0.29547277 5:-0.21855475 11:-0.24130327 12:-0.092304908 13:0.34336185 14:-0.24732204 15:-0.40721121 16:0.34710604 17:-0.14824566 18:-0.3634665 19:-0.63883007 20:0.32984492 21:0.19383235 22:-0.85363239 23:1.0594771 24:0.30314866 25:0.041896816 26:-0.65400726 27:0.43044975 28:0.57339239 29:0.56953126 30:-0.57143456 31:0.29363233 32:0.38902894 33:0.87143433 34:-0.95097816 35:0.70512903 36:-0.21528746 37:0.36819527 38:-0.32124388 39:0.30620623 40:0.66312224 41:-0.16980319 42:0.33125186 44:-0.11189792 45:-0.26825541 46:0.0085156634 #
