SVM-light Version V6.20
0 # kernel type
3 # kernel parameter -d 
1 # kernel parameter -g 
1 # kernel parameter -s 
1 # kernel parameter -r 
empty# kernel parameter -u 
47 # highest feature index 
64 # number of training documents 
2 # number of support vectors plus 1 
0 # threshold b, each following line is a SV (starting with alpha*y)
1 1:-0.0013171632 2:-0.50121325 3:0.61680967 4:0.060724575 5:-0.035515301 11:0.080213547 12:0.12067826 13:-0.69921011 14:0.6616565 15:-0.19613756 16:0.13589813 17:0.030341893 18:-0.095743291 19:0.066267058 20:0.11782081 21:0.49377397 22:-0.40897548 23:0.46927866 24:0.12524399 25:0.38303351 26:0.40049866 27:0.064380758 28:-0.40099269 29:0.32000071 30:-1.040822 31:0.78302944 32:0.59084463 33:-0.68140149 34:0.26676747 35:0.046569385 36:-0.76495177 37:0.61554289 38:-0.79542613 39:0.79315561 40:0.0062015955 41:0.051866818 42:-0.13115418 44:-0.17533989 45:0.18492799 46:0.04761162 #
