SVM-light Version V6.20
0 # kernel type
3 # kernel parameter -d 
1 # kernel parameter -g 
1 # kernel parameter -s 
1 # kernel parameter -r 
empty# kernel parameter -u 
47 # highest feature index 
61 # number of training documents 
2 # number of support vectors plus 1 
0 # threshold b, each following line is a SV (starting with alpha*y)
1 1:0.60281277 2:0.15661757 3:-0.45835602 4:-1.0057462 5:0.5071826 11:-0.22676407 12:-0.61960691 13:0.13742684 14:0.59162307 15:-0.2362382 16:-0.35091379 17:-0.096876271 18:0.061658595 19:0.087556012 20:-0.3538633 21:-0.51045728 22:0.40747306 23:0.06549751 24:-0.47737816 25:0.46273184 26:0.82236081 27:-0.17336489 28:-0.50609082 29:-0.594742 30:0.16765825 31:0.034126729 32:1.0983136 33:0.64245975 34:-0.58450836 35:0.15013678 36:0.53967696 37:0.5458526 38:0.12084671 39:0.60695076 40:-0.11410443 41:0.063663408 42:-0.37676632 44:0.12823877 45:-0.78165436 46:0.16821721 #
