SVM-light Version V6.20
0 # kernel type
3 # kernel parameter -d 
1 # kernel parameter -g 
1 # kernel parameter -s 
1 # kernel parameter -r 
empty# kernel parameter -u 
47 # highest feature index 
60 # number of training documents 
2 # number of support vectors plus 1 
0 # threshold b, each following line is a SV (starting with alpha*y)
1 1:0.086413525 2:0.13604513 3:0.36887872 4:-0.46082887 5:0.07264965 11:-0.22422542 12:-0.96610165 13:-0.53889132 14:-0.078798674 15:-0.35775331 16:-0.21807918 17:0.29649463 18:-0.079123139 19:-0.27604532 20:-0.21107775 21:0.37797001 22:-0.64828366 23:1.8166893 24:0.58734947 25:0.57965147 26:-0.13552336 27:-0.57185781 28:0.28220335 29:0.67666894 30:-0.26441574 31:-0.09736 32:0.45513752 33:0.090541884 34:-0.22320375 35:-0.002812871 36:-0.57051295 37:0.027322916 38:-0.49574926 39:1.4849871 40:0.36839429 41:-0.096148595 42:-0.022553192 44:-0.086561114 45:-0.42013255 46:-0.33008772 #
