SVM-light Version V6.20
0 # kernel type
3 # kernel parameter -d 
1 # kernel parameter -g 
1 # kernel parameter -s 
1 # kernel parameter -r 
empty# kernel parameter -u 
47 # highest feature index 
65 # number of training documents 
2 # number of support vectors plus 1 
0 # threshold b, each following line is a SV (starting with alpha*y)
1 1:0.13111985 2:0.23422821 3:0.14641492 4:-0.86401653 5:-0.14452834 11:0.033563122 12:-0.68948251 13:0.43795845 14:0.18098678 15:-0.36501107 16:0.26869911 17:-0.096876621 18:-0.15088786 19:-0.52766317 20:0.25363192 21:-0.068169802 22:0.13331224 23:1.3234506 24:0.19198298 25:0.30652985 26:-0.79451519 27:0.40710491 28:0.76758683 29:0.38566726 30:-0.54580975 31:0.13379221 32:0.10278333 33:0.22336388 34:-0.45903158 35:0.91849738 36:-0.17140488 37:0.34624758 38:-0.73114753 39:0.68753284 40:0.3520875 41:0.0093178554 42:-0.11374309 44:0.28954563 45:0.21222767 46:-0.13505414 #
