SVM-light Version V6.20
0 # kernel type
3 # kernel parameter -d 
1 # kernel parameter -g 
1 # kernel parameter -s 
1 # kernel parameter -r 
empty# kernel parameter -u 
47 # highest feature index 
64 # number of training documents 
2 # number of support vectors plus 1 
0 # threshold b, each following line is a SV (starting with alpha*y)
1 1:-0.23727027 2:0.063211001 3:0.017758772 4:-0.091376826 5:-0.072258741 11:-0.1155078 12:-0.21522176 13:-0.19404662 14:-0.66713184 15:-0.057503469 16:0.37700918 17:0.16289859 18:-0.21771839 19:-0.049052171 20:0.3762919 21:-0.013587551 22:-0.52065849 23:1.2697295 24:0.37550694 25:0.71872663 26:-0.4650538 27:-0.42914781 28:0.45030922 29:0.019934366 30:0.1121828 31:0.50608426 32:0.20705061 33:0.47777906 34:-0.46132004 35:1.0557834 36:-0.32875127 37:0.26144096 38:0.12307231 39:0.43577287 40:0.083668314 41:-0.12158299 42:-0.47246796 44:-0.30099586 45:-0.00077138102 46:-0.21122976 #
