SVM-light Version V6.20
0 # kernel type
3 # kernel parameter -d 
1 # kernel parameter -g 
1 # kernel parameter -s 
1 # kernel parameter -r 
empty# kernel parameter -u 
47 # highest feature index 
66 # number of training documents 
2 # number of support vectors plus 1 
0 # threshold b, each following line is a SV (starting with alpha*y)
1 1:0.25511068 2:0.57086253 3:0.83139133 4:-0.37122306 5:-0.0994846 11:0.16213401 12:-0.50436574 13:-1.1905094 14:0.35597041 15:-0.31769717 16:0.0092302067 17:0.12553336 18:-0.31268549 19:-0.50138158 20:0.003388148 21:0.15669906 22:-0.53578842 23:1.1665535 24:-0.51008046 25:0.55676383 26:-0.53644031 27:0.075919054 28:0.27987054 29:0.45711586 30:0.097470157 31:0.035998199 32:0.46770737 33:-0.39996189 34:0.021534592 35:0.23881373 36:0.29185182 37:-0.3416262 38:0.47962204 39:-0.0011355634 40:0.9097355 41:0.4697004 42:-0.24357563 44:0.16689473 45:-0.18102838 46:-0.13579762 #
