SVM-light Version V6.20
0 # kernel type
3 # kernel parameter -d 
1 # kernel parameter -g 
1 # kernel parameter -s 
1 # kernel parameter -r 
empty# kernel parameter -u 
47 # highest feature index 
62 # number of training documents 
2 # number of support vectors plus 1 
0 # threshold b, each following line is a SV (starting with alpha*y)
1 1:0.29733896 2:0.50607961 3:-0.89091605 4:-0.28873035 5:0.28417164 11:-0.33315173 12:-0.3033165 13:0.64661276 14:0.50591129 15:-0.37394866 16:-0.072804272 17:-0.66413015 18:0.15019198 19:0.46108088 20:-0.039011259 21:0.58419853 22:-1.0565487 23:0.8006314 24:0.15842396 25:0.44053054 26:-0.46289364 27:0.018412208 28:0.38275328 29:0.16013978 30:-0.68249893 31:0.15524383 32:1.1133971 33:0.093194105 34:0.13064152 35:0.32028893 36:-1.0703681 37:0.12705797 38:-0.20056826 39:0.45861378 40:0.22976834 41:-0.16285023 42:-0.58080089 44:-0.18314388 45:-0.10658266 46:0.2283081 #
