SVM-light Version V6.20
0 # kernel type
3 # kernel parameter -d 
1 # kernel parameter -g 
1 # kernel parameter -s 
1 # kernel parameter -r 
empty# kernel parameter -u 
47 # highest feature index 
66 # number of training documents 
2 # number of support vectors plus 1 
0 # threshold b, each following line is a SV (starting with alpha*y)
1 1:0.060746159 2:0.26668885 3:3.3146862e-05 4:-0.58927512 5:0.0076964288 11:-0.077700451 12:-0.50873458 13:0.053048272 14:-0.37773949 15:-0.12491009 16:-0.0081507508 17:-0.030018944 18:-0.22721086 19:-0.40242043 20:0.016197171 21:0.49936074 22:0.026935514 23:0.89118612 24:-0.45550802 25:0.15126571 26:-0.064544298 27:0.31759566 28:0.30515796 29:0.00059899228 30:0.018627567 31:-0.082572177 32:0.46200424 33:0.90777445 34:-0.10922341 35:-0.19504626 36:0.36529928 37:0.59288704 38:-0.18315884 39:1.0570091 40:-0.28176937 41:-0.085889116 42:-0.0012040086 44:0.19217145 45:-0.41134509 46:0.055309989 #
