SVM-light Version V6.20
0 # kernel type
3 # kernel parameter -d 
1 # kernel parameter -g 
1 # kernel parameter -s 
1 # kernel parameter -r 
empty# kernel parameter -u 
47 # highest feature index 
64 # number of training documents 
2 # number of support vectors plus 1 
0 # threshold b, each following line is a SV (starting with alpha*y)
1 1:0.019045932 2:0.041831788 3:0.056713447 4:0.092396647 5:-0.0026148548 11:-0.49426749 12:0.32908213 13:-0.18329243 14:-0.38409609 15:-0.31802082 16:0.23897046 17:-0.2841607 18:-0.1763535 19:-0.46489534 20:0.23191568 21:0.4254562 22:-0.20095192 23:1.6227748 24:0.22953449 25:-0.160124 26:-0.035149258 27:-0.1582597 28:0.62554401 29:0.57229447 30:-0.31068397 31:0.039391052 32:0.16331941 33:-0.074755885 34:-0.21403691 35:0.2665548 36:0.51800859 37:0.3748382 38:-0.95524311 39:0.2424005 40:-0.25137433 41:0.26358685 42:-0.082313113 44:-0.071578093 45:-0.21850552 46:-0.1805256 #
