SVM-light Version V6.20
0 # kernel type
3 # kernel parameter -d 
1 # kernel parameter -g 
1 # kernel parameter -s 
1 # kernel parameter -r 
empty# kernel parameter -u 
47 # highest feature index 
60 # number of training documents 
2 # number of support vectors plus 1 
0 # threshold b, each following line is a SV (starting with alpha*y)
1 1:0.36865464 2:-0.58034116 3:1.0312451 4:-0.47422305 5:0.40077782 11:-0.16521825 12:0.91544026 13:-1.3587234 14:-0.32685253 15:-0.11289095 16:-0.40594834 17:0.12787972 18:-0.15288916 19:-0.045025751 20:-0.40839759 21:-0.18527448 22:-1.265985 23:0.92577976 24:0.27881435 25:-0.21352573 26:-0.97665209 27:-0.34972957 28:1.3893347 29:0.99345672 30:0.81561744 31:-0.23390901 32:-0.52218843 33:0.50631213 34:-0.54451084 35:0.63326216 36:0.57633489 37:-0.26906484 38:-0.38227409 39:0.42080176 40:0.4594585 41:-0.41091409 42:0.77645028 44:0.066277876 45:-0.45076272 46:-0.41875216 #
