SVM-light Version V6.20
0 # kernel type
3 # kernel parameter -d 
1 # kernel parameter -g 
1 # kernel parameter -s 
1 # kernel parameter -r 
empty# kernel parameter -u 
47 # highest feature index 
63 # number of training documents 
2 # number of support vectors plus 1 
0 # threshold b, each following line is a SV (starting with alpha*y)
1 1:-0.26366255 2:0.97421867 3:0.18616001 4:0.37351656 5:-0.034408852 11:-0.033516694 12:-1.3075479 13:-0.06742695 14:0.39417717 15:-0.08833947 16:-0.053528991 17:0.018090596 18:-0.26878589 19:-0.52713519 20:-0.076548904 21:0.36295107 22:-0.6245572 23:1.4505669 24:-0.04446844 25:-0.061556403 26:-0.23910029 27:0.499704 28:0.4958455 29:-0.28230098 30:-0.12396138 31:-0.0622744 32:0.63584077 33:-0.7495811 34:0.48287138 35:-0.24413864 36:0.071253933 37:0.1622884 38:-0.10370009 39:0.57930511 40:-0.32786337 41:-0.24388805 42:0.33912632 44:0.14692979 45:-0.56371647 46:-0.097109713 #
