SVM-light Version V6.20
0 # kernel type
3 # kernel parameter -d 
1 # kernel parameter -g 
1 # kernel parameter -s 
1 # kernel parameter -r 
empty# kernel parameter -u 
47 # highest feature index 
66 # number of training documents 
2 # number of support vectors plus 1 
0 # threshold b, each following line is a SV (starting with alpha*y)
1 1:-0.23576257 2:0.10621906 3:0.51647842 4:-0.49727955 5:-0.3847931 11:-0.020754179 12:-0.34632945 13:-0.44517455 14:-0.020192489 15:-0.28421542 16:0.10703867 17:0.035131719 18:-0.2609365 19:-0.12049183 20:0.10587449 21:-0.00031057285 22:-0.77403021 23:1.6859258 24:0.4721705 25:0.47113547 26:-0.40934473 27:0.099305078 28:0.63568127 29:0.42210823 30:-0.21811084 31:-0.010338776 32:0.12203412 33:0.50515926 34:0.34927955 35:-0.0040628924 36:-0.4238618 37:0.51006156 38:-0.43251613 39:1.0463037 40:-0.46793821 41:-0.25715914 42:-0.25295976 44:0.39537558 45:-0.57077539 46:-0.41664529 #
