SVM-light Version V6.20
0 # kernel type
3 # kernel parameter -d 
1 # kernel parameter -g 
1 # kernel parameter -s 
1 # kernel parameter -r 
empty# kernel parameter -u 
47 # highest feature index 
64 # number of training documents 
2 # number of support vectors plus 1 
0 # threshold b, each following line is a SV (starting with alpha*y)
1 1:0.1497594 2:0.20569709 3:0.027297648 4:0.1120344 5:0.20945582 11:0.012026234 12:-0.78297222 13:0.20366831 14:-0.50434995 15:-0.040579751 16:-0.13111983 17:-0.03725012 18:-0.22468381 19:-0.36439797 20:-0.12258739 21:0.60917974 22:-0.63992983 23:1.3322538 24:-0.18379982 25:0.37950218 26:-0.26402992 27:0.49547949 28:0.33824635 29:-0.030993175 30:-0.23003283 31:-0.21560475 32:0.72779793 33:0.33176598 34:-0.077796936 35:-0.48377833 36:0.48229906 37:0.50958431 38:-0.38151875 39:0.99030989 40:0.29248336 41:-0.083135501 42:0.017067315 44:0.043009527 45:-0.47349709 46:0.088379964 #
