SVM-light Version V6.20
0 # kernel type
3 # kernel parameter -d 
1 # kernel parameter -g 
1 # kernel parameter -s 
1 # kernel parameter -r 
empty# kernel parameter -u 
47 # highest feature index 
60 # number of training documents 
2 # number of support vectors plus 1 
0 # threshold b, each following line is a SV (starting with alpha*y)
1 1:-0.15899622 2:-0.05957948 3:0.314697 4:-0.074822187 5:-0.17204313 11:0.0866291 12:-0.35100344 13:-0.5237509 14:-0.21962708 15:-0.013904242 16:0.058952421 17:-0.22791669 18:-0.040434625 19:-0.35418293 20:0.059956927 21:0.03797169 22:-0.56005085 23:2.0653739 24:-0.12944561 25:0.33709264 26:0.074721664 27:0.24483816 28:0.36842915 29:0.50915843 30:-0.064276993 31:-0.079552233 32:0.36295184 33:0.34690911 34:-0.68882477 35:0.47190592 36:0.0013786928 37:0.33521801 38:-0.053825043 39:1.175119 40:-0.1982207 41:-0.1253704 42:0.043560255 44:0.072536096 45:-0.34200445 46:-0.25104335 #
