SVM-light Version V6.20
0 # kernel type
3 # kernel parameter -d 
1 # kernel parameter -g 
1 # kernel parameter -s 
1 # kernel parameter -r 
empty# kernel parameter -u 
47 # highest feature index 
66 # number of training documents 
2 # number of support vectors plus 1 
0 # threshold b, each following line is a SV (starting with alpha*y)
1 1:-0.21322845 2:0.29606938 3:0.13961354 4:-0.81172496 5:-0.19264118 11:-0.0092740487 12:-0.35010138 13:0.45427486 14:-0.010762375 15:0.022624699 16:0.11491182 17:0.086877421 18:-0.71339959 19:-0.20959952 20:0.13186052 21:-0.069415435 22:-0.077369057 23:1.1000892 24:0.6679002 25:-0.14626338 26:0.54510188 27:-0.069056019 28:-0.1027566 29:0.31173784 30:-0.98911977 31:0.10653205 32:0.49591863 33:0.36182728 34:-0.036645759 35:0.19061473 36:0.22207582 37:0.22832324 38:-0.48244485 39:0.457504 40:0.022679124 41:-0.26395631 42:-0.20596161 44:-0.13619417 45:0.17481603 46:-0.10460957 #
