SVM-light Version V6.20
0 # kernel type
3 # kernel parameter -d 
1 # kernel parameter -g 
1 # kernel parameter -s 
1 # kernel parameter -r 
empty# kernel parameter -u 
47 # highest feature index 
65 # number of training documents 
2 # number of support vectors plus 1 
0 # threshold b, each following line is a SV (starting with alpha*y)
1 1:0.13560659 2:-0.078401007 3:0.28496274 4:0.044509556 5:0.1801849 11:0.20782599 12:-0.52309167 13:0.053398132 14:-1.0461802 15:-0.0035738761 16:-0.14556487 17:-0.1055261 18:-0.58041269 19:-0.25109753 20:-0.11881189 21:0.015574416 22:-0.28913349 23:1.0238322 24:-0.31576055 25:0.25456941 26:-0.62622881 27:0.48270401 28:0.74140352 29:-0.084004484 30:0.14226037 31:-0.28178105 32:0.39427999 33:0.94042492 34:-0.043243092 35:0.23842426 36:-0.30145016 37:0.62243336 38:0.084186643 39:0.70290655 40:0.026791295 41:-0.011426978 42:0.0064199092 44:0.062964313 45:0.1608028 46:0.051279228 #
