SVM-light Version V6.20
0 # kernel type
3 # kernel parameter -d 
1 # kernel parameter -g 
1 # kernel parameter -s 
1 # kernel parameter -r 
empty# kernel parameter -u 
47 # highest feature index 
61 # number of training documents 
2 # number of support vectors plus 1 
0 # threshold b, each following line is a SV (starting with alpha*y)
1 1:0.012399334 2:0.74048567 3:0.033556774 4:0.13465983 5:-0.42592639 11:0.20432022 12:-0.66475308 13:0.12778206 14:-0.081950039 15:-0.13293312 16:0.23394898 17:-0.51325351 18:-0.52392471 19:0.42416817 20:0.20492794 21:-0.96674341 22:0.02934948 23:1.6070642 24:0.46745896 25:0.5775854 26:-0.62900931 27:0.18761571 28:0.23783427 29:-0.073138878 30:0.18496349 31:0.74185485 32:-0.32630986 33:-0.18084002 34:0.072783329 35:-0.2494199 36:0.10111242 37:0.73347765 38:-0.29206008 39:0.15256941 40:-0.64257526 41:-0.37583548 42:-0.35725892 44:0.27398375 45:-0.15582535 46:-0.16637364 #
