SVM-light Version V6.20
0 # kernel type
3 # kernel parameter -d 
1 # kernel parameter -g 
1 # kernel parameter -s 
1 # kernel parameter -r 
empty# kernel parameter -u 
47 # highest feature index 
64 # number of training documents 
2 # number of support vectors plus 1 
0 # threshold b, each following line is a SV (starting with alpha*y)
1 1:-0.036012888 2:-0.18497263 3:-0.26316726 4:0.70337373 5:0.27378556 11:-0.16431859 12:-0.69888902 13:0.27088958 14:-1.6031395 15:0.038131349 16:-0.11092234 17:0.10290489 18:-0.50823814 19:0.066586107 20:-0.11075825 21:0.5638805 22:0.089615397 23:0.6119501 24:-0.40991804 25:0.64212883 26:-0.80834663 27:0.8589949 28:-0.29898342 29:0.2557137 30:0.31884411 31:0.05169493 32:-0.058586378 33:0.59545165 34:-0.15101652 35:0.54064792 36:-0.16371894 37:0.019427476 38:-0.014698332 39:1.0040022 40:-0.52834743 41:-0.040461287 42:-0.34153256 44:0.23342381 45:-0.23077208 46:-0.04290339 #
