SVM-light Version V6.20
0 # kernel type
3 # kernel parameter -d 
1 # kernel parameter -g 
1 # kernel parameter -s 
1 # kernel parameter -r 
empty# kernel parameter -u 
47 # highest feature index 
64 # number of training documents 
2 # number of support vectors plus 1 
0 # threshold b, each following line is a SV (starting with alpha*y)
1 1:0.14076133 2:0.037855621 3:-0.24436463 4:0.051748093 5:0.02319078 11:0.020703638 12:-0.51469892 13:0.26471317 14:-0.10497182 15:-0.18308023 16:-0.057279401 17:0.043704495 18:-0.27306691 19:-0.11025248 20:-0.049992595 21:0.49759573 22:-0.45727453 23:1.1440642 24:0.20618549 25:0.052141167 26:-0.89552134 27:0.5309996 28:1.1413437 29:0.42601615 30:0.12253033 31:-0.64126235 32:0.59170979 33:0.26979914 34:0.48188227 35:0.19057809 36:-0.91005039 37:-0.17445336 38:-0.44243085 39:0.3428621 40:0.60801709 41:0.14494166 42:-0.20390965 44:-0.010527304 45:-0.094368048 46:-0.064257205 #
