SVM-light Version V6.20
0 # kernel type
3 # kernel parameter -d 
1 # kernel parameter -g 
1 # kernel parameter -s 
1 # kernel parameter -r 
empty# kernel parameter -u 
47 # highest feature index 
58 # number of training documents 
2 # number of support vectors plus 1 
0 # threshold b, each following line is a SV (starting with alpha*y)
1 1:-0.33261564 2:0.3662008 3:-0.16299373 4:-0.83251148 5:-0.31445241 11:0.12343468 12:-0.44004336 13:0.13140357 14:1.0807004 15:0.0043870369 16:0.0089590289 17:0.32151529 18:-0.16681981 19:-0.40881908 20:-0.0098589892 21:-0.023638189 22:1.0037887 23:0.80736256 24:1.1134534 25:0.025956394 26:0.92090869 27:-0.027121019 28:-0.49412596 29:0.18954559 30:-0.13649637 31:0.014866999 32:0.10433643 33:-0.70393074 34:-0.53256971 35:-0.27832621 36:1.0999912 37:-0.49535632 38:-0.83349466 39:-0.39258581 40:-0.37787721 41:0.31174669 42:-0.19005261 44:0.032175452 45:-0.26798427 46:-0.15619844 #
