SVM-light Version V6.20
0 # kernel type
3 # kernel parameter -d 
1 # kernel parameter -g 
1 # kernel parameter -s 
1 # kernel parameter -r 
empty# kernel parameter -u 
47 # highest feature index 
67 # number of training documents 
2 # number of support vectors plus 1 
0 # threshold b, each following line is a SV (starting with alpha*y)
1 1:-0.095940195 2:-0.15508172 3:0.72917116 4:0.20329809 5:0.063913092 11:-0.16932517 12:0.12576829 13:-1.0939031 14:-0.81371242 15:-0.026853474 16:0.10541806 17:-0.24660309 18:-0.18667436 19:-0.62151873 20:0.10767335 21:0.65633243 22:-0.52647138 23:1.8585279 24:-0.3268792 25:0.13879727 26:0.07165841 27:-0.20533921 28:0.36881039 29:0.72278744 30:-0.52399212 31:0.23970811 32:0.33574161 33:0.72724146 34:0.39414352 35:-0.12312956 36:-0.54021037 37:0.20795074 38:-0.17980289 39:0.046228066 40:-0.028886933 41:0.13362364 42:0.11329491 44:-0.09734156 45:0.13650279 46:-0.49098083 #
