SVM-light Version V6.20
0 # kernel type
3 # kernel parameter -d 
1 # kernel parameter -g 
1 # kernel parameter -s 
1 # kernel parameter -r 
empty# kernel parameter -u 
47 # highest feature index 
65 # number of training documents 
2 # number of support vectors plus 1 
0 # threshold b, each following line is a SV (starting with alpha*y)
1 1:-0.25706539 2:0.12097773 3:0.54767591 4:-0.038175914 5:-0.30231032 11:0.13577837 12:-0.024408057 13:0.081981726 14:-0.22627866 15:-0.020338209 16:0.16779239 17:-0.29675704 18:-0.093393855 19:-0.55746174 20:0.17731379 21:-0.60008085 22:-0.26540205 23:1.1250445 24:0.19076851 25:0.41059563 26:-0.31151009 27:-0.19529569 28:0.52242625 29:0.13577464 30:-0.66329342 31:-0.32368967 32:0.51424539 33:0.33445495 34:0.017420571 35:0.55660892 36:-0.43578658 37:0.66166979 38:-0.39113551 39:0.84023547 40:0.01897216 41:-0.16670506 42:0.32744956 44:-0.24234591 45:0.34182075 46:-0.22620016 #
