SVM-light Version V6.20
0 # kernel type
3 # kernel parameter -d 
1 # kernel parameter -g 
1 # kernel parameter -s 
1 # kernel parameter -r 
empty# kernel parameter -u 
47 # highest feature index 
67 # number of training documents 
2 # number of support vectors plus 1 
0 # threshold b, each following line is a SV (starting with alpha*y)
1 1:-0.2197767 2:-0.21297863 3:-0.64591146 4:-0.096862622 5:-0.29611072 11:0.18157101 12:-0.16635756 13:1.390473 14:-0.93005741 15:-0.061949812 16:0.19079635 17:-0.20840394 18:-0.40103137 19:-0.72679704 20:0.20252265 21:0.21115564 22:-0.243926 23:1.1841204 24:-0.41490436 25:0.18533446 26:0.049811788 27:-0.074561253 28:0.4616428 29:-0.3470853 30:-0.32402745 31:-0.003069326 32:0.30403367 33:1.0608975 34:-0.47411218 35:0.36190447 36:0.15232624 37:0.049610961 38:0.19651251 39:0.71984011 40:0.3179653 41:0.11461242 42:0.13715285 44:0.035250004 45:0.12510863 46:0.077090852 #
