SVM-light Version V6.20
0 # kernel type
3 # kernel parameter -d 
1 # kernel parameter -g 
1 # kernel parameter -s 
1 # kernel parameter -r 
empty# kernel parameter -u 
47 # highest feature index 
64 # number of training documents 
2 # number of support vectors plus 1 
0 # threshold b, each following line is a SV (starting with alpha*y)
1 1:-0.23650609 2:-0.090974465 3:0.84297943 4:-0.8634221 5:-0.20527381 11:-0.0053854994 12:0.19227292 13:-0.27139089 14:0.35699174 15:0.22053359 16:0.12638043 17:-0.040832043 18:-0.33438098 19:-0.41767168 20:0.13571887 21:-0.32858661 22:0.33809298 23:1.6634673 24:0.23471597 25:-0.015643243 26:-0.92382294 27:0.092551336 28:1.1026784 29:0.079816185 30:-0.47483069 31:-0.061303198 32:0.52060723 33:0.054306593 34:0.074271455 35:0.76598185 36:-0.31305993 37:0.12770447 38:-0.55735391 39:0.8250367 40:-0.073852681 41:-0.015771916 42:-0.16621955 44:-0.16081157 45:0.080569282 46:-0.32829702 #
