SVM-light Version V6.20
0 # kernel type
3 # kernel parameter -d 
1 # kernel parameter -g 
1 # kernel parameter -s 
1 # kernel parameter -r 
empty# kernel parameter -u 
47 # highest feature index 
61 # number of training documents 
2 # number of support vectors plus 1 
0 # threshold b, each following line is a SV (starting with alpha*y)
1 1:-0.14609529 2:-0.36434892 3:0.044859681 4:-0.17061742 5:-0.036898173 11:-0.0072431071 12:-0.12894513 13:0.10716619 14:-0.73608786 15:-0.090497218 16:0.078862168 17:-0.06938909 18:-0.17637809 19:-0.40023184 20:0.083327994 21:0.076884642 22:-1.3196919 23:1.5024694 24:-0.29476866 25:0.090569533 26:-0.37357697 27:0.29341814 28:0.73655963 29:0.51556748 30:-0.33584762 31:-0.17723548 32:0.36360425 33:0.46239966 34:0.15698574 35:0.035762638 36:0.18766016 37:1.025123 38:0.15070379 39:1.0500567 40:0.25980458 41:-0.10593318 42:0.016941946 44:-0.094336048 45:-0.066508971 46:0.0068033752 #
