SVM-light Version V6.20
0 # kernel type
3 # kernel parameter -d 
1 # kernel parameter -g 
1 # kernel parameter -s 
1 # kernel parameter -r 
empty# kernel parameter -u 
47 # highest feature index 
63 # number of training documents 
2 # number of support vectors plus 1 
0 # threshold b, each following line is a SV (starting with alpha*y)
1 1:-0.68770975 2:-0.16205826 3:-0.48780248 4:-0.35640553 5:-0.37800673 11:-0.23150572 12:-1.2121027 13:0.35660845 14:-0.37967622 15:0.014866739 16:-0.24985212 17:0.041920274 18:-0.14375423 19:-0.67816734 20:-0.23915164 21:0.24348983 22:-0.60078466 23:1.1330105 24:1.7341762 25:0.28155404 26:-0.51404923 27:0.17633873 28:0.10052488 29:0.41481018 30:-1.2719687 31:-0.9245891 32:1.9204427 33:-0.16078778 34:0.28915596 35:-0.1670102 36:-0.432702 37:0.44661164 38:-0.51429033 39:1.2589086 40:0.18891063 41:0.17048115 42:-0.28623384 44:-0.64357609 45:-0.4469763 46:-0.26611927 #
