SVM-light Version V6.20
0 # kernel type
3 # kernel parameter -d 
1 # kernel parameter -g 
1 # kernel parameter -s 
1 # kernel parameter -r 
empty# kernel parameter -u 
47 # highest feature index 
62 # number of training documents 
2 # number of support vectors plus 1 
0 # threshold b, each following line is a SV (starting with alpha*y)
1 1:0.29749644 2:-0.68927705 3:-0.078138523 4:-0.75384206 5:0.36338705 11:-0.28469509 12:0.41117316 13:-1.0727084 14:-0.074230954 15:0.040580641 16:-0.17973711 17:-0.20437884 18:0.23038357 19:0.40244842 20:-0.18096079 21:-0.33807251 22:-0.027700173 23:-0.15774456 24:-0.62877285 25:0.49035841 26:-0.76451004 27:0.58188623 28:0.038165785 29:0.99318528 30:-0.39127851 31:-0.64366037 32:1.2060362 33:0.67716634 34:0.0027663924 35:-0.088218123 36:0.058847949 37:0.60887426 38:0.87508196 39:1.1206151 40:-0.20831721 41:-0.0795037 42:-0.36804017 44:-0.1283111 45:-0.36034811 46:0.01762132 #
