SVM-light Version V6.20
0 # kernel type
3 # kernel parameter -d 
1 # kernel parameter -g 
1 # kernel parameter -s 
1 # kernel parameter -r 
empty# kernel parameter -u 
47 # highest feature index 
61 # number of training documents 
2 # number of support vectors plus 1 
0 # threshold b, each following line is a SV (starting with alpha*y)
1 1:-0.62249929 2:-0.59631819 3:0.018683342 4:-1.2034427 5:-0.15101916 11:-0.12810346 12:0.15704325 13:0.23568544 14:1.8549051 15:0.44554585 16:0.43087804 17:-0.095136873 18:-0.43284059 19:0.1062004 20:0.48880774 21:-0.73386502 22:0.94458854 23:0.26623422 24:0.049177416 25:-0.33131766 26:0.25028452 27:0.39851895 28:-0.040585726 29:0.51215017 30:-0.37161526 31:0.15722856 32:-0.59279323 33:-0.57821697 34:1.036826 35:-1.4110587 36:0.2772842 37:0.54318273 38:-0.69029063 39:-0.13336693 40:0.64488572 41:-0.17121543 42:-0.38162643 44:-0.53224874 45:0.75941312 46:0.32226622 #
