SVM-light Version V6.20
0 # kernel type
3 # kernel parameter -d 
1 # kernel parameter -g 
1 # kernel parameter -s 
1 # kernel parameter -r 
empty# kernel parameter -u 
47 # highest feature index 
64 # number of training documents 
2 # number of support vectors plus 1 
0 # threshold b, each following line is a SV (starting with alpha*y)
1 1:0.26309633 2:0.9146651 3:-0.79117602 4:-0.41663653 5:0.078292422 11:-0.14975308 12:-0.54948014 13:0.63618028 14:0.38021106 15:-0.10437842 16:0.13934794 17:-0.040312972 18:-0.16296326 19:-1.0651637 20:0.1246729 21:-0.49152803 22:1.9633652 23:0.55082947 24:-1.7895559 25:-0.23090705 26:-0.097978547 27:0.0088541675 28:0.24850611 29:-0.025181189 30:0.91356415 31:0.060808521 32:-0.834602 33:-0.26127043 34:-0.026275562 35:0.87822509 36:-0.53168499 37:-0.0031624257 38:-0.012869709 39:0.47562853 40:0.16067362 41:0.58256483 42:0.82475907 44:-0.0056936024 45:0.41031408 46:-0.22436865 #
