SVM-light Version V6.20
0 # kernel type
3 # kernel parameter -d 
1 # kernel parameter -g 
1 # kernel parameter -s 
1 # kernel parameter -r 
empty# kernel parameter -u 
47 # highest feature index 
66 # number of training documents 
2 # number of support vectors plus 1 
0 # threshold b, each following line is a SV (starting with alpha*y)
1 1:-0.37433302 2:0.21931612 3:-0.044240594 4:-0.34283167 5:-0.16185392 11:0.27386996 12:-0.47863397 13:0.068735257 14:-0.085962936 15:0.15373448 16:0.11394828 17:0.29748845 18:-0.37676874 19:-0.47186583 20:0.13976008 21:-0.4561629 22:-0.16644479 23:1.2976456 24:0.24982266 25:0.51553833 26:-0.5428949 27:-0.20375298 28:0.76983529 29:0.015989989 30:0.2327289 31:-0.11003777 32:0.20972501 33:0.28481129 34:-0.55531722 35:0.72544938 36:-0.0025246185 37:0.58468896 38:-0.017313339 39:0.66631007 40:-0.1935468 41:-0.18071578 42:0.046475116 44:-0.2371133 45:0.14269572 46:0.04720566 #
