SVM-light Version V6.20
0 # kernel type
3 # kernel parameter -d 
1 # kernel parameter -g 
1 # kernel parameter -s 
1 # kernel parameter -r 
empty# kernel parameter -u 
47 # highest feature index 
64 # number of training documents 
2 # number of support vectors plus 1 
0 # threshold b, each following line is a SV (starting with alpha*y)
1 1:-0.054150946 2:0.31631508 3:0.45131952 4:0.18719174 5:0.16072899 11:-0.31725687 12:-0.65173578 13:-0.40745321 14:-0.57239848 15:-0.096328296 16:0.023031583 17:-0.031894077 18:-0.092524245 19:0.010812629 20:0.062104024 21:0.021457495 22:-0.75392169 23:1.5513233 24:-0.0060987785 25:0.69200772 26:-0.67739832 27:0.29965794 28:0.55953503 29:0.59864056 30:-1.0106424 31:-0.4536688 32:1.1372452 33:0.090389803 34:0.58461744 35:-0.44147727 36:0.43364421 37:-0.2818155 38:0.60916322 39:0.42275065 40:-0.13289176 41:-0.027843129 42:0.22726244 44:-0.042077377 45:-0.34102967 46:-0.37596974 #
