SVM-light Version V6.20
0 # kernel type
3 # kernel parameter -d 
1 # kernel parameter -g 
1 # kernel parameter -s 
1 # kernel parameter -r 
empty# kernel parameter -u 
47 # highest feature index 
62 # number of training documents 
2 # number of support vectors plus 1 
0 # threshold b, each following line is a SV (starting with alpha*y)
1 1:0.11938293 2:0.29992083 3:-0.33530864 4:0.4384791 5:-0.21496707 11:0.1818341 12:-0.43420997 13:0.20362173 14:0.59910852 15:-0.25807711 16:0.13300698 17:0.31269762 18:0.08073166 19:-0.31538546 20:0.10109115 21:0.060317121 22:-0.15902093 23:0.00033419594 24:0.74339873 25:0.33568597 26:0.24301378 27:-1.0597512 28:0.66294372 29:0.073933698 30:-0.23210655 31:0.72807652 32:-0.21828893 33:-1.2475451 34:-0.29260328 35:1.1015542 36:-0.47317713 37:0.23234881 38:0.029852439 39:0.43741563 40:0.15038365 41:-0.15156722 42:0.020333182 44:0.38780794 45:-0.28172034 46:-0.31509188 #
