SVM-light Version V6.20
0 # kernel type
3 # kernel parameter -d 
1 # kernel parameter -g 
1 # kernel parameter -s 
1 # kernel parameter -r 
empty# kernel parameter -u 
47 # highest feature index 
65 # number of training documents 
2 # number of support vectors plus 1 
0 # threshold b, each following line is a SV (starting with alpha*y)
1 1:-0.083234064 2:-0.48417377 3:0.11039368 4:-0.50741136 5:-0.11378339 11:0.041162606 12:0.47739318 13:0.38194734 14:-0.38530707 15:-0.25344011 16:0.16613266 17:0.056549668 18:-0.42236534 19:-0.60292333 20:0.18252681 21:0.34527716 22:0.23620868 23:1.5211885 24:-0.14819956 25:0.16750786 26:-0.30558085 27:0.048477955 28:0.41582987 29:0.13338591 30:-0.26032636 31:-0.19636965 32:0.49833587 33:0.469749 34:-0.14791943 35:0.66282856 36:-0.11850832 37:0.112339 38:-0.33838207 39:0.4611707 40:-0.078036897 41:0.1271233 42:-0.055413537 44:-0.094988845 45:0.080669157 46:-0.014670853 #
