SVM-light Version V6.20
0 # kernel type
3 # kernel parameter -d 
1 # kernel parameter -g 
1 # kernel parameter -s 
1 # kernel parameter -r 
empty# kernel parameter -u 
47 # highest feature index 
67 # number of training documents 
2 # number of support vectors plus 1 
0 # threshold b, each following line is a SV (starting with alpha*y)
1 1:0.22380508 2:-0.46054822 3:-0.46271697 4:-0.22351849 5:0.26830268 11:-0.077058412 12:-0.32152802 13:0.77415138 14:-0.34980503 15:-0.12884068 16:-0.12114057 17:0.192177 18:-0.10154685 19:-0.54556811 20:-0.12970918 21:0.33495492 22:-0.21473639 23:1.297132 24:-0.77982253 25:0.23217022 26:-0.9507423 27:0.44144344 28:1.2850958 29:0.030975118 30:-0.24976683 31:0.31338811 32:-0.096013092 33:0.53171962 34:0.14433105 35:-0.42419997 36:0.70367736 37:0.0041095051 38:0.74042857 39:0.29014042 40:-0.16707888 41:-0.2618084 42:0.42038828 44:0.24249698 45:-0.18597828 46:0.35298318 #
