SVM-light Version V6.20
0 # kernel type
3 # kernel parameter -d 
1 # kernel parameter -g 
1 # kernel parameter -s 
1 # kernel parameter -r 
empty# kernel parameter -u 
47 # highest feature index 
62 # number of training documents 
2 # number of support vectors plus 1 
0 # threshold b, each following line is a SV (starting with alpha*y)
1 1:-0.085374653 2:-0.51530653 3:0.50279188 4:-0.80426562 5:0.033149939 11:0.29670164 12:-0.1651886 13:-0.67185146 14:0.044366959 15:0.37408924 16:-0.13335206 17:0.11783177 18:0.1488121 19:-0.044876859 20:-0.11142704 21:-0.36440945 22:0.1355488 23:1.5496563 24:1.159268 25:0.38761514 26:-1.1166972 27:0.43913615 28:1.0299544 29:0.65011412 30:-0.27166614 31:-0.089814335 32:0.60003692 33:0.75810248 34:0.125221 35:1.0566844 36:-0.95543474 37:-0.40313086 38:-1.4525095 39:-0.015417069 40:0.32753462 41:-0.25996187 42:-0.018608389 44:-0.02338678 45:0.12075816 46:-0.67401975 #
