SVM-light Version V6.20
0 # kernel type
3 # kernel parameter -d 
1 # kernel parameter -g 
1 # kernel parameter -s 
1 # kernel parameter -r 
empty# kernel parameter -u 
47 # highest feature index 
65 # number of training documents 
2 # number of support vectors plus 1 
0 # threshold b, each following line is a SV (starting with alpha*y)
1 1:0.38546905 2:-0.3637608 3:0.36641729 4:-0.48404932 5:0.42030534 11:-0.2757239 12:0.16213097 13:-0.16144632 14:0.34911621 15:-0.22946382 16:-0.30283388 17:-0.042186752 18:0.11190931 19:0.044013903 20:-0.28991649 21:-0.16993909 22:-0.49536756 23:0.77917081 24:0.11430122 25:0.14555007 26:0.16837607 27:0.31196713 28:0.25533971 29:0.30473274 30:-0.67359102 31:0.37807924 32:-0.014095835 33:-0.18136783 34:0.5642249 35:-0.63520575 36:0.20496649 37:0.10461303 38:-0.14826711 39:0.61956447 40:0.48372003 41:-0.11343294 42:-0.4000845 44:-0.057061713 45:0.057593707 46:-0.21532914 #
