SVM-light Version V6.20
0 # kernel type
3 # kernel parameter -d 
1 # kernel parameter -g 
1 # kernel parameter -s 
1 # kernel parameter -r 
empty# kernel parameter -u 
47 # highest feature index 
60 # number of training documents 
2 # number of support vectors plus 1 
0 # threshold b, each following line is a SV (starting with alpha*y)
1 1:-0.42732418 2:0.02158046 3:-0.34320897 4:-0.98869926 5:-0.10949727 11:-0.32365724 12:-0.96691483 13:0.15792976 14:0.3062166 15:-0.11330398 16:-0.39052391 17:-0.1938196 18:-0.21681659 19:-0.85547429 20:-0.38297576 21:0.42187789 22:-1.1860205 23:1.4843396 24:1.2168791 25:0.18189508 26:-0.84642571 27:0.361408 28:0.32998949 29:0.18689582 30:-1.2066314 31:-0.55943924 32:2.0092177 33:-0.21196948 34:0.40086812 35:-0.38146278 36:0.040332668 37:0.45658815 38:-0.5134387 39:1.1402352 40:1.0026727 41:0.32659653 42:-0.516132 44:-0.52430373 45:-0.5042634 46:-0.22138979 #
