SVM-light Version V6.20
0 # kernel type
3 # kernel parameter -d 
1 # kernel parameter -g 
1 # kernel parameter -s 
1 # kernel parameter -r 
empty# kernel parameter -u 
47 # highest feature index 
60 # number of training documents 
2 # number of support vectors plus 1 
0 # threshold b, each following line is a SV (starting with alpha*y)
1 1:-0.21900813 2:-0.37784791 3:0.43710583 4:0.11970644 5:-0.3366825 11:0.12581867 12:0.074047506 13:-0.2705954 14:0.28673068 15:-0.036406331 16:0.34566784 17:-0.35552683 18:0.29207873 19:-0.17070498 20:0.37199768 21:0.1149503 22:0.39535636 23:0.3479515 24:0.47167349 25:-0.40967923 26:1.4533851 27:-0.19726825 28:-0.3396807 29:0.24656957 30:0.12162928 31:-0.28250292 32:-0.228158 33:0.079150148 34:-0.4518972 35:-0.47420955 36:0.73949975 37:0.17184204 38:-0.50262904 39:0.32872081 40:-0.20896181 41:-0.011651231 42:-0.49881607 44:-0.24235685 45:-0.29403129 46:-0.39903402 #
