SVM-light Version V6.20
0 # kernel type
3 # kernel parameter -d 
1 # kernel parameter -g 
1 # kernel parameter -s 
1 # kernel parameter -r 
empty# kernel parameter -u 
47 # highest feature index 
65 # number of training documents 
2 # number of support vectors plus 1 
0 # threshold b, each following line is a SV (starting with alpha*y)
1 1:0.091056071 2:-0.033492334 3:-0.075048245 4:0.5773955 5:0.16807589 11:0.065977544 12:-0.2832348 13:-0.34772775 14:-0.7125324 15:-0.056021888 16:-0.13393317 17:-0.21335982 18:0.043709975 19:-0.13891788 20:-0.10968175 21:0.089394324 22:0.24165633 23:1.072166 24:-0.31407943 25:0.30331704 26:-0.32672316 27:0.30582073 28:0.54028767 29:0.28955132 30:-0.43550229 31:0.079309627 32:0.81041294 33:0.19470133 34:0.17019534 35:0.25261983 36:-0.35218054 37:0.56151718 38:-0.46100828 39:1.0197719 40:-0.01547323 41:0.070714362 42:-0.70048946 44:-0.022805855 45:-0.15899222 46:-0.12568156 #
