SVM-light Version V6.20
0 # kernel type
3 # kernel parameter -d 
1 # kernel parameter -g 
1 # kernel parameter -s 
1 # kernel parameter -r 
empty# kernel parameter -u 
47 # highest feature index 
62 # number of training documents 
2 # number of support vectors plus 1 
0 # threshold b, each following line is a SV (starting with alpha*y)
1 1:-0.15846378 2:0.85448843 3:-0.19522074 4:-0.62853587 5:0.11332057 11:0.30351216 12:-1.2412124 13:0.11556195 14:0.12630233 15:0.16226253 16:-0.031790022 17:-0.16978057 18:-0.011137185 19:-0.073012128 20:-0.025960635 21:0.197706 22:-0.052617144 23:1.1995522 24:-0.34031221 25:0.31828064 26:-0.51181018 27:-0.16269509 28:1.1650536 29:0.041929629 30:0.29020786 31:0.13738492 32:0.08531864 33:0.64344448 34:-0.0031734866 35:-0.72983706 36:0.41094053 37:-0.057077974 38:0.21627277 39:0.52212065 40:-0.17535233 41:-0.3302522 42:-0.080948144 44:-0.042862259 45:-0.36134708 46:0.067584015 #
