SVM-light Version V6.20
0 # kernel type
3 # kernel parameter -d 
1 # kernel parameter -g 
1 # kernel parameter -s 
1 # kernel parameter -r 
empty# kernel parameter -u 
47 # highest feature index 
65 # number of training documents 
2 # number of support vectors plus 1 
0 # threshold b, each following line is a SV (starting with alpha*y)
1 1:0.34285197 2:-0.076695442 3:0.44623235 4:-0.10861083 5:0.2378992 11:0.43646392 12:-0.24843681 13:-0.32650179 14:-0.46016312 15:-0.073284313 16:-0.41037691 17:0.12119801 18:0.12710762 19:-0.19069456 20:-0.41483408 21:0.099391773 22:-0.077898182 23:1.0827937 24:0.51847792 25:0.32627562 26:-0.63471949 27:0.68712443 28:0.19730282 29:0.38503936 30:0.2153378 31:-0.37057409 32:0.2285876 33:0.075578116 34:0.42970794 35:0.43522206 36:-0.53927171 37:0.040799513 38:-0.82546294 39:0.59455216 40:-0.058083639 41:-0.20417517 42:-0.017627047 44:-0.16031753 45:-0.21721433 46:-0.17927544 #
