SVM-light Version V6.20
0 # kernel type
3 # kernel parameter -d 
1 # kernel parameter -g 
1 # kernel parameter -s 
1 # kernel parameter -r 
empty# kernel parameter -u 
47 # highest feature index 
61 # number of training documents 
2 # number of support vectors plus 1 
0 # threshold b, each following line is a SV (starting with alpha*y)
1 1:-0.43286353 2:-0.3007963 3:-0.18094882 4:-0.81235451 5:-0.22371419 11:-0.090044275 12:0.11539637 13:-0.37120092 14:0.25388333 15:0.058082614 16:0.0042338516 17:-0.58446574 18:0.10644006 19:-0.52525574 20:0.018085219 21:0.31625408 22:-0.2616739 23:2.4252179 24:0.66579103 25:0.55425739 26:-0.93492281 27:0.15829115 28:0.71935356 29:0.91346526 30:-0.64954036 31:-0.58359653 32:1.1015241 33:0.12577237 34:-0.26633009 35:0.49418929 36:-0.21256165 37:0.2097702 38:-0.5409013 39:1.3193978 40:0.067625463 41:0.054889817 42:-0.49731976 44:-0.024840094 45:-0.63992912 46:-0.47849321 #
