SVM-light Version V6.20
0 # kernel type
3 # kernel parameter -d 
1 # kernel parameter -g 
1 # kernel parameter -s 
1 # kernel parameter -r 
empty# kernel parameter -u 
47 # highest feature index 
63 # number of training documents 
2 # number of support vectors plus 1 
0 # threshold b, each following line is a SV (starting with alpha*y)
1 1:-0.58639371 2:0.012861615 3:-0.12094709 4:-1.1631558 5:-0.2798847 11:-0.23287921 12:-0.42966014 13:-0.28028938 14:0.42675611 15:0.093261056 16:-0.13146479 17:-0.46608603 18:-0.14475988 19:-0.56714767 20:-0.11196756 21:0.52798998 22:0.41627637 23:2.1877081 24:0.88589501 25:0.5421136 26:-0.89244318 27:0.18192951 28:0.57941526 29:0.69689304 30:-0.76231933 31:-0.68878406 32:1.0985261 33:0.1089755 34:-0.25953022 35:0.26691815 36:-0.15459973 37:-0.018772401 38:-0.79106307 39:0.93304485 40:-0.14854343 41:-0.016438048 42:-0.37731367 44:-0.14963928 45:-0.66911882 46:-0.6025275 #
