SVM-light Version V6.20
0 # kernel type
3 # kernel parameter -d 
1 # kernel parameter -g 
1 # kernel parameter -s 
1 # kernel parameter -r 
empty# kernel parameter -u 
47 # highest feature index 
68 # number of training documents 
2 # number of support vectors plus 1 
0 # threshold b, each following line is a SV (starting with alpha*y)
1 1:-0.038332399 2:0.53745395 3:0.17052376 4:-0.48172626 5:0.087594718 11:0.18975161 12:-0.58678287 13:-0.77042049 14:-0.04692699 15:0.04780462 16:-0.26827979 17:-0.075730823 18:0.04547897 19:-0.14013669 20:-0.26229391 21:0.57148319 22:0.17007668 23:0.49219289 24:-0.54374266 25:-0.32186908 26:-0.59199989 27:0.25027069 28:0.69474667 29:0.53729022 30:-0.16326934 31:0.40582219 32:0.080077492 33:0.71431923 34:0.45310441 35:-0.20371167 36:-0.39668709 37:-0.11934347 38:-0.02696508 39:0.76915252 40:0.08735311 41:-0.31957665 42:-0.055695847 44:-0.021651408 45:-0.23972557 46:-0.17196383 #
