SVM-light Version V6.20
0 # kernel type
3 # kernel parameter -d 
1 # kernel parameter -g 
1 # kernel parameter -s 
1 # kernel parameter -r 
empty# kernel parameter -u 
47 # highest feature index 
65 # number of training documents 
2 # number of support vectors plus 1 
0 # threshold b, each following line is a SV (starting with alpha*y)
1 1:-0.040664621 2:0.9623608 3:-0.088737145 4:-0.42025527 5:0.016882261 11:0.20762081 12:-1.0725856 13:-0.39942431 14:-0.37987468 15:0.11493354 16:-0.16331133 17:-0.033272568 18:-0.0032993979 19:-0.038720869 20:-0.14918256 21:0.43500343 22:0.24191296 23:1.1097698 24:-0.46576962 25:0.23038907 26:-0.68549621 27:0.2997022 28:0.80346972 29:0.65133041 30:0.057057437 31:-0.081654705 32:0.18823692 33:0.77619958 34:0.44576362 35:0.56123191 36:-1.2585022 37:-0.23424494 38:-0.38169959 39:0.5926857 40:0.27814332 41:-0.11914723 42:-0.16153581 44:0.097834066 45:-0.13916312 46:0.041934609 #
