SVM-light Version V6.20
0 # kernel type
3 # kernel parameter -d 
1 # kernel parameter -g 
1 # kernel parameter -s 
1 # kernel parameter -r 
empty# kernel parameter -u 
47 # highest feature index 
62 # number of training documents 
2 # number of support vectors plus 1 
0 # threshold b, each following line is a SV (starting with alpha*y)
1 1:-0.7559101 2:0.28385562 3:-0.37943116 4:-1.259647 5:-0.40531433 11:-0.22274305 12:-0.48756963 13:0.48381504 14:-0.11008365 15:0.023852447 16:0.011587067 17:-0.36964491 18:-0.58136433 19:-1.064111 20:0.0099213803 21:0.91229302 22:-1.2852485 23:1.9568665 24:0.23528703 25:-0.13727646 26:-0.58506161 27:-0.17443641 28:0.19447252 29:-0.08427792 30:-0.63785988 31:-0.0067955521 32:1.0263202 33:0.17042246 34:-0.057876393 35:0.52461517 36:0.067689344 37:0.12426049 38:-0.4573257 39:1.1335136 40:1.422278 41:0.10528633 42:-0.59996068 44:-0.31124151 45:-0.18654783 46:-0.26970878 #
