SVM-light Version V6.20
0 # kernel type
3 # kernel parameter -d 
1 # kernel parameter -g 
1 # kernel parameter -s 
1 # kernel parameter -r 
empty# kernel parameter -u 
47 # highest feature index 
62 # number of training documents 
2 # number of support vectors plus 1 
0 # threshold b, each following line is a SV (starting with alpha*y)
1 1:-0.25925171 2:-0.10185238 3:0.33770406 4:-0.38385823 5:-0.26806203 11:-0.052234374 12:0.0098269861 13:0.19210076 14:-0.57677311 15:-0.095292889 16:0.37645769 17:-0.20695853 18:-0.54061502 19:-0.46874946 20:0.37759838 21:-0.064641312 22:-0.23865788 23:1.4710733 24:-0.35113814 25:0.15388964 26:-0.067438617 27:0.10633978 28:0.13169895 29:0.36454976 30:-0.2165838 31:0.052838713 32:-0.13277425 33:0.68543106 34:0.022775855 35:0.35779551 36:-0.19400057 37:0.65377361 38:-0.1612886 39:1.2303201 40:0.23649442 41:0.040571965 42:-0.25445127 44:-0.099909984 45:0.056617286 46:0.071677387 #
