SVM-light Version V6.20
0 # kernel type
3 # kernel parameter -d 
1 # kernel parameter -g 
1 # kernel parameter -s 
1 # kernel parameter -r 
empty# kernel parameter -u 
47 # highest feature index 
61 # number of training documents 
2 # number of support vectors plus 1 
0 # threshold b, each following line is a SV (starting with alpha*y)
1 1:0.037293855 2:0.38409632 3:1.4997649 4:0.38011357 5:-0.16026966 11:0.20515394 12:0.49534222 13:-1.3578275 14:-0.59337801 15:-0.41649312 16:-0.12638468 17:-0.3399424 18:-0.46649757 19:0.18372221 20:-0.17286402 21:-0.31333378 22:-0.021017492 23:0.34391814 24:0.015973687 25:-0.37036705 26:0.27757949 27:-0.54406226 28:0.45352209 29:-0.54485202 30:-0.92329973 31:0.52734083 32:0.88285899 33:0.44912669 34:-0.40259132 35:0.42424503 36:0.13841297 37:0.74609858 38:-0.21148089 39:0.31958681 40:0.20010667 41:-0.54158354 42:-0.30881578 44:-0.18114306 45:-0.26220909 46:0.26225564 #
