SVM-light Version V6.20
0 # kernel type
3 # kernel parameter -d 
1 # kernel parameter -g 
1 # kernel parameter -s 
1 # kernel parameter -r 
empty# kernel parameter -u 
47 # highest feature index 
62 # number of training documents 
2 # number of support vectors plus 1 
0 # threshold b, each following line is a SV (starting with alpha*y)
1 1:-0.3540169 2:1.3746649 3:0.12735689 4:0.03246776 5:-0.040885899 11:-0.1057842 12:-1.2148565 13:-0.29152691 14:-0.78553438 15:0.55963969 16:-0.088739052 17:0.077113263 18:-0.26550594 19:-0.66873324 20:-0.070729546 21:0.60552245 22:-0.33361864 23:0.27495459 24:0.16514048 25:0.087154545 26:-0.92954969 27:-0.045224611 28:0.87810004 29:-0.054296061 30:-0.29768518 31:-0.35827887 32:1.1261066 33:0.26922679 34:0.10058135 35:0.56139058 36:-0.32691938 37:-0.09852773 38:0.31425241 39:0.74691528 40:-0.16125345 41:0.20837604 42:0.32079494 44:0.11333252 45:-0.64019692 46:0.24389195 #
