SVM-light Version V6.20
0 # kernel type
3 # kernel parameter -d 
1 # kernel parameter -g 
1 # kernel parameter -s 
1 # kernel parameter -r 
empty# kernel parameter -u 
47 # highest feature index 
60 # number of training documents 
2 # number of support vectors plus 1 
0 # threshold b, each following line is a SV (starting with alpha*y)
1 1:-0.52515638 2:0.16454506 3:0.83207494 4:-1.228274 5:-0.43983293 11:0.021270795 12:-1.0684084 13:-0.70407629 14:-0.11148436 15:0.0052175508 16:0.0021259503 17:-0.2692942 18:-0.19139171 19:-0.051950555 20:-0.02038729 21:-0.028616209 22:0.24636123 23:0.74403304 24:0.40397289 25:0.44451681 26:-0.60965711 27:-0.02681146 28:-0.049588088 29:0.23946217 30:-0.43985292 31:0.50960982 32:-0.37086326 33:0.36517885 34:0.054753251 35:-0.5557614 36:-0.45695379 37:0.17827767 38:0.29449987 39:0.64657831 40:1.0009379 41:-0.18395288 42:-0.61691844 44:-0.54826254 45:0.36417827 46:0.12337874 #
