SVM-light Version V6.20
0 # kernel type
3 # kernel parameter -d 
1 # kernel parameter -g 
1 # kernel parameter -s 
1 # kernel parameter -r 
empty# kernel parameter -u 
47 # highest feature index 
64 # number of training documents 
2 # number of support vectors plus 1 
0 # threshold b, each following line is a SV (starting with alpha*y)
1 1:0.045839574 2:-0.1451045 3:0.030241 4:0.37573043 5:-0.0013049747 11:0.087580375 12:0.080672763 13:-0.53090024 14:-1.0457739 15:-0.20052209 16:-0.12375913 17:-0.29298577 18:-0.19894648 19:0.60229599 20:-0.09896446 21:0.71795547 22:-0.44030753 23:0.37591097 24:0.28661746 25:0.1749749 26:-0.84498537 27:0.56719929 28:0.4576351 29:0.33535254 30:-0.21873826 31:0.1304574 32:0.70732725 33:0.57032031 34:0.059846979 35:-0.30104288 36:-0.092499308 37:0.0060813529 38:-0.74263299 39:0.92416632 40:0.24452634 41:-0.38148579 42:-0.39192936 44:0.057565723 45:0.10581753 46:0.074650921 #
