SVM-light Version V6.20
0 # kernel type
3 # kernel parameter -d 
1 # kernel parameter -g 
1 # kernel parameter -s 
1 # kernel parameter -r 
empty# kernel parameter -u 
47 # highest feature index 
66 # number of training documents 
2 # number of support vectors plus 1 
0 # threshold b, each following line is a SV (starting with alpha*y)
1 1:0.04851491 2:0.0078623481 3:0.74732554 4:0.53211063 5:0.40600786 11:-0.17765452 12:-0.25433603 13:-0.23614711 14:-0.73567486 15:0.14127123 16:-0.25923139 17:-0.10600191 18:-0.021314155 19:-0.41342428 20:-0.24347588 21:0.39273202 22:-0.17886172 23:0.6719234 24:0.32241264 25:0.70062822 26:0.44534877 27:-0.43083656 28:-0.40268973 29:0.46017689 30:-0.33501321 31:-0.3076548 32:0.18050778 33:-0.066022567 34:-0.42668733 35:0.64884025 36:-0.034750137 37:-0.24674042 38:-0.63595074 39:0.77699172 40:0.30668366 41:0.279405 42:0.13408794 44:0.34648457 45:0.042800933 46:-0.4702886 #
