SVM-light Version V6.20
0 # kernel type
3 # kernel parameter -d 
1 # kernel parameter -g 
1 # kernel parameter -s 
1 # kernel parameter -r 
empty# kernel parameter -u 
47 # highest feature index 
66 # number of training documents 
2 # number of support vectors plus 1 
0 # threshold b, each following line is a SV (starting with alpha*y)
1 1:-0.45624107 2:-0.12238996 3:0.14419362 4:-0.54773533 5:-0.21554112 11:0.41930127 12:0.063334353 13:-0.19920306 14:0.90495825 15:0.29083619 16:0.10540953 17:-0.35278833 18:-0.28849116 19:-0.38212779 20:0.099923834 21:0.67503142 22:-0.0063098934 23:0.83734709 24:0.088903919 25:0.48354656 26:-0.71316046 27:0.30215222 28:0.3293927 29:-0.11118632 30:-0.082836673 31:0.081366383 32:0.58268034 33:-0.32558268 34:-0.61504585 35:0.037504934 36:0.57623744 37:-0.53919894 38:-0.67655694 39:0.68086457 40:0.50090808 41:-0.22129329 42:-0.21795057 44:-0.064490803 45:-0.13811135 46:-0.10687501 #
