SVM-light Version V6.20
0 # kernel type
3 # kernel parameter -d 
1 # kernel parameter -g 
1 # kernel parameter -s 
1 # kernel parameter -r 
empty# kernel parameter -u 
47 # highest feature index 
60 # number of training documents 
2 # number of support vectors plus 1 
0 # threshold b, each following line is a SV (starting with alpha*y)
1 1:-0.35977784 2:-0.25318226 3:0.46159104 4:0.0032293424 5:-0.25831771 11:0.084953733 12:-0.28652063 13:-0.44550228 14:-0.12436291 15:0.0049093948 16:0.20527217 17:0.11754209 18:-0.30474377 19:-0.26389378 20:0.21302289 21:0.30630064 22:-0.61143011 23:1.8829283 24:0.20387061 25:0.53442931 26:-0.34541553 27:0.39549118 28:0.5396359 29:0.21200825 30:-0.33657512 31:0.10083547 32:0.55101609 33:0.046151754 34:0.19093744 35:0.064802885 36:-0.21366477 37:0.17489733 38:-0.16775544 39:0.91632628 40:0.018083977 41:0.031485491 42:-0.17173502 44:0.26475295 45:-0.58107728 46:-0.21527418 #
