SVM-light Version V6.20
0 # kernel type
3 # kernel parameter -d 
1 # kernel parameter -g 
1 # kernel parameter -s 
1 # kernel parameter -r 
empty# kernel parameter -u 
47 # highest feature index 
61 # number of training documents 
2 # number of support vectors plus 1 
0 # threshold b, each following line is a SV (starting with alpha*y)
1 1:-0.12835254 2:-0.12692925 3:0.15727779 4:0.040816434 5:-0.32456139 11:0.22512007 12:-0.48806715 13:-0.029595559 14:-0.65003157 15:-0.20758544 16:0.17133299 17:0.073475674 18:-0.25710896 19:-0.14963953 20:0.18154706 21:0.71487534 22:-0.59160626 23:1.910369 24:-0.096851975 25:0.19303197 26:-0.61909747 27:0.36421615 28:0.92463231 29:0.43819514 30:-0.024361858 31:-0.38885131 32:0.49063757 33:0.38367543 34:0.13294066 35:0.29278013 36:-0.36391771 37:0.49381036 38:-0.76258552 39:1.0278649 40:0.10526829 41:-0.025662271 42:-0.21572021 44:-0.055685095 45:0.003441111 46:-0.060271516 #
