SVM-light Version V6.20
0 # kernel type
3 # kernel parameter -d 
1 # kernel parameter -g 
1 # kernel parameter -s 
1 # kernel parameter -r 
empty# kernel parameter -u 
47 # highest feature index 
62 # number of training documents 
2 # number of support vectors plus 1 
0 # threshold b, each following line is a SV (starting with alpha*y)
1 1:-0.54120582 2:0.65761548 3:0.2303914 4:-0.72509205 5:-0.41332784 11:-0.092278793 12:-0.5588119 13:0.061330002 14:-0.61256826 15:-0.36209032 16:0.26280308 17:0.017511573 18:0.13644099 19:1.5401788 20:0.23621882 21:0.52307117 22:-0.32540682 23:0.33361122 24:0.36735407 25:-0.31874463 26:0.23222528 27:-0.65730631 28:0.69154 29:-0.34732693 30:-0.88628459 31:0.37873703 32:0.44941273 33:1.3695945 34:0.49556336 35:0.12743621 36:-0.48233423 37:0.18204226 38:-1.264937 39:-0.033495042 40:0.31674549 41:-0.89858294 42:-0.43187377 44:-0.10471065 45:-0.34382433 46:0.094524406 #
