SVM-light Version V6.20
0 # kernel type
3 # kernel parameter -d 
1 # kernel parameter -g 
1 # kernel parameter -s 
1 # kernel parameter -r 
empty# kernel parameter -u 
47 # highest feature index 
62 # number of training documents 
2 # number of support vectors plus 1 
0 # threshold b, each following line is a SV (starting with alpha*y)
1 1:0.014608819 2:0.068527713 3:0.35536242 4:0.23538905 5:-0.070627369 11:0.16080616 12:-0.83278477 13:0.035457913 14:-0.38534895 15:0.0168075 16:-0.13647139 17:-0.025524558 18:-0.49379793 19:-0.73883122 20:-0.11274384 21:-0.2032593 22:-0.1958123 23:-0.21660404 24:-0.010273134 25:0.45459911 26:-0.4336108 27:0.37711877 28:0.071383856 29:0.34658888 30:-0.079348654 31:0.56531245 32:-0.79783982 33:-0.54263574 34:0.11913865 35:0.10124698 36:-0.20033471 37:0.71327758 38:1.1019883 39:0.15742043 40:-0.23429517 41:0.0075678341 42:0.42968637 44:-0.058690105 45:0.038238361 46:0.20001046 #
