SVM-light Version V6.20
0 # kernel type
3 # kernel parameter -d 
1 # kernel parameter -g 
1 # kernel parameter -s 
1 # kernel parameter -r 
empty# kernel parameter -u 
47 # highest feature index 
62 # number of training documents 
2 # number of support vectors plus 1 
0 # threshold b, each following line is a SV (starting with alpha*y)
1 1:-0.378856 2:0.17073061 3:0.068091474 4:-0.59303892 5:-0.30077675 11:-0.059840165 12:-0.10175381 13:0.61912555 14:-0.51890653 15:-0.0086428653 16:0.49614516 17:-0.17413391 18:-0.31457677 19:-0.69073504 20:0.49959287 21:-0.15819763 22:0.4039301 23:1.4685423 24:0.088412181 25:0.24786554 26:-0.40295854 27:-0.055647112 28:0.48814914 29:-0.13113652 30:-0.43511662 31:-0.051247604 32:0.59608656 33:0.66752195 34:-0.0089815203 35:0.42461002 36:-0.030279603 37:0.23305279 38:-0.038295247 39:0.9673422 40:-0.31044766 41:-0.058149252 42:0.041020215 44:0.056132205 45:-0.052685022 46:-0.11624507 #
