SVM-light Version V6.20
0 # kernel type
3 # kernel parameter -d 
1 # kernel parameter -g 
1 # kernel parameter -s 
1 # kernel parameter -r 
empty# kernel parameter -u 
47 # highest feature index 
63 # number of training documents 
2 # number of support vectors plus 1 
0 # threshold b, each following line is a SV (starting with alpha*y)
1 1:-0.33429277 2:0.43080857 3:-0.0058395844 4:-0.2498778 5:-0.29800707 11:0.32261339 12:-1.1506518 13:0.029154118 14:0.18654768 15:-0.040675521 16:0.063498273 17:0.5831669 18:0.15717641 19:-0.60668832 20:0.043422252 21:0.67288321 22:-0.037906926 23:1.2744954 24:-0.1933139 25:0.53512353 26:-0.3773804 27:0.46658799 28:0.23152322 29:0.16722922 30:0.15640229 31:-0.73206091 32:0.83869588 33:0.25958028 34:-0.73737913 35:-0.37387249 36:1.0878812 37:-0.57941943 38:0.22799008 39:0.46031711 40:-0.43635687 41:0.39581966 42:0.12974815 44:-0.23439059 45:-0.13281363 46:-0.2435994 #
