SVM-light Version V6.20
0 # kernel type
3 # kernel parameter -d 
1 # kernel parameter -g 
1 # kernel parameter -s 
1 # kernel parameter -r 
empty# kernel parameter -u 
47 # highest feature index 
65 # number of training documents 
2 # number of support vectors plus 1 
0 # threshold b, each following line is a SV (starting with alpha*y)
1 1:-0.0086082388 2:0.015796116 3:-0.1472275 4:-0.1571954 5:0.21396521 11:-0.36583754 12:0.41446805 13:0.49556166 14:-0.63072067 15:-0.1035138 16:0.14406118 17:-0.14958937 18:-0.42744786 19:0.18459554 20:0.14255811 21:0.20670617 22:0.46665448 23:0.67962164 24:0.18591501 25:0.28372994 26:-0.1288719 27:-1.233181 28:0.38530058 29:-0.63958001 30:-0.61033279 31:0.61364299 32:0.77917296 33:0.61834931 34:-0.084190615 35:0.92380208 36:-0.54354596 37:-0.080826618 38:0.12287391 39:0.48019055 40:-0.34331608 41:-0.31146631 42:-0.042806733 44:0.028464476 45:0.30018485 46:0.21676488 #
