SVM-light Version V6.20
0 # kernel type
3 # kernel parameter -d 
1 # kernel parameter -g 
1 # kernel parameter -s 
1 # kernel parameter -r 
empty# kernel parameter -u 
47 # highest feature index 
63 # number of training documents 
2 # number of support vectors plus 1 
0 # threshold b, each following line is a SV (starting with alpha*y)
1 1:-0.40673417 2:0.60053873 3:0.65214425 4:-0.698614 5:-0.13239327 11:-0.055649675 12:-0.99564779 13:-0.052559782 14:-0.55464941 15:0.38292399 16:0.074512683 17:-0.51259506 18:0.14814293 19:0.36751768 20:0.092202052 21:-0.32701203 22:0.70196712 23:0.61071563 24:-0.76233071 25:0.36756894 26:-0.71247685 27:0.1756084 28:0.89153141 29:-0.10445728 30:0.10258419 31:-0.53444409 32:0.19515955 33:0.89072651 34:-0.27927682 35:0.7859416 36:-0.065366633 37:-0.061936107 38:0.5364334 39:0.29275328 40:0.22503367 41:0.15669563 42:-0.40605852 44:-0.099388286 45:0.83520907 46:-0.47882402 #
