SVM-light Version V6.20
0 # kernel type
3 # kernel parameter -d 
1 # kernel parameter -g 
1 # kernel parameter -s 
1 # kernel parameter -r 
empty# kernel parameter -u 
47 # highest feature index 
66 # number of training documents 
2 # number of support vectors plus 1 
0 # threshold b, each following line is a SV (starting with alpha*y)
1 1:0.24583106 2:0.13108693 3:0.063144132 4:-0.16444731 5:0.23365948 11:0.11125734 12:-0.48782358 13:-0.36478844 14:-0.79786605 15:-0.098713867 16:-0.040596161 17:-0.088238738 18:-0.18259633 19:-0.59377426 20:-0.038978904 21:0.056003012 22:-0.0014396724 23:1.1473494 24:-0.25578284 25:0.13509734 26:-0.72810137 27:0.35336506 28:0.81499779 29:0.0286454 30:0.65336531 31:0.20220131 32:-0.11915885 33:1.1309688 34:-0.49945274 35:0.046531621 36:0.2277725 37:-0.011383277 38:0.20441037 39:0.64657015 40:-0.44280505 41:-0.10468242 42:0.35382208 44:0.21927352 45:-0.30666077 46:-0.088061504 #
