SVM-light Version V6.20
0 # kernel type
3 # kernel parameter -d 
1 # kernel parameter -g 
1 # kernel parameter -s 
1 # kernel parameter -r 
empty# kernel parameter -u 
47 # highest feature index 
62 # number of training documents 
2 # number of support vectors plus 1 
0 # threshold b, each following line is a SV (starting with alpha*y)
1 1:0.27601159 2:-0.40072915 3:0.20736171 4:-0.098926514 5:0.34202766 11:-0.093167678 12:0.68838888 13:-0.34407383 14:0.8055172 15:-0.21340819 16:0.30845824 17:-0.048796818 18:0.28788614 19:0.25844988 20:0.31871113 21:0.30389476 22:0.40332866 23:0.54421359 24:-0.80487341 25:0.31198901 26:-0.023830747 27:0.0073965206 28:-0.26644903 29:0.52705395 30:-0.35802498 31:1.0972595 32:-0.5404079 33:-0.46001694 34:0.16716881 35:0.8256467 36:-1.3576614 37:0.7531597 38:0.45548081 39:-0.50175989 40:-0.39796963 41:-0.25903681 42:0.084136918 44:-0.090452261 45:0.33567363 46:0.17014185 #
