SVM-light Version V6.20
0 # kernel type
3 # kernel parameter -d 
1 # kernel parameter -g 
1 # kernel parameter -s 
1 # kernel parameter -r 
empty# kernel parameter -u 
47 # highest feature index 
67 # number of training documents 
2 # number of support vectors plus 1 
0 # threshold b, each following line is a SV (starting with alpha*y)
1 1:-0.27190116 2:0.0049348585 3:0.46461713 4:-0.078108743 5:-0.31003648 11:0.133076 12:-0.096077599 13:0.15197347 14:-0.29918638 15:-0.16096751 16:0.31790832 17:-0.044148687 18:-0.032300867 19:-0.34395131 20:0.30771661 21:-0.40405869 22:0.97672969 23:1.0310347 24:0.41569874 25:0.12348606 26:0.47282016 27:0.053961825 28:-0.27578729 29:0.46606481 30:-0.51578003 31:-0.014357709 32:0.021470649 33:0.13114703 34:0.12593026 35:0.47851175 36:-0.13924935 37:0.27884489 38:-0.7746523 39:0.87949455 40:-0.50322461 41:0.092756294 42:-0.4259553 44:-0.070031911 45:0.41019338 46:-0.3117564 #
