SVM-light Version V6.20
0 # kernel type
3 # kernel parameter -d 
1 # kernel parameter -g 
1 # kernel parameter -s 
1 # kernel parameter -r 
empty# kernel parameter -u 
47 # highest feature index 
67 # number of training documents 
2 # number of support vectors plus 1 
0 # threshold b, each following line is a SV (starting with alpha*y)
1 1:-0.065350376 2:0.35908836 3:0.58170432 4:-0.75142145 5:-0.11848356 11:-0.08451172 12:-0.33337963 13:-0.59002775 14:0.15487364 15:-0.20409809 16:0.11600621 17:-0.3628113 18:-0.30034113 19:-0.86619341 20:0.14432999 21:0.15805596 22:-0.45217249 23:1.2399769 24:0.80007362 25:0.26915076 26:-0.67116439 27:-0.098619834 28:0.81430644 29:0.2798025 30:0.45132497 31:-0.2639057 32:0.11173484 33:0.62642747 34:-0.14757764 35:-0.15288575 36:0.013586294 37:0.26173118 38:-0.3932704 39:0.2813817 40:-0.19685282 41:-0.082006685 42:0.061533365 44:-0.015731784 45:0.078973584 46:-0.039157242 #
