SVM-light Version V6.20
0 # kernel type
3 # kernel parameter -d 
1 # kernel parameter -g 
1 # kernel parameter -s 
1 # kernel parameter -r 
empty# kernel parameter -u 
47 # highest feature index 
64 # number of training documents 
2 # number of support vectors plus 1 
0 # threshold b, each following line is a SV (starting with alpha*y)
1 1:0.12583713 2:0.48529476 3:-0.43729731 4:0.3972241 5:0.051690541 11:0.29594043 12:-1.8193212 13:1.4136198 14:-0.66626877 15:0.023354428 16:-0.56345105 17:0.93155491 18:0.078636095 19:0.9650957 20:-0.5613246 21:-0.81525338 22:-0.4047592 23:-0.23374595 24:1.186299 25:1.0943813 26:0.8399505 27:-0.048659477 28:-1.0772492 29:0.063640565 30:-0.85450357 31:-0.31976306 32:0.35004896 33:0.14459282 34:0.28655267 35:0.13687466 36:0.06760788 37:-0.25575134 38:-0.62263966 39:0.81225622 40:0.28860012 41:-0.14833812 42:-1.0916021 44:-0.38704512 45:0.059360452 46:-0.39045459 #
