SVM-light Version V6.20
0 # kernel type
3 # kernel parameter -d 
1 # kernel parameter -g 
1 # kernel parameter -s 
1 # kernel parameter -r 
empty# kernel parameter -u 
47 # highest feature index 
63 # number of training documents 
2 # number of support vectors plus 1 
0 # threshold b, each following line is a SV (starting with alpha*y)
1 1:-0.15162098 2:-0.11913853 3:0.2992321 4:-0.43041715 5:0.051987164 11:-0.36158574 12:0.14402911 13:-0.20089027 14:1.5628823 15:-0.052047972 16:0.045629617 17:-0.12778085 18:0.10867941 19:0.00076226972 20:0.0719212 21:0.21555911 22:-0.38329977 23:1.0984485 24:1.0695236 25:-0.32688457 26:0.020085571 27:-0.28587404 28:0.99153465 29:0.30581632 30:-0.27706105 31:0.17510989 32:0.093262918 33:-1.2039365 34:0.27202126 35:0.12827931 36:0.053378038 37:0.24761415 38:-1.4621619 39:0.97608185 40:-0.61322385 41:-0.033116356 42:0.011431478 44:0.064762503 45:-0.30162713 46:-0.39121097 #
