SVM-light Version V6.20
0 # kernel type
3 # kernel parameter -d 
1 # kernel parameter -g 
1 # kernel parameter -s 
1 # kernel parameter -r 
empty# kernel parameter -u 
47 # highest feature index 
62 # number of training documents 
2 # number of support vectors plus 1 
0 # threshold b, each following line is a SV (starting with alpha*y)
1 1:-0.58089811 2:-0.0072433967 3:-0.59865427 4:-1.0330007 5:-0.37600443 11:-0.06969583 12:-0.015021553 13:0.83100617 14:0.1314074 15:0.12516667 16:0.23556258 17:-0.53000325 18:-0.61588079 19:-0.69615191 20:0.23723759 21:0.62383425 22:-1.0668061 23:1.7831128 24:0.064844087 25:-0.14870836 26:-1.0182663 27:0.039754074 28:0.66453457 29:0.18676697 30:-0.48946065 31:-0.5544588 32:1.265121 33:0.28797272 34:-0.17709671 35:0.58573818 36:-0.13415058 37:0.48829573 38:-0.11056287 39:1.179523 40:1.165747 41:0.040610805 42:-0.90081298 44:-0.16870815 45:-0.028204527 46:-0.089724466 #
