SVM-light Version V6.20
0 # kernel type
3 # kernel parameter -d 
1 # kernel parameter -g 
1 # kernel parameter -s 
1 # kernel parameter -r 
empty# kernel parameter -u 
47 # highest feature index 
65 # number of training documents 
2 # number of support vectors plus 1 
0 # threshold b, each following line is a SV (starting with alpha*y)
1 1:0.17363435 2:-0.12404996 3:0.17533346 4:-0.80022562 5:0.0076552662 11:0.40338573 12:-0.69628602 13:-0.23789388 14:0.084614232 15:-0.13065831 16:-0.13021334 17:0.076773077 18:-0.060897294 19:-0.74934214 20:-0.14111647 21:0.15084632 22:0.15637839 23:0.72168839 24:-0.1190357 25:0.11648446 26:0.091837071 27:0.80135781 28:-0.15059862 29:0.36764324 30:-0.72806501 31:0.014849409 32:0.94582218 33:0.78240263 34:-0.40527222 35:0.2018165 36:0.19679321 37:0.33375421 38:0.2111695 39:0.57953483 40:-0.63748896 41:0.30117202 42:0.3991878 44:-0.10499331 45:0.17145628 46:0.055431616 #
