SVM-light Version V6.20
0 # kernel type
3 # kernel parameter -d 
1 # kernel parameter -g 
1 # kernel parameter -s 
1 # kernel parameter -r 
empty# kernel parameter -u 
47 # highest feature index 
66 # number of training documents 
2 # number of support vectors plus 1 
0 # threshold b, each following line is a SV (starting with alpha*y)
1 1:-0.33664873 2:0.79849386 3:0.2382925 4:-0.78457922 5:-0.37790719 11:-0.095161483 12:-0.53363651 13:-0.91159678 14:-0.0050393571 15:-0.1286774 16:0.19395041 17:-0.201031 18:-0.70294899 19:0.71560186 20:0.19900526 21:-0.24401529 22:-1.5949711 23:1.0973113 24:0.68393695 25:-0.29595223 26:0.45782903 27:0.015215949 28:0.18371387 29:0.75530529 30:-0.31814227 31:-0.092405938 32:0.74607509 33:0.87746751 34:-1.0966774 35:-0.19266164 36:1.2120943 37:0.44351816 38:-1.2584525 39:0.56318116 40:0.73651332 41:-0.57432359 42:-0.018012177 44:-0.043193921 45:-0.20771433 46:-0.1026601 #
