SVM-light Version V6.20
0 # kernel type
3 # kernel parameter -d 
1 # kernel parameter -g 
1 # kernel parameter -s 
1 # kernel parameter -r 
empty# kernel parameter -u 
47 # highest feature index 
63 # number of training documents 
2 # number of support vectors plus 1 
0 # threshold b, each following line is a SV (starting with alpha*y)
1 1:-0.40968189 2:0.095750071 3:0.25185251 4:0.37979698 5:-0.030653235 11:-0.25799632 12:-0.22509089 13:-0.47720012 14:-1.2703934 15:-0.13793808 16:-0.034847036 17:-0.037129767 18:-0.39180762 19:-0.15286034 20:-0.01829592 21:-0.3076593 22:-0.44124752 23:0.76086754 24:-0.41169435 25:0.267818 26:-0.087159671 27:-0.76621616 28:0.18530765 29:0.048847165 30:-0.33866417 31:0.41475993 32:0.50618672 33:0.07524927 34:-0.34530103 35:1.1207225 36:0.34500766 37:0.49593136 38:0.89601421 39:0.38062751 40:0.26373157 41:0.028390395 42:-0.26743484 44:-0.21829444 45:0.19569805 46:-0.010525391 #
