SVM-light Version V6.20
0 # kernel type
3 # kernel parameter -d 
1 # kernel parameter -g 
1 # kernel parameter -s 
1 # kernel parameter -r 
empty# kernel parameter -u 
47 # highest feature index 
64 # number of training documents 
2 # number of support vectors plus 1 
0 # threshold b, each following line is a SV (starting with alpha*y)
1 1:0.27947724 2:0.63421142 3:0.78896344 4:-0.13041167 5:0.14154029 11:0.084998734 12:-0.4570511 13:-0.75076026 14:0.48378792 15:-0.316845 16:0.097171612 17:-0.22068058 18:-0.16095798 19:0.62141711 20:0.10486857 21:-0.050057556 22:-1.4988716 23:0.4064292 24:-0.23129678 25:0.25262496 26:0.3203586 27:-0.063455813 28:0.30346626 29:-0.045989148 30:-1.0187356 31:0.26271546 32:0.37940738 33:-0.58970875 34:0.65192348 35:-0.47907183 36:0.1776447 37:0.53244841 38:0.27774203 39:0.21230479 40:0.87082815 41:-0.65848571 42:-0.44857869 44:0.12220644 45:0.59810454 46:-0.35747796 #
