SVM-light Version V6.20
0 # kernel type
3 # kernel parameter -d 
1 # kernel parameter -g 
1 # kernel parameter -s 
1 # kernel parameter -r 
empty# kernel parameter -u 
47 # highest feature index 
65 # number of training documents 
2 # number of support vectors plus 1 
0 # threshold b, each following line is a SV (starting with alpha*y)
1 1:0.23394963 2:-0.62437397 3:-0.021608394 4:-0.093060464 5:0.0056414115 11:0.040807165 12:0.84570992 13:0.34026799 14:-0.37520379 15:-0.28659531 16:0.30602679 17:0.35166386 18:0.40030542 19:-0.48862985 20:0.29675761 21:-0.53565723 22:-0.29468566 23:-0.060326181 24:0.24339795 25:-0.33092773 26:0.28994611 27:0.25919983 28:-0.27933681 29:-0.75768065 30:-0.25700289 31:0.094914593 32:0.72587776 33:0.89167982 34:0.15579036 35:-0.4296993 36:0.42673302 37:0.82430899 38:0.99789256 39:-0.076996379 40:-0.73823476 41:-0.79214609 42:1.3589075 44:-0.13008717 45:-0.60757393 46:0.27700341 #
