SVM-light Version V6.20
0 # kernel type
3 # kernel parameter -d 
1 # kernel parameter -g 
1 # kernel parameter -s 
1 # kernel parameter -r 
empty# kernel parameter -u 
47 # highest feature index 
67 # number of training documents 
2 # number of support vectors plus 1 
0 # threshold b, each following line is a SV (starting with alpha*y)
1 1:-0.040499818 2:1.0538751 3:-0.58633685 4:1.1425409 5:-0.13535294 11:-0.043878093 12:-0.73798275 13:0.77529544 14:-0.87478542 15:-0.38102108 16:-0.15021808 17:-0.14297032 18:-0.089741558 19:0.78291327 20:-0.15645844 21:0.42633209 22:-1.179021 23:0.63677979 24:0.43573001 25:-0.70562249 26:0.38718903 27:0.25147626 28:0.56965727 29:0.40949202 30:-0.41375417 31:-0.27690959 32:-0.14014636 33:-0.84413356 34:0.83397883 35:0.37076366 36:-0.58073759 37:-0.73569077 38:0.25221893 39:0.62058604 40:-0.1361067 41:0.86803281 42:-0.24649577 44:0.43558705 45:-0.35254884 46:-0.15432978 #
