SVM-light Version V6.20
0 # kernel type
3 # kernel parameter -d 
1 # kernel parameter -g 
1 # kernel parameter -s 
1 # kernel parameter -r 
empty# kernel parameter -u 
47 # highest feature index 
65 # number of training documents 
2 # number of support vectors plus 1 
0 # threshold b, each following line is a SV (starting with alpha*y)
1 1:-0.93027508 2:-0.088435471 3:-0.69519091 4:-0.56131524 5:-0.49705279 11:-0.18549061 12:-0.64039576 13:-0.034276459 14:-0.30542666 15:0.31117469 16:-0.12784159 17:-0.10659131 18:0.12163946 19:-0.56057447 20:-0.11059025 21:0.19508737 22:-0.18131419 23:2.1768003 24:0.92527044 25:0.60896468 26:-0.26114982 27:-0.37248912 28:0.51645494 29:0.81503713 30:-1.278769 31:-0.2888391 32:1.1096264 33:0.31960604 34:-0.14488789 35:-0.13764501 36:-0.27568901 37:-0.15717904 38:-0.65074307 39:0.95022756 40:0.18192443 41:-0.066772692 42:-0.41807744 44:-0.36418596 45:-0.72174215 46:-0.60235035 #
