SVM-light Version V6.20
0 # kernel type
3 # kernel parameter -d 
1 # kernel parameter -g 
1 # kernel parameter -s 
1 # kernel parameter -r 
empty# kernel parameter -u 
47 # highest feature index 
66 # number of training documents 
2 # number of support vectors plus 1 
0 # threshold b, each following line is a SV (starting with alpha*y)
1 1:0.19214477 2:-1.0729638 3:-0.049572926 4:0.50523365 5:0.14465804 11:-0.0035434933 12:1.2044605 13:0.78404278 14:1.2641211 15:-0.1808252 16:0.21473791 17:-0.058529537 18:-0.015427716 19:-0.25738746 20:0.20194209 21:-0.7839309 22:0.70844394 23:0.52521616 24:-0.17111228 25:0.062953934 26:0.2488609 27:-0.71735698 28:0.25719586 29:-0.44733343 30:0.31991452 31:0.09551736 32:-0.073496662 33:-1.353922 34:0.39361453 35:-0.29989156 36:-0.16604841 37:-0.17360985 38:0.73913133 39:0.13161929 40:-0.07624571 41:0.057720933 42:0.11667177 44:0.35359693 45:0.39980328 46:-0.17756349 #
