SVM-light Version V6.20
0 # kernel type
3 # kernel parameter -d 
1 # kernel parameter -g 
1 # kernel parameter -s 
1 # kernel parameter -r 
empty# kernel parameter -u 
47 # highest feature index 
61 # number of training documents 
2 # number of support vectors plus 1 
0 # threshold b, each following line is a SV (starting with alpha*y)
1 1:0.22442362 2:0.37039471 3:0.14469421 4:-0.42131224 5:0.044120591 11:-0.090131596 12:0.31894031 13:0.1774559 14:0.21766187 15:-0.17106603 16:0.28264749 17:-0.10617995 18:-0.32372487 19:-0.73278779 20:0.27431199 21:0.22302818 22:1.025391 23:-0.28367037 24:0.018845797 25:-0.55839419 26:-0.43025219 27:-0.47403988 28:0.3913998 29:0.50966042 30:-0.43990415 31:0.29108471 32:-0.23720907 33:0.74220365 34:-0.35999861 35:-0.054534305 36:0.59715301 37:-0.47639775 38:0.079873264 39:-0.6748094 40:0.10013855 41:-0.22189282 42:0.32878435 44:0.049879778 45:0.26120821 46:-0.32392636 #
