SVM-light Version V6.20
0 # kernel type
3 # kernel parameter -d 
1 # kernel parameter -g 
1 # kernel parameter -s 
1 # kernel parameter -r 
empty# kernel parameter -u 
47 # highest feature index 
66 # number of training documents 
2 # number of support vectors plus 1 
0 # threshold b, each following line is a SV (starting with alpha*y)
1 1:-0.36451522 2:0.62555194 3:0.47438717 4:-0.38905713 5:-0.25484043 11:0.015765173 12:-0.96927226 13:-0.70397192 14:-0.22990324 15:0.15651724 16:0.080228522 17:0.08390931 18:-0.12278287 19:0.17258434 20:0.07385058 21:-0.012575838 22:-0.30960658 23:1.1629671 24:-0.24629349 25:0.081548207 26:-0.36498809 27:0.2121529 28:0.76468235 29:0.63858473 30:-0.09945289 31:-0.088081934 32:0.18691514 33:0.60180533 34:-0.24845955 35:0.57779419 36:-0.64698273 37:0.53861421 38:-0.45865759 39:1.1293975 40:-0.14833499 41:-0.073244452 42:-0.312291 44:0.042780582 45:-0.067270227 46:-0.23448719 #
