SVM-light Version V6.20
0 # kernel type
3 # kernel parameter -d 
1 # kernel parameter -g 
1 # kernel parameter -s 
1 # kernel parameter -r 
empty# kernel parameter -u 
47 # highest feature index 
63 # number of training documents 
2 # number of support vectors plus 1 
0 # threshold b, each following line is a SV (starting with alpha*y)
1 1:-0.27700621 2:0.058599181 3:0.23283266 4:-0.013703563 5:-0.15537466 11:-0.071962975 12:-0.21046983 13:-0.31578439 14:-0.021063928 15:0.064855337 16:0.14177182 17:-0.23873366 18:0.021455929 19:-0.44412732 20:0.16529387 21:-0.11573844 22:0.042491108 23:1.5362356 24:0.78197247 25:0.28286183 26:0.047862697 27:0.24381049 28:0.073492981 29:0.47638416 30:-0.23399328 31:0.24192062 32:0.35559103 33:0.090650536 34:-0.1813997 35:0.25059515 36:-0.21686377 37:0.16810375 38:-0.93152028 39:0.9657231 40:-0.31276947 41:0.36999479 42:-0.1057995 44:0.12147047 45:-0.25587046 46:-0.21717462 #
