SVM-light Version V6.20
0 # kernel type
3 # kernel parameter -d 
1 # kernel parameter -g 
1 # kernel parameter -s 
1 # kernel parameter -r 
empty# kernel parameter -u 
47 # highest feature index 
63 # number of training documents 
2 # number of support vectors plus 1 
0 # threshold b, each following line is a SV (starting with alpha*y)
1 1:0.25923118 2:0.065606497 3:-0.20157847 4:-0.076758854 5:-0.10036044 11:0.66134387 12:-0.22524129 13:0.73474753 14:0.27641353 15:-0.20853995 16:-0.41140786 17:0.22082353 18:-0.41885981 19:-0.42762893 20:-0.43535513 21:0.58058691 22:-0.98279881 23:0.89879674 24:0.14915511 25:-0.25882152 26:1.2973198 27:-0.12866928 28:-0.96860534 29:0.37030777 30:0.17128454 31:0.015501558 32:-0.22718145 33:-0.40904638 34:0.89055836 35:0.10842162 36:-0.4664107 37:-0.45008418 38:-0.9860425 39:0.082677364 40:1.381707 41:0.20638026 42:-0.39591566 44:0.48494881 45:-0.50417441 46:0.22101967 #
