SVM-light Version V6.20
0 # kernel type
3 # kernel parameter -d 
1 # kernel parameter -g 
1 # kernel parameter -s 
1 # kernel parameter -r 
empty# kernel parameter -u 
47 # highest feature index 
62 # number of training documents 
2 # number of support vectors plus 1 
0 # threshold b, each following line is a SV (starting with alpha*y)
1 1:-0.17075633 2:1.5241185 3:0.88063103 4:-0.21506862 5:-0.073222786 11:-0.50746137 12:-1.5077966 13:-0.26352152 14:-1.291356 15:-0.13665785 16:0.38782376 17:-0.24534538 18:-0.29111001 19:-0.0063696918 20:0.39621723 21:0.97666138 22:-0.57406175 23:0.73464775 24:-0.76058441 25:0.093058027 26:0.012676952 27:0.099526234 28:0.11424161 29:0.37030026 30:-0.018285442 31:-0.6387859 32:0.24569342 33:1.1267952 34:-0.12099856 35:0.67263287 36:-0.45922911 37:-0.0076285042 38:0.5638845 39:-0.37465614 40:0.62084126 41:-0.16800486 42:0.37846357 44:-0.2258742 45:0.6428436 46:-0.082297996 #
