SVM-light Version V6.20
0 # kernel type
3 # kernel parameter -d 
1 # kernel parameter -g 
1 # kernel parameter -s 
1 # kernel parameter -r 
empty# kernel parameter -u 
47 # highest feature index 
63 # number of training documents 
2 # number of support vectors plus 1 
0 # threshold b, each following line is a SV (starting with alpha*y)
1 1:-0.29225084 2:0.98710346 3:0.46879598 4:-0.27631968 5:0.030220319 11:-0.18712123 12:-0.73242354 13:-0.069129854 14:0.96973008 15:0.15069403 16:0.21351525 17:-0.28110787 18:-0.35450721 19:-0.84999168 20:0.24514237 21:0.043853864 22:-0.68183571 23:1.0961033 24:0.72585833 25:-0.056926202 26:0.1345652 27:0.17012505 28:0.12093093 29:0.32798648 30:0.086725891 31:-0.051618632 32:-0.36151123 33:-0.59819692 34:-0.34427434 35:0.71843064 36:-0.67075503 37:0.11315435 38:-0.30806497 39:0.29343137 40:0.15886934 41:0.055876859 42:0.095265985 44:-0.27788529 45:0.15570892 46:0.26159215 #
