SVM-light Version V6.20
0 # kernel type
3 # kernel parameter -d 
1 # kernel parameter -g 
1 # kernel parameter -s 
1 # kernel parameter -r 
empty# kernel parameter -u 
47 # highest feature index 
61 # number of training documents 
2 # number of support vectors plus 1 
0 # threshold b, each following line is a SV (starting with alpha*y)
1 1:0.059733476 2:1.1397464 3:0.4847177 4:-0.8240369 5:0.0027646681 11:0.087321036 12:-1.4810543 13:-0.85405362 14:-0.19506325 15:0.020537443 16:-0.095357858 17:0.15939769 18:-0.050948404 19:0.19480099 20:-0.12579405 21:-0.44217563 22:0.023371704 23:0.60250849 24:0.093608856 25:0.36446843 26:-0.81025386 27:0.52764314 28:0.49977654 29:0.097632103 30:0.13420144 31:0.69055462 32:-0.078278288 33:0.8043766 34:-0.14775994 35:-0.26183206 36:0.36352864 37:0.53639084 38:0.44495946 39:0.43991867 40:-0.10679836 41:-0.201509 42:-0.22846186 44:-0.037568048 45:-0.27023262 46:-0.028250178 #
