SVM-light Version V6.20
0 # kernel type
3 # kernel parameter -d 
1 # kernel parameter -g 
1 # kernel parameter -s 
1 # kernel parameter -r 
empty# kernel parameter -u 
47 # highest feature index 
63 # number of training documents 
2 # number of support vectors plus 1 
0 # threshold b, each following line is a SV (starting with alpha*y)
1 1:-0.072466649 2:0.3091121 3:0.21280356 4:-0.69427329 5:0.077934004 11:0.014402291 12:-0.15374346 13:0.095779479 14:0.03745788 15:0.082954489 16:0.14810655 17:-0.12288386 18:-0.018125579 19:0.18535648 20:0.1606696 21:0.31332609 22:-0.42133594 23:1.2788373 24:0.64054972 25:0.17692965 26:0.060210999 27:-0.221113 28:0.57155895 29:0.37483463 30:-0.016599925 31:-0.020721523 32:-0.17612602 33:0.55821455 34:0.30525085 35:0.29540592 36:-0.79407591 37:0.19323926 38:-0.18895167 39:0.44082582 40:-0.41122079 41:-0.077040941 42:-0.29801077 44:0.22869442 45:-0.51482636 46:-0.33808768 #
