SVM-light Version V6.20
0 # kernel type
3 # kernel parameter -d 
1 # kernel parameter -g 
1 # kernel parameter -s 
1 # kernel parameter -r 
empty# kernel parameter -u 
47 # highest feature index 
60 # number of training documents 
2 # number of support vectors plus 1 
0 # threshold b, each following line is a SV (starting with alpha*y)
1 1:0.028320825 2:-0.57922709 3:0.27790287 4:-0.20921397 5:0.19068593 11:-0.20893553 12:0.39855409 13:-0.51906139 14:-0.12668186 15:0.20020458 16:-0.20823278 17:-0.6369102 18:0.19435537 19:-0.19202198 20:-0.17375609 21:0.71142405 22:0.46500278 23:0.83122748 24:-0.17604768 25:-0.00092490349 26:0.45577875 27:-0.16724387 28:0.12011907 29:0.93296093 30:-0.98888302 31:-0.36344466 32:1.1076545 33:-0.28784668 34:0.43978658 35:0.067991778 36:0.17812441 37:-0.17422383 38:-0.10159289 39:0.33583143 40:-0.88702613 41:0.14317544 42:-0.35787177 44:-0.19009493 45:0.29614654 46:0.17964901 #
