SVM-light Version V6.20
0 # kernel type
3 # kernel parameter -d 
1 # kernel parameter -g 
1 # kernel parameter -s 
1 # kernel parameter -r 
empty# kernel parameter -u 
47 # highest feature index 
66 # number of training documents 
2 # number of support vectors plus 1 
0 # threshold b, each following line is a SV (starting with alpha*y)
1 1:-0.21783809 2:0.013145999 3:0.38146079 4:-0.18697862 5:0.060534142 11:-0.082997277 12:-0.39556444 13:-0.80847001 14:-0.34883171 15:0.17354549 16:0.069278896 17:-0.38091686 18:-0.081716977 19:-0.61700273 20:0.10905238 21:-0.26868817 22:-0.34103093 23:1.1744857 24:0.11105914 25:0.8285172 26:-0.26821309 27:-0.016100852 28:0.2547664 29:0.20095982 30:0.21905029 31:0.25703618 32:0.124238 33:0.52144521 34:-0.32917425 35:0.19281437 36:0.18779384 37:0.44075969 38:-0.32675239 39:0.70140737 40:0.35746223 41:-0.14608355 42:0.38997209 44:-0.27964735 45:-0.057239156 46:-0.06924776 #
