SVM-light Version V6.20
0 # kernel type
3 # kernel parameter -d 
1 # kernel parameter -g 
1 # kernel parameter -s 
1 # kernel parameter -r 
empty# kernel parameter -u 
47 # highest feature index 
62 # number of training documents 
2 # number of support vectors plus 1 
0 # threshold b, each following line is a SV (starting with alpha*y)
1 1:0.18164685 2:-0.49407047 3:0.10530593 4:0.034120969 5:0.15530765 11:-0.078512155 12:0.019301856 13:0.19853765 14:-0.24904548 15:-0.07307905 16:-0.1015424 17:0.092039436 18:0.016430125 19:-0.32548627 20:-0.099828057 21:0.057135567 22:-0.18758143 23:1.4327263 24:0.70498085 25:0.63130361 26:-0.40267637 27:0.66950434 28:0.2951864 29:0.19047381 30:-0.35410395 31:-0.32149738 32:0.74911582 33:0.29953286 34:0.3841809 35:-0.33906534 36:-0.16097566 37:0.39812487 38:-1.0973701 39:1.1010547 40:-0.19337171 41:-0.1234666 42:0.14359972 44:0.00075169181 45:-0.34186825 46:-0.37055695 #
