SVM-light Version V6.20
0 # kernel type
3 # kernel parameter -d 
1 # kernel parameter -g 
1 # kernel parameter -s 
1 # kernel parameter -r 
empty# kernel parameter -u 
47 # highest feature index 
63 # number of training documents 
2 # number of support vectors plus 1 
0 # threshold b, each following line is a SV (starting with alpha*y)
1 1:-0.043478157 2:-0.34115359 3:-0.041606452 4:-0.33628711 5:-0.14045039 11:0.05753208 12:0.3721523 13:0.366804 14:-0.523076 15:-0.10834738 16:0.12010898 17:-0.4411875 18:-0.24184683 19:-0.57486326 20:0.1419926 21:-0.066339917 22:-0.11761214 23:1.2186906 24:0.13075198 25:0.20009087 26:-0.52560395 27:-0.016882662 28:0.65388346 29:0.15646359 30:-0.32165864 31:0.034106191 32:0.47242171 33:0.44989288 34:-0.33662814 35:0.52005613 36:0.20723681 37:0.15730147 38:-0.20193444 39:1.1391389 40:0.0071987221 41:-0.17584683 42:-0.14364336 44:-0.10072474 45:0.22320965 46:-0.023322247 #
