SVM-light Version V6.20
0 # kernel type
3 # kernel parameter -d 
1 # kernel parameter -g 
1 # kernel parameter -s 
1 # kernel parameter -r 
empty# kernel parameter -u 
47 # highest feature index 
63 # number of training documents 
2 # number of support vectors plus 1 
0 # threshold b, each following line is a SV (starting with alpha*y)
1 1:-0.0098147569 2:0.37323555 3:-0.077905059 4:-0.17954381 5:-0.0097629605 11:-0.02603779 12:-0.23035406 13:0.52321005 14:-0.30978847 15:-0.20804556 16:0.099204436 17:0.14251298 18:-0.46164265 19:-0.34100404 20:0.10903568 21:-0.45677888 22:0.71022487 23:1.3785889 24:0.050015848 25:-0.26533341 26:0.11880598 27:-0.13478981 28:0.39056802 29:0.13243122 30:0.10364879 31:0.10373338 32:-0.096182659 33:0.32788053 34:-0.16421168 35:0.67369235 36:-0.38310927 37:0.16203929 38:-0.1216636 39:0.24935538 40:0.10465796 41:0.10467114 42:-0.043661624 44:0.034052126 45:-0.21286513 46:-0.051884335 #
