SVM-light Version V6.20
0 # kernel type
3 # kernel parameter -d 
1 # kernel parameter -g 
1 # kernel parameter -s 
1 # kernel parameter -r 
empty# kernel parameter -u 
47 # highest feature index 
62 # number of training documents 
2 # number of support vectors plus 1 
0 # threshold b, each following line is a SV (starting with alpha*y)
1 1:0.11243273 2:0.31270465 3:1.6379572 4:0.63617492 5:-0.0089846626 11:-0.11781142 12:-0.56340617 13:-0.95959377 14:-0.5891481 15:-0.093965583 16:-0.021368803 17:0.091975965 18:-0.26612064 19:0.81397468 20:-0.030650046 21:-0.50552195 22:-0.19886635 23:0.26789674 24:0.17967229 25:-0.10891545 26:0.13858044 27:0.0064150542 28:0.071270809 29:-0.36759895 30:0.23834911 31:0.012957041 32:0.1315767 33:0.01268768 34:0.45831499 35:0.43670008 36:-0.93034881 37:0.29064041 38:0.36370677 39:0.96070242 40:-0.083039641 41:-0.12275822 42:-0.3710511 44:0.44483742 45:-0.29904911 46:0.12170173 #
