SVM-light Version V6.20
0 # kernel type
3 # kernel parameter -d 
1 # kernel parameter -g 
1 # kernel parameter -s 
1 # kernel parameter -r 
empty# kernel parameter -u 
47 # highest feature index 
67 # number of training documents 
2 # number of support vectors plus 1 
0 # threshold b, each following line is a SV (starting with alpha*y)
1 1:-0.35207886 2:1.309348 3:-0.10759838 4:-0.094604507 5:-0.54847765 11:0.0061420212 12:-1.0791994 13:0.37235516 14:-0.74027574 15:-0.30879056 16:0.41189981 17:-0.55598038 18:-0.51021558 19:-0.29749736 20:0.3985346 21:-1.188269 22:-0.95346618 23:1.3051004 24:0.80041814 25:0.051909462 26:-0.46680251 27:0.77031243 28:-0.49281231 29:0.61515033 30:0.28776696 31:-0.52254099 32:-0.52845997 33:0.78848958 34:0.19892016 35:-0.18140523 36:0.020665295 37:1.4005399 38:-0.45872408 39:0.70455843 40:-0.11603933 41:0.3384718 42:-0.20020495 44:0.15335184 45:0.5066216 46:-0.51229781 #
