SVM-light Version V6.20
0 # kernel type
3 # kernel parameter -d 
1 # kernel parameter -g 
1 # kernel parameter -s 
1 # kernel parameter -r 
empty# kernel parameter -u 
47 # highest feature index 
64 # number of training documents 
2 # number of support vectors plus 1 
0 # threshold b, each following line is a SV (starting with alpha*y)
1 1:-0.24077849 2:0.16113934 3:0.055689022 4:-0.47232825 5:-0.2284454 11:-0.0568914 12:-0.062167119 13:0.38498288 14:-0.56401515 15:-0.1347004 16:0.43240738 17:-0.096060261 18:-0.62775373 19:-0.29921103 20:0.44900796 21:-0.12721995 22:0.47912908 23:1.4114276 24:-0.30656424 25:-0.23684464 26:-0.25780877 27:-0.10056078 28:0.63342798 29:0.071516879 30:-0.21677338 31:-0.055913892 32:0.42703545 33:0.72315747 34:-0.22812486 35:0.32591751 36:0.048906725 37:0.54243952 38:0.2200318 39:0.86215448 40:-0.17207836 41:-0.023386313 42:-0.27437159 44:0.21808623 45:-0.039891068 46:0.090643451 #
