SVM-light Version V6.20
0 # kernel type
3 # kernel parameter -d 
1 # kernel parameter -g 
1 # kernel parameter -s 
1 # kernel parameter -r 
empty# kernel parameter -u 
47 # highest feature index 
66 # number of training documents 
2 # number of support vectors plus 1 
0 # threshold b, each following line is a SV (starting with alpha*y)
1 1:-0.24222538 2:-0.40616643 3:0.22599611 4:-0.8151803 5:-0.021156035 11:-0.046533495 12:0.39878303 13:0.17202169 14:0.64160353 15:0.012074085 16:0.3478485 17:-0.00029170176 18:-0.22416456 19:-0.34875539 20:0.36085653 21:-0.40511265 22:-0.14907795 23:1.07216 24:0.13483521 25:-0.1247597 26:-0.18771374 27:0.30515218 28:0.2308832 29:0.08221823 30:-0.15902071 31:-0.17042106 32:0.45417801 33:0.0090987263 34:-0.30165377 35:0.36959341 36:0.19746982 37:0.50086766 38:0.15645467 39:0.99375051 40:-0.35798085 41:-0.039160654 42:-0.30419514 44:-0.099570274 45:-0.049294997 46:0.25973162 #
