SVM-light Version V6.20
0 # kernel type
3 # kernel parameter -d 
1 # kernel parameter -g 
1 # kernel parameter -s 
1 # kernel parameter -r 
empty# kernel parameter -u 
47 # highest feature index 
61 # number of training documents 
2 # number of support vectors plus 1 
0 # threshold b, each following line is a SV (starting with alpha*y)
1 1:-0.5030368 2:0.28823742 3:1.1327184 4:-0.57942349 5:-0.35857075 11:0.23899758 12:-1.0488907 13:-0.83093959 14:-0.71295428 15:0.16066657 16:-0.073767178 17:0.020516552 18:-0.29013586 19:-0.16359638 20:-0.080929905 21:-0.076713763 22:0.30724281 23:0.93580902 24:-0.035373379 25:0.73228657 26:-0.53977108 27:-0.43972111 28:-0.056916535 29:0.13774236 30:0.13573077 31:0.11871397 32:-0.63145983 33:0.62822419 34:-0.33003801 35:-0.047959808 36:-0.49304068 37:0.19670168 38:0.069171593 39:0.97987801 40:0.79967439 41:-0.31094918 42:-0.45453167 44:-0.50176126 45:0.37353376 46:0.19725317 #
