SVM-light Version V6.20
0 # kernel type
3 # kernel parameter -d 
1 # kernel parameter -g 
1 # kernel parameter -s 
1 # kernel parameter -r 
empty# kernel parameter -u 
47 # highest feature index 
63 # number of training documents 
2 # number of support vectors plus 1 
0 # threshold b, each following line is a SV (starting with alpha*y)
1 1:-0.30872136 2:0.1915101 3:0.078045942 4:-0.41107404 5:-0.15831269 11:-0.051273212 12:0.41605476 13:-0.18655449 14:0.3258079 15:0.27659467 16:-0.092390075 17:-0.33884856 18:-0.39677891 19:-0.28428239 20:-0.12634698 21:-0.11610451 22:0.2876949 23:0.75864154 24:0.78179467 25:-0.34007755 26:-0.91017628 27:0.15302081 28:0.38429338 29:-0.061454397 30:-0.24344987 31:-0.35824737 32:1.2999231 33:-0.26952231 34:1.0191718 35:0.8681286 36:-1.2244905 37:0.21878083 38:-0.25851968 39:-0.29189104 40:-0.45028701 41:-0.56693965 42:0.28204575 44:-0.55361384 45:0.3154031 46:0.11633734 #
