SVM-light Version V6.20
0 # kernel type
3 # kernel parameter -d 
1 # kernel parameter -g 
1 # kernel parameter -s 
1 # kernel parameter -r 
empty# kernel parameter -u 
47 # highest feature index 
65 # number of training documents 
2 # number of support vectors plus 1 
0 # threshold b, each following line is a SV (starting with alpha*y)
1 1:0.032827996 2:0.47647539 3:-0.52303243 4:-0.43787503 5:-0.12304578 11:-0.056999389 12:-0.71864885 13:0.61027408 14:-0.26911309 15:-0.28138921 16:0.14336631 17:-0.209472 18:-0.2686992 19:-0.49980557 20:0.11830541 21:-0.72921777 22:0.33789039 23:1.7441787 24:-0.63424301 25:0.26607805 26:-0.51271755 27:-0.16138542 28:0.80564785 29:0.075775623 30:0.54319406 31:-0.15137242 32:-0.11146639 33:0.23137458 34:0.67335314 35:0.11339515 36:0.032118931 37:0.72807682 38:-0.17351103 39:0.47738123 40:-0.10613133 41:0.21964857 42:0.023518058 44:0.094661631 45:-0.061979763 46:-0.21325234 #
