SVM-light Version V6.20
0 # kernel type
3 # kernel parameter -d 
1 # kernel parameter -g 
1 # kernel parameter -s 
1 # kernel parameter -r 
empty# kernel parameter -u 
47 # highest feature index 
60 # number of training documents 
2 # number of support vectors plus 1 
0 # threshold b, each following line is a SV (starting with alpha*y)
1 1:-0.37585387 2:0.27005118 3:-0.25522664 4:-0.67333263 5:0.034068611 11:-0.34075049 12:-0.067205921 13:0.40308526 14:0.68538356 15:0.10370126 16:0.37662306 17:-0.26495469 18:0.048747648 19:-0.82990885 20:0.36979249 21:1.2748982 22:-0.24270457 23:1.2102721 24:-0.34425154 25:-0.50448525 26:-0.19454764 27:0.1806526 28:0.93757409 29:-0.078536645 30:0.3325325 31:-0.12770681 32:-0.39724919 33:0.27003506 34:-1.0693848 35:0.40637383 36:0.24296264 37:-0.96669126 38:0.65845805 39:0.095731288 40:-0.31359467 41:0.33555508 42:0.045530461 44:-0.59048241 45:0.47303623 46:-0.37094629 #
