SVM-light Version V6.20
0 # kernel type
3 # kernel parameter -d 
1 # kernel parameter -g 
1 # kernel parameter -s 
1 # kernel parameter -r 
empty# kernel parameter -u 
47 # highest feature index 
64 # number of training documents 
2 # number of support vectors plus 1 
0 # threshold b, each following line is a SV (starting with alpha*y)
1 1:-0.34403178 2:1.7485427 3:0.23405567 4:0.59428239 5:0.0049704541 11:0.036531415 12:-1.0781734 13:-0.3683925 14:-0.17797191 15:0.2762399 16:-0.14103441 17:-0.46995801 18:0.40352535 19:0.52487236 20:-0.14552306 21:1.593367 22:0.031796489 23:0.58255291 24:-0.16109666 25:-0.82918966 26:0.63002855 27:0.060310725 28:0.28685459 29:0.40092039 30:-0.44560188 31:0.67386442 32:-0.78717083 33:-1.1111965 34:-0.10919406 35:1.141201 36:-0.3765206 37:-0.77795172 38:-0.86003959 39:-0.39518595 40:0.16611362 41:0.51905388 42:-0.59240115 44:0.17457905 45:-0.12699103 46:-0.42173278 #
