SVM-light Version V6.20
0 # kernel type
3 # kernel parameter -d 
1 # kernel parameter -g 
1 # kernel parameter -s 
1 # kernel parameter -r 
empty# kernel parameter -u 
47 # highest feature index 
66 # number of training documents 
2 # number of support vectors plus 1 
0 # threshold b, each following line is a SV (starting with alpha*y)
1 1:-0.18446431 2:0.016896416 3:0.5487231 4:-0.12444972 5:-0.02840757 11:0.19556473 12:-0.9078331 13:-0.54749608 14:-0.27822527 15:0.243016 16:0.092204258 17:0.074687108 18:-0.18287607 19:0.31223893 20:0.077723935 21:0.52355105 22:0.098112926 23:0.75475478 24:0.57371056 25:0.22474845 26:0.021811239 27:0.62535369 28:0.084416665 29:0.34896713 30:-0.76429617 31:-0.019345988 32:0.78916007 33:0.4870075 34:0.17313701 35:-0.68457693 36:0.37497395 37:-0.11317199 38:-0.74093992 39:0.76778561 40:-0.29333749 41:-0.42177817 42:-0.17408921 44:0.75878799 45:-0.57788885 46:-0.055319272 #
