SVM-light Version V6.20
0 # kernel type
3 # kernel parameter -d 
1 # kernel parameter -g 
1 # kernel parameter -s 
1 # kernel parameter -r 
empty# kernel parameter -u 
47 # highest feature index 
68 # number of training documents 
2 # number of support vectors plus 1 
0 # threshold b, each following line is a SV (starting with alpha*y)
1 1:0.27301985 2:-0.32416359 3:-0.024408864 4:-0.20628753 5:0.39103183 11:-0.22187129 12:0.06530761 13:-0.39734566 14:0.078709468 15:-0.27744299 16:-0.099668749 17:-0.17925829 18:0.45469344 19:0.1803187 20:-0.10082141 21:0.85623968 22:-0.78174084 23:1.1610922 24:1.0608464 25:-0.054102611 26:0.34501201 27:-0.37996137 28:0.68070698 29:0.54703516 30:-0.1942292 31:-0.13051459 32:0.54347265 33:0.20702235 34:0.65296751 35:-0.092456892 36:-0.55043107 37:-0.099830911 38:-0.92139494 39:0.38890988 40:-0.18474543 41:-0.010721049 42:-0.33155817 44:-0.12786166 45:0.13714513 46:-0.4328984 #
