SVM-light Version V6.20
0 # kernel type
3 # kernel parameter -d 
1 # kernel parameter -g 
1 # kernel parameter -s 
1 # kernel parameter -r 
empty# kernel parameter -u 
47 # highest feature index 
65 # number of training documents 
2 # number of support vectors plus 1 
0 # threshold b, each following line is a SV (starting with alpha*y)
1 1:-0.19035314 2:0.18314421 3:0.51328993 4:-0.68379909 5:-0.10545877 11:-0.051389739 12:-0.16905661 13:-0.11489224 14:0.061741378 15:-0.089535654 16:0.2181028 17:-0.28777257 18:-0.14205639 19:-0.69215822 20:0.21157935 21:0.24625736 22:0.12242831 23:1.3770242 24:-0.2558201 25:0.048395708 26:-0.57353544 27:0.19802469 28:0.48968166 29:0.36101967 30:-0.25887126 31:-0.076014064 32:0.20427297 33:0.3792313 34:-0.044757623 35:0.46374163 36:-0.17497192 37:0.32480699 38:-0.90888399 39:0.9226343 40:0.063050173 41:-0.12620109 42:0.10992604 44:-0.09418264 45:0.1464228 46:-0.38221031 #
