SVM-light Version V6.20
0 # kernel type
3 # kernel parameter -d 
1 # kernel parameter -g 
1 # kernel parameter -s 
1 # kernel parameter -r 
empty# kernel parameter -u 
47 # highest feature index 
64 # number of training documents 
2 # number of support vectors plus 1 
0 # threshold b, each following line is a SV (starting with alpha*y)
1 1:-0.051895149 2:0.76309621 3:0.74480397 4:-0.83532327 5:-0.14858709 11:0.21946786 12:-0.84405875 13:-0.11852265 14:1.1251388 15:0.013999095 16:0.068580873 17:0.063782915 18:-0.50394517 19:-0.98055738 20:0.04201192 21:-0.21876995 22:-0.16308677 23:0.62468737 24:0.82987773 25:0.47901869 26:-0.13064218 27:0.15484482 28:0.0066126259 29:-0.71850216 30:0.026045004 31:0.52440786 32:-0.22902307 33:-0.2480644 34:0.61514843 35:0.51681912 36:-1.2216361 37:0.15986601 38:0.15256414 39:0.55184311 40:-0.53401369 41:0.71510094 42:-0.065475672 44:0.019138757 45:-0.06386254 46:-0.12548845 #
