SVM-light Version V6.20
0 # kernel type
3 # kernel parameter -d 
1 # kernel parameter -g 
1 # kernel parameter -s 
1 # kernel parameter -r 
empty# kernel parameter -u 
47 # highest feature index 
64 # number of training documents 
2 # number of support vectors plus 1 
0 # threshold b, each following line is a SV (starting with alpha*y)
1 1:0.36944526 2:-0.16871957 3:-0.076242797 4:-0.13346128 5:0.3857469 11:-0.35407171 12:-0.68901134 13:0.76672214 14:0.041153193 15:-0.13576403 16:-0.13497742 17:0.25129384 18:-0.24545076 19:-0.45155525 20:-0.11292773 21:0.18847789 22:-0.50502908 23:0.27742675 24:0.47612852 25:0.0580847 26:0.13256128 27:0.0079377946 28:0.49756175 29:0.064459831 30:-0.045704059 31:0.19383071 32:-0.34205151 33:0.02927077 34:0.033455592 35:-0.012849719 36:0.091213182 37:0.47265995 38:-0.3554216 39:1.0662842 40:0.11438182 41:0.32503369 42:0.1816052 44:-0.15061046 45:-0.24385016 46:-0.046738267 #
