SVM-light Version V6.20
0 # kernel type
3 # kernel parameter -d 
1 # kernel parameter -g 
1 # kernel parameter -s 
1 # kernel parameter -r 
empty# kernel parameter -u 
47 # highest feature index 
65 # number of training documents 
2 # number of support vectors plus 1 
0 # threshold b, each following line is a SV (starting with alpha*y)
1 1:-0.03181693 2:-0.20989595 3:0.78228581 4:0.65665203 5:-0.31801888 11:0.154062 12:0.56981748 13:-0.93592048 14:-0.017453864 15:0.028548367 16:0.091298118 17:-0.049374726 18:-0.6449247 19:-1.0985526 20:0.092091851 21:0.36266813 22:-0.35678297 23:1.3434902 24:0.029848451 25:0.10166374 26:0.578771 27:-0.30312195 28:-0.68823826 29:0.015743868 30:0.0088004069 31:-0.43246886 32:0.88178217 33:-0.15080202 34:0.1429785 35:-0.13381247 36:-0.093778089 37:-0.03131697 38:-0.62700158 39:-0.41250473 40:0.66829407 41:0.13441136 42:0.45728385 44:-0.38754261 45:0.457863 46:0.621589 #
