SVM-light Version V6.20
0 # kernel type
3 # kernel parameter -d 
1 # kernel parameter -g 
1 # kernel parameter -s 
1 # kernel parameter -r 
empty# kernel parameter -u 
47 # highest feature index 
61 # number of training documents 
2 # number of support vectors plus 1 
0 # threshold b, each following line is a SV (starting with alpha*y)
1 1:0.27646253 2:0.10153636 3:0.57322723 4:-0.59243917 5:0.23778833 11:-0.21733326 12:0.55311275 13:-0.47284999 14:0.22122808 15:-0.18531398 16:-0.29220217 17:-0.13269608 18:-0.0064131427 19:-0.62236708 20:-0.27431104 21:-0.89328605 22:-0.30745354 23:0.44190043 24:-0.81180662 25:-0.36040142 26:0.58688921 27:-0.35215938 28:-0.39758977 29:-0.25607917 30:0.39661908 31:0.22153679 32:-0.10773241 33:-0.073063709 34:-0.15153924 35:0.86771089 36:-0.27999279 37:0.23280479 38:0.24988964 39:0.8494544 40:1.3542014 41:0.34047139 42:0.24886672 44:-0.32999906 45:-0.11370535 46:0.2935493 #
