SVM-light Version V6.20
0 # kernel type
3 # kernel parameter -d 
1 # kernel parameter -g 
1 # kernel parameter -s 
1 # kernel parameter -r 
empty# kernel parameter -u 
47 # highest feature index 
65 # number of training documents 
2 # number of support vectors plus 1 
0 # threshold b, each following line is a SV (starting with alpha*y)
1 1:-0.21225165 2:0.12676314 3:0.25149095 4:-0.27045688 5:-0.13405773 11:0.19579996 12:-0.46055451 13:0.17104283 14:-0.070870683 15:-0.08941748 16:0.2613849 17:0.076000795 18:-0.26235789 19:-0.4429284 20:0.25701699 21:-0.67655814 22:0.71324617 23:0.55710745 24:0.06625931 25:0.36548254 26:-0.18706596 27:0.15538213 28:0.47783661 29:-0.34995195 30:0.64179081 31:-0.017470526 32:-0.51965141 33:-0.014660557 34:-0.57127821 35:0.80944234 36:-0.25732481 37:0.12912658 38:-0.1138178 39:0.66877073 40:0.30226943 41:0.062312197 42:-0.015412616 44:-0.24202307 45:0.22429383 46:-0.16207051 #
