SVM-light Version V6.20
0 # kernel type
3 # kernel parameter -d 
1 # kernel parameter -g 
1 # kernel parameter -s 
1 # kernel parameter -r 
empty# kernel parameter -u 
47 # highest feature index 
64 # number of training documents 
2 # number of support vectors plus 1 
0 # threshold b, each following line is a SV (starting with alpha*y)
1 1:-0.33778214 2:0.037063889 3:0.74255979 4:0.84321594 5:-0.589324 11:0.35647744 12:0.62593424 13:-0.591326 14:-0.73505932 15:-0.087941661 16:0.38888466 17:-0.32182938 18:-0.0086492822 19:0.67678392 20:0.35207629 21:-0.037048027 22:0.10462295 23:1.6793382 24:0.53811592 25:-0.115012 26:0.53917718 27:-0.066009924 28:-0.62371838 29:0.64187485 30:-0.10534219 31:0.83996749 32:-0.8284359 33:-0.58463383 34:0.61067122 35:0.048236977 36:0.064489461 37:0.15350817 38:-0.76212001 39:0.20661412 40:-0.68357134 41:-0.2807 42:-0.32896498 44:0.3567948 45:-0.51200849 46:-0.048329506 #
