SVM-light Version V6.20
0 # kernel type
3 # kernel parameter -d 
1 # kernel parameter -g 
1 # kernel parameter -s 
1 # kernel parameter -r 
empty# kernel parameter -u 
47 # highest feature index 
64 # number of training documents 
2 # number of support vectors plus 1 
0 # threshold b, each following line is a SV (starting with alpha*y)
1 1:-0.37272325 2:-0.29673633 3:-0.081961967 4:-0.83712292 5:-0.38217258 11:0.043639801 12:-0.92325193 13:-0.46058983 14:-0.66002911 15:-0.084839791 16:-0.20586175 17:0.1411242 18:-0.076550394 19:-0.058867466 20:-0.20531565 21:0.35284323 22:-0.43467098 23:0.90628415 24:1.2030503 25:0.51781237 26:-0.68430054 27:-0.066333339 28:0.012184954 29:0.5496977 30:-0.38042504 31:-0.38197783 32:0.88492036 33:0.6107462 34:-0.3029857 35:-0.51865923 36:0.079516381 37:0.010618805 38:0.12225991 39:0.79875076 40:0.76767039 41:0.093196027 42:-0.42414108 44:-0.37839031 45:-0.25299153 46:0.15553832 #
