SVM-light Version V6.20
0 # kernel type
3 # kernel parameter -d 
1 # kernel parameter -g 
1 # kernel parameter -s 
1 # kernel parameter -r 
empty# kernel parameter -u 
47 # highest feature index 
66 # number of training documents 
2 # number of support vectors plus 1 
0 # threshold b, each following line is a SV (starting with alpha*y)
1 1:-0.1974448 2:-0.44290259 3:0.85042989 4:0.9518097 5:-0.20200357 11:0.059197724 12:0.10707346 13:-0.98968679 14:-0.94937706 15:0.084141813 16:0.091634654 17:-0.16510618 18:-0.059808921 19:-0.24771437 20:0.088135339 21:0.36209396 22:-0.75109369 23:1.5507276 24:-0.086567767 25:0.38900676 26:-0.17849419 27:0.44541758 28:0.14714631 29:0.58333629 30:0.037871819 31:-0.072530009 32:-0.057880547 33:-0.024144365 34:0.028055478 35:0.04604762 36:-0.046120819 37:0.24001667 38:-0.30364561 39:0.82786185 40:-0.073489413 41:0.28632835 42:-0.40455279 44:0.33780447 45:-0.28407985 46:-0.55662817 #
