SVM-light Version V6.20
0 # kernel type
3 # kernel parameter -d 
1 # kernel parameter -g 
1 # kernel parameter -s 
1 # kernel parameter -r 
empty# kernel parameter -u 
47 # highest feature index 
63 # number of training documents 
2 # number of support vectors plus 1 
0 # threshold b, each following line is a SV (starting with alpha*y)
1 1:-0.49723572 2:0.77717859 3:0.19183271 4:-0.31488436 5:-0.31364617 11:0.083592772 12:-0.8584463 13:-0.27144879 14:-0.34993964 15:0.1878892 16:0.39330095 17:-0.32008404 18:-0.25408679 19:-0.87732249 20:0.39738277 21:-0.1583565 22:0.53567487 23:1.3121318 24:0.30666032 25:0.33000103 26:-0.83967996 27:0.24461362 28:0.74805158 29:0.56698573 30:-0.31286606 31:-0.052977987 32:0.36685017 33:0.53900808 34:-0.47123998 35:0.91951102 36:-0.32225394 37:0.33214578 38:-0.35130882 39:0.72407186 40:-0.32103869 41:0.074264556 42:0.28247026 44:-0.32457858 45:0.33127344 46:0.031020859 #
