SVM-light Version V6.20
0 # kernel type
3 # kernel parameter -d 
1 # kernel parameter -g 
1 # kernel parameter -s 
1 # kernel parameter -r 
empty# kernel parameter -u 
47 # highest feature index 
63 # number of training documents 
2 # number of support vectors plus 1 
0 # threshold b, each following line is a SV (starting with alpha*y)
1 1:-0.83550841 2:0.91788727 3:0.47380516 4:-0.23555566 5:-0.5024997 11:0.045855116 12:-1.5013556 13:0.39854646 14:0.055295687 15:0.018665452 16:0.4914259 17:-0.086522646 18:0.25363609 19:0.71235901 20:0.49939308 21:-0.59189612 22:0.29996517 23:0.88971394 24:-0.040674523 25:0.090808012 26:-0.32497483 27:0.77429008 28:-0.37620294 29:-0.15091935 30:0.386071 31:-0.17293149 32:-0.028277025 33:0.19423439 34:-0.85437357 35:-0.29087189 36:0.753353 37:0.78253311 38:-0.17362714 39:0.73612559 40:-1.2428867 41:0.13803327 42:-0.47313568 44:-0.25049344 45:0.14778149 46:-0.048739597 #
