SVM-light Version V6.20
0 # kernel type
3 # kernel parameter -d 
1 # kernel parameter -g 
1 # kernel parameter -s 
1 # kernel parameter -r 
empty# kernel parameter -u 
47 # highest feature index 
62 # number of training documents 
2 # number of support vectors plus 1 
0 # threshold b, each following line is a SV (starting with alpha*y)
1 1:-0.079832636 2:-0.33930519 3:0.31426591 4:-0.20097947 5:0.044613153 11:0.14471263 12:-0.36073819 13:-0.46651319 14:-0.42634988 15:0.15286283 16:-0.04941785 17:-0.029288998 18:-0.0377011 19:-0.49837917 20:-0.040131617 21:0.051818449 22:-0.9718464 23:1.0122268 24:0.2452832 25:0.361579 26:-0.37973228 27:0.41100392 28:0.63996214 29:0.58948475 30:-0.31301928 31:-0.20359357 32:0.58167922 33:0.75348026 34:-0.17949452 35:0.25204659 36:-0.42777827 37:0.82967675 38:-0.57833052 39:0.97351712 40:0.62576705 41:0.17689745 42:0.15668182 44:0.21708299 45:-0.21156564 46:-0.049464189 #
