SVM-light Version V6.20
0 # kernel type
3 # kernel parameter -d 
1 # kernel parameter -g 
1 # kernel parameter -s 
1 # kernel parameter -r 
empty# kernel parameter -u 
47 # highest feature index 
61 # number of training documents 
2 # number of support vectors plus 1 
0 # threshold b, each following line is a SV (starting with alpha*y)
1 1:0.3447625 2:-0.12190831 3:1.0079892 4:-0.77559304 5:0.074290916 11:0.32675245 12:0.3242541 13:-0.4779031 14:1.5523771 15:-0.082436338 16:-0.19233091 17:0.054332316 18:0.13059372 19:-0.46938437 20:-0.23699176 21:0.50532842 22:0.51514715 23:-0.082061946 24:-0.20703894 25:-0.11300496 26:0.79416466 27:-0.16022435 28:-0.16507255 29:-0.31413314 30:0.92202359 31:0.083547331 32:-1.140143 33:-0.73521155 34:0.10105677 35:0.24146762 36:-0.84922183 37:-0.067929395 38:0.43991774 39:-0.17894109 40:0.10777777 41:-0.23196127 42:0.3393676 44:-0.48440647 45:0.16746508 46:-0.10525113 #
