SVM-light Version V6.20
0 # kernel type
3 # kernel parameter -d 
1 # kernel parameter -g 
1 # kernel parameter -s 
1 # kernel parameter -r 
empty# kernel parameter -u 
47 # highest feature index 
63 # number of training documents 
2 # number of support vectors plus 1 
0 # threshold b, each following line is a SV (starting with alpha*y)
1 1:0.23864621 2:0.13223495 3:0.083719574 4:-0.70978016 5:0.18648103 11:-0.12426194 12:-0.37102681 13:-0.3767873 14:1.2837219 15:-0.18020149 16:0.22552896 17:-0.21651228 18:0.10502776 19:-0.66949391 20:0.23316118 21:0.21897525 22:-0.74327302 23:0.55515897 24:0.40644139 25:0.037363861 26:-0.68683362 27:0.74930984 28:0.11402608 29:0.97145575 30:-0.10883317 31:-1.2187752 32:0.91747278 33:-0.007311238 34:-0.042333908 35:-0.54775083 36:-0.47020212 37:0.23707151 38:0.72744232 39:0.22667858 40:-0.62551361 41:0.24320754 42:1.0701492 44:0.27623025 45:-0.081696108 46:-0.48258439 #
