SVM-light Version V6.20
0 # kernel type
3 # kernel parameter -d 
1 # kernel parameter -g 
1 # kernel parameter -s 
1 # kernel parameter -r 
empty# kernel parameter -u 
47 # highest feature index 
66 # number of training documents 
2 # number of support vectors plus 1 
0 # threshold b, each following line is a SV (starting with alpha*y)
1 1:-0.79846686 2:0.21951807 3:-0.16973056 4:-1.1857907 5:-0.37038288 11:-0.3196733 12:-0.83808756 13:-0.042848609 14:-0.41738087 15:0.049019571 16:-0.035948008 17:-0.13449883 18:-0.42968264 19:-0.75130641 20:-0.035082497 21:0.12960625 22:-0.19167063 23:1.3407972 24:1.2379702 25:0.39925742 26:-0.73968476 27:-0.10687182 28:-0.11914953 29:-0.068018407 30:-0.96331447 31:-0.013464431 32:1.3780988 33:-0.014794836 34:-0.090488218 35:0.34488311 36:-0.013334415 37:0.5653401 38:-0.54762292 39:0.77828646 40:0.72610736 41:0.15827499 42:-0.64370269 44:-0.64016962 45:-0.0547968 46:-0.43650615 #
