SVM-light Version V6.20
0 # kernel type
3 # kernel parameter -d 
1 # kernel parameter -g 
1 # kernel parameter -s 
1 # kernel parameter -r 
empty# kernel parameter -u 
47 # highest feature index 
61 # number of training documents 
2 # number of support vectors plus 1 
0 # threshold b, each following line is a SV (starting with alpha*y)
1 1:0.046664562 2:0.55541772 3:-0.25934073 4:0.52561873 5:-0.010589346 11:0.11139593 12:-0.75931752 13:-0.24509117 14:-0.64299345 15:-0.03111132 16:-0.15130092 17:-0.33743763 18:-0.25551441 19:-0.16182412 20:-0.12069581 21:0.89295888 22:-0.22414787 23:0.98606992 24:-0.45353696 25:0.29478607 26:-0.39275604 27:0.58180767 28:-0.037105601 29:-0.123094 30:0.63172495 31:0.12708126 32:0.079911925 33:-0.08016891 34:0.005750082 35:0.40181828 36:0.37981221 37:-0.6022107 38:0.35410488 39:0.37604949 40:0.0063544004 41:-0.15793237 42:-0.041294076 44:0.064042956 45:-0.14667024 46:0.18035968 #
