SVM-light Version V6.20
0 # kernel type
3 # kernel parameter -d 
1 # kernel parameter -g 
1 # kernel parameter -s 
1 # kernel parameter -r 
empty# kernel parameter -u 
47 # highest feature index 
62 # number of training documents 
2 # number of support vectors plus 1 
0 # threshold b, each following line is a SV (starting with alpha*y)
1 1:-0.29307443 2:-0.28233626 3:0.87982816 4:-0.094957754 5:-0.31312579 11:0.3097038 12:-0.05405204 13:-0.84659457 14:-0.24035919 15:0.1846835 16:0.049171962 17:-0.33843786 18:-0.024146121 19:-0.040995434 20:0.070588373 21:-0.22620782 22:-0.085038938 23:1.4842366 24:0.42972785 25:0.39849585 26:-0.12969591 27:0.36565265 28:0.26244384 29:0.52799141 30:-0.62095338 31:0.080019526 32:0.52552694 33:0.29986989 34:0.47828537 35:0.11855659 36:-0.85049164 37:0.28501248 38:-0.58787769 39:0.61009359 40:-0.16016452 41:0.010046997 42:-0.030442195 44:0.1382293 45:-0.2374676 46:-0.33148488 #
