SVM-light Version V6.20
0 # kernel type
3 # kernel parameter -d 
1 # kernel parameter -g 
1 # kernel parameter -s 
1 # kernel parameter -r 
empty# kernel parameter -u 
47 # highest feature index 
65 # number of training documents 
2 # number of support vectors plus 1 
0 # threshold b, each following line is a SV (starting with alpha*y)
1 1:0.1084253 2:0.28620419 3:-0.24993888 4:-0.42435932 5:0.18705353 11:-0.10368043 12:-0.64707708 13:-0.071384072 14:-0.18997318 15:-0.25668883 16:-0.012074401 17:-0.1568695 18:0.16397475 19:-0.7746436 20:0.0028161674 21:0.9038052 22:-0.62221915 23:1.3531889 24:-0.5130778 25:0.5822314 26:-0.74284565 27:0.022408815 28:0.71496874 29:0.0773701 30:-0.069747709 31:-0.29776314 32:0.86031163 33:0.76014197 34:0.087802596 35:-0.47370124 36:0.1376975 37:0.42790392 38:-0.025281101 39:0.64828783 40:-0.12406954 41:0.26321748 42:-0.058027379 44:0.2370837 45:0.0030273693 46:-0.12885475 #
