SVM-light Version V6.20
0 # kernel type
3 # kernel parameter -d 
1 # kernel parameter -g 
1 # kernel parameter -s 
1 # kernel parameter -r 
empty# kernel parameter -u 
47 # highest feature index 
62 # number of training documents 
2 # number of support vectors plus 1 
0 # threshold b, each following line is a SV (starting with alpha*y)
1 1:0.058783237 2:-0.21772581 3:0.13474064 4:-0.57805014 5:0.062653914 11:-0.039509341 12:-0.1823557 13:-0.055864789 14:0.074921943 15:-0.11918174 16:0.068514176 17:-0.073280685 18:0.084702499 19:-0.04821007 20:0.06680537 21:0.24505049 22:-0.14003575 23:1.8329656 24:0.46148783 25:0.47835815 26:-0.078903794 27:0.25324881 28:0.37029037 29:0.46421108 30:-0.22249995 31:-0.23416057 32:0.41558436 33:0.40473059 34:0.41018724 35:0.17277244 36:-0.56174695 37:0.16671307 38:-0.60877728 39:1.0081257 40:-0.3231948 41:-0.22850433 42:-0.17027569 44:0.12054892 45:-0.40945852 46:-0.43419698 #
