SVM-light Version V6.20
0 # kernel type
3 # kernel parameter -d 
1 # kernel parameter -g 
1 # kernel parameter -s 
1 # kernel parameter -r 
empty# kernel parameter -u 
47 # highest feature index 
68 # number of training documents 
2 # number of support vectors plus 1 
0 # threshold b, each following line is a SV (starting with alpha*y)
1 1:-0.37864098 2:-0.1645035 3:0.44661802 4:0.38218087 5:-0.17475724 11:-0.2172695 12:-0.33552048 13:-0.22558776 14:-0.58875453 15:0.029160451 16:0.12134369 17:-0.12415247 18:-0.049867265 19:-0.17796674 20:0.13740221 21:-0.017535483 22:0.19495894 23:1.6254936 24:0.43287709 25:0.61118251 26:-0.52711195 27:0.6887635 28:0.31189156 29:0.3658458 30:-0.43946603 31:0.12454717 32:0.23388864 33:-0.055844743 34:0.096088484 35:0.61072409 36:-0.40315926 37:0.0068229004 38:-0.69901299 39:0.95270073 40:-0.55130881 41:-0.13057794 42:-0.14618692 44:-0.088065349 45:-0.054158755 46:-0.37523064 #
