SVM-light Version V6.20
0 # kernel type
3 # kernel parameter -d 
1 # kernel parameter -g 
1 # kernel parameter -s 
1 # kernel parameter -r 
empty# kernel parameter -u 
47 # highest feature index 
59 # number of training documents 
2 # number of support vectors plus 1 
0 # threshold b, each following line is a SV (starting with alpha*y)
1 1:0.037246469 2:-0.1752134 3:0.33324111 4:-0.023873454 5:0.032061387 11:-0.067429341 12:-0.2747131 13:-0.47627947 14:-0.14360885 15:-0.050498169 16:-0.045618996 17:-0.079783574 18:-0.017356792 19:-0.43119082 20:-0.036589373 21:-0.14579734 22:-0.48822403 23:1.8699117 24:0.010196669 25:0.56598324 26:-0.5392521 27:0.33625606 28:0.63526559 29:0.45283911 30:-0.47836816 31:-0.13738893 32:0.86255878 33:0.20417164 34:-0.0011360206 35:0.21870534 36:-0.19138724 37:0.20031063 38:0.022374533 39:1.3468177 40:-0.07767535 41:0.16431069 42:-0.17888118 44:0.037116669 45:-0.25263825 46:-0.27655801 #
