SVM-light Version V6.20
0 # kernel type
3 # kernel parameter -d 
1 # kernel parameter -g 
1 # kernel parameter -s 
1 # kernel parameter -r 
empty# kernel parameter -u 
47 # highest feature index 
62 # number of training documents 
2 # number of support vectors plus 1 
0 # threshold b, each following line is a SV (starting with alpha*y)
1 1:-0.33936515 2:-0.012817091 3:0.97009206 4:-0.02000344 5:0.15181394 11:0.12713464 12:-0.85045904 13:-1.2537305 14:-1.2310901 15:0.56541264 16:0.098213233 17:-0.41502178 18:0.56414741 19:-1.0092324 20:0.11704849 21:-0.33166423 22:0.61983502 23:-1.1018776 24:-0.32238537 25:0.64302891 26:-1.7049693 27:0.47741354 28:1.2370548 29:0.50068611 30:-0.30660203 31:-0.35709393 32:-0.18742856 33:1.0220292 34:0.059806395 35:-0.89998704 36:0.71352595 37:0.82330567 38:1.4991058 39:-0.14364938 40:-0.44477531 41:0.095506288 42:0.73134929 44:-0.26482236 45:0.62683886 46:0.41067031 #
