SVM-light Version V6.20
0 # kernel type
3 # kernel parameter -d 
1 # kernel parameter -g 
1 # kernel parameter -s 
1 # kernel parameter -r 
empty# kernel parameter -u 
47 # highest feature index 
63 # number of training documents 
2 # number of support vectors plus 1 
0 # threshold b, each following line is a SV (starting with alpha*y)
1 1:-0.026072768 2:-0.018262012 3:0.33506957 4:-0.069407173 5:0.019143624 11:0.069804884 12:-0.2544122 13:-0.37125948 14:-0.44448918 15:-0.080246903 16:-0.075335875 17:0.14585011 18:-0.23004366 19:-0.42876756 20:-0.070485175 21:0.37791055 22:-0.5389207 23:1.8251503 24:0.16472785 25:0.52156544 26:-0.018470783 27:-0.24361248 28:0.17274614 29:0.35948017 30:-0.53936464 31:-0.20556729 32:1.0318155 33:0.69608623 34:0.095632166 35:-0.38289094 36:0.057808891 37:0.010399313 38:-0.6144141 39:0.87756628 40:0.28608012 41:0.20317805 42:-0.20334998 44:0.28236255 45:-0.20370373 46:-0.33341375 #
