SVM-light Version V6.20
0 # kernel type
3 # kernel parameter -d 
1 # kernel parameter -g 
1 # kernel parameter -s 
1 # kernel parameter -r 
empty# kernel parameter -u 
47 # highest feature index 
64 # number of training documents 
2 # number of support vectors plus 1 
0 # threshold b, each following line is a SV (starting with alpha*y)
1 1:-0.29864717 2:-0.72616547 3:-0.037409004 4:-0.0020620991 5:-0.15225311 11:0.11794871 12:0.27734429 13:0.68932074 14:0.72187382 15:-0.2810218 16:0.23074093 17:-0.040450633 18:-0.41851822 19:-0.033518873 20:0.24177372 21:-0.71293801 22:1.0942731 23:0.87835044 24:-0.095964596 25:0.9850319 26:-0.38756129 27:-0.1578526 28:0.4276903 29:-0.27958778 30:-0.67358691 31:0.49360806 32:0.046792392 33:-0.46014419 34:-0.57768279 35:0.57237113 36:-0.020805608 37:-0.25178522 38:0.045274209 39:1.0638429 40:-1.1099994 41:-0.0827711 42:-0.1945127 44:-0.036765482 45:0.10143445 46:0.011755618 #
