SVM-light Version V6.20
0 # kernel type
3 # kernel parameter -d 
1 # kernel parameter -g 
1 # kernel parameter -s 
1 # kernel parameter -r 
empty# kernel parameter -u 
47 # highest feature index 
61 # number of training documents 
2 # number of support vectors plus 1 
0 # threshold b, each following line is a SV (starting with alpha*y)
1 1:-0.19799834 2:0.96662605 3:0.046563439 4:-0.19903871 5:-0.015483375 11:-0.40482622 12:-1.1462243 13:-0.083413549 14:-0.29527414 15:-0.11615741 16:-0.025874812 17:-0.80282462 18:0.015219076 19:-0.085409708 20:0.014185059 21:1.1002481 22:-0.97330916 23:0.73558444 24:0.038024206 25:0.42570308 26:0.42437536 27:-0.1558412 28:-0.12548386 29:-0.43784726 30:-0.18307462 31:0.05036626 32:0.54058307 33:0.1421483 34:-0.0671544 35:0.45704311 36:0.046780616 37:0.66774237 38:-1.4342164 39:0.27525872 40:0.49214157 41:0.12924406 42:-0.42839614 44:-0.23052926 45:0.36910743 46:-0.14721608 #
