SVM-light Version V6.20
0 # kernel type
3 # kernel parameter -d 
1 # kernel parameter -g 
1 # kernel parameter -s 
1 # kernel parameter -r 
empty# kernel parameter -u 
47 # highest feature index 
60 # number of training documents 
2 # number of support vectors plus 1 
0 # threshold b, each following line is a SV (starting with alpha*y)
1 1:-0.28735819 2:0.35114273 3:0.4376184 4:-0.30988404 5:-0.1849432 11:-0.27371308 12:-1.1253923 13:-0.7070899 14:-0.51459998 15:-0.31357104 16:0.010583131 17:0.24539857 18:-0.21767578 19:-0.30629832 20:0.013637548 21:0.37856671 22:-0.6978175 23:1.6154735 24:0.78848648 25:0.70815533 26:-0.16968295 27:-0.6728707 28:0.20246984 29:0.34648645 30:-0.057507969 31:-0.16120695 32:0.59434217 33:0.39899895 34:-0.19936794 35:-0.22047998 36:-0.57392067 37:0.19032565 38:-0.69096661 39:1.4839242 40:0.4417665 41:-0.15185432 42:-0.093507148 44:-0.062321689 45:-0.4045943 46:-0.17833452 #
