SVM-light Version V6.20
0 # kernel type
3 # kernel parameter -d 
1 # kernel parameter -g 
1 # kernel parameter -s 
1 # kernel parameter -r 
empty# kernel parameter -u 
47 # highest feature index 
63 # number of training documents 
2 # number of support vectors plus 1 
0 # threshold b, each following line is a SV (starting with alpha*y)
1 1:-0.12823644 2:0.43873134 3:0.23251557 4:-0.3501949 5:-0.16794281 11:0.23602609 12:0.073712394 13:0.41180924 14:0.40019068 15:-0.00020177709 16:0.2098837 17:-0.33433995 18:-0.29617029 19:0.12630208 20:0.21093893 21:-0.91282964 22:0.21097226 23:0.49447116 24:0.059709508 25:0.19069488 26:-0.71440768 27:-0.65351921 28:1.0602995 29:-0.31354877 30:-0.60410899 31:0.50819486 32:0.15009905 33:-0.47938064 34:-0.26980624 35:1.1959943 36:-0.78745645 37:0.9208762 38:-0.065504566 39:0.36951867 40:0.2791521 41:-0.20198397 42:-0.35690841 44:-0.27549416 45:0.18721367 46:-0.22237746 #
