SVM-light Version V6.20
0 # kernel type
3 # kernel parameter -d 
1 # kernel parameter -g 
1 # kernel parameter -s 
1 # kernel parameter -r 
empty# kernel parameter -u 
47 # highest feature index 
60 # number of training documents 
2 # number of support vectors plus 1 
0 # threshold b, each following line is a SV (starting with alpha*y)
1 1:-0.093884833 2:-0.92569292 3:-0.052822832 4:-0.10608595 5:0.025192762 11:-0.42877567 12:0.68933046 13:-0.17805065 14:-0.18789244 15:-0.44278821 16:0.10931095 17:0.16032831 18:-0.1022682 19:0.46536881 20:0.13955116 21:0.70603687 22:-0.13858102 23:1.6200378 24:-0.34794781 25:0.012993853 26:-0.090638794 27:-0.27181172 28:0.27926677 29:0.69347429 30:0.36466599 31:0.40346107 32:-0.42917976 33:0.18144956 34:-0.15684964 35:-0.28732067 36:0.44986606 37:-0.26106918 38:0.041586384 39:0.038924526 40:-0.21838491 41:-0.42206535 42:-0.64839643 44:-0.25894725 45:0.043548036 46:-0.44209823 #
