SVM-light Version V6.20
0 # kernel type
3 # kernel parameter -d 
1 # kernel parameter -g 
1 # kernel parameter -s 
1 # kernel parameter -r 
empty# kernel parameter -u 
47 # highest feature index 
61 # number of training documents 
2 # number of support vectors plus 1 
0 # threshold b, each following line is a SV (starting with alpha*y)
1 1:0.11533686 2:0.51435965 3:-0.075021125 4:-0.60531503 5:0.010938274 11:0.10686308 12:-0.23374033 13:0.45231035 14:0.52719057 15:-0.084529333 16:0.11943872 17:-0.35800552 18:0.19998953 19:0.32787812 20:0.12104241 21:-0.083564185 22:-0.065623648 23:0.93495983 24:-0.36279184 25:0.45315427 26:0.30299136 27:-0.12190616 28:-0.28553581 29:-0.250112 30:0.10795083 31:-0.07544855 32:0.4001036 33:-0.51227516 34:0.26039267 35:0.12149067 36:-0.022992065 37:-0.65848929 38:0.8615936 39:0.76982331 40:-0.71541679 41:-0.54876387 42:-0.41863108 44:0.0040746843 45:-0.34156385 46:-0.049154453 #
