SVM-light Version V6.20
0 # kernel type
3 # kernel parameter -d 
1 # kernel parameter -g 
1 # kernel parameter -s 
1 # kernel parameter -r 
empty# kernel parameter -u 
47 # highest feature index 
65 # number of training documents 
2 # number of support vectors plus 1 
0 # threshold b, each following line is a SV (starting with alpha*y)
1 1:0.066992261 2:-0.89382184 3:-0.47342283 4:-1.2238305 5:0.12398548 11:-0.11844493 12:0.64780051 13:0.34151968 14:-0.045341585 15:-0.20629597 16:0.054749683 17:-0.35514408 18:-0.15640077 19:-0.70156425 20:0.05629338 21:-0.083123811 22:-0.1884378 23:0.90242636 24:-0.021649329 25:0.34762484 26:0.37553123 27:-0.28770229 28:-0.17183255 29:0.28163788 30:-0.90741891 31:0.21610248 32:1.1138927 33:1.4654504 34:-0.6873256 35:-0.048394173 36:0.34453532 37:0.085817352 38:-0.30360115 39:0.48125327 40:0.66241187 41:0.043781802 42:-0.019727388 44:0.096433856 45:0.23389308 46:-0.11923926 #
