SVM-light Version V6.20
0 # kernel type
3 # kernel parameter -d 
1 # kernel parameter -g 
1 # kernel parameter -s 
1 # kernel parameter -r 
empty# kernel parameter -u 
47 # highest feature index 
62 # number of training documents 
2 # number of support vectors plus 1 
0 # threshold b, each following line is a SV (starting with alpha*y)
1 1:-0.21645422 2:-0.60373503 3:0.57830691 4:0.063200645 5:-0.1861406 11:-0.0062117511 12:0.35325444 13:-0.4349004 14:0.34546313 15:-0.1808195 16:0.19544332 17:-0.19378889 18:0.0015149065 19:-0.53376848 20:0.19106294 21:0.2030796 22:-0.9139778 23:1.3209274 24:-0.012642134 25:0.64669329 26:-0.38942906 27:0.56216615 28:0.032218732 29:0.35163748 30:0.026511807 31:-0.63913083 32:0.45174858 33:-0.49769983 34:0.18265003 35:0.0028345669 36:-0.19833311 37:0.4582715 38:-0.15503629 39:1.2714074 40:-0.27566755 41:-0.079830937 42:0.32904682 44:-0.15162329 45:-0.20804803 46:-0.12856266 #
