SVM-light Version V6.20
0 # kernel type
3 # kernel parameter -d 
1 # kernel parameter -g 
1 # kernel parameter -s 
1 # kernel parameter -r 
empty# kernel parameter -u 
47 # highest feature index 
63 # number of training documents 
2 # number of support vectors plus 1 
0 # threshold b, each following line is a SV (starting with alpha*y)
1 1:0.13768275 2:-0.098069958 3:0.8635276 4:0.060009643 5:0.15013152 11:-0.057277713 12:-0.19104728 13:-0.84040654 14:-0.61945271 15:0.01039699 16:-0.13759293 17:0.2631337 18:-0.45916554 19:-0.12590843 20:-0.11083743 21:0.029012334 22:-0.084110044 23:0.84513658 24:0.24966922 25:-0.10794733 26:0.71945649 27:-0.4731276 28:0.22545382 29:0.58861679 30:-0.27055243 31:0.094055735 32:0.38226387 33:0.49035051 34:0.66553736 35:-0.43080914 36:-0.098147109 37:0.24636626 38:-1.0744486 39:1.2528522 40:-0.13115196 41:-0.011381835 42:-0.22853614 44:-0.071095668 45:-0.45210648 46:0.039259356 #
