SVM-light Version V6.20
0 # kernel type
3 # kernel parameter -d 
1 # kernel parameter -g 
1 # kernel parameter -s 
1 # kernel parameter -r 
empty# kernel parameter -u 
47 # highest feature index 
64 # number of training documents 
2 # number of support vectors plus 1 
0 # threshold b, each following line is a SV (starting with alpha*y)
1 1:-0.20936412 2:-0.33790332 3:0.46383783 4:-0.21581016 5:-0.058203526 11:0.01973095 12:-0.055190183 13:0.080959201 14:-0.87492526 15:0.020054845 16:0.23740613 17:-0.20212993 18:-0.22804508 19:-0.40999416 20:0.25576481 21:-0.26103371 22:0.5277921 23:1.3894788 24:-0.59493107 25:0.11188478 26:-0.10041472 27:0.016211899 28:0.41401777 29:-0.29811642 30:-0.057972346 31:-0.049539808 32:0.60666496 33:0.7363922 34:0.31300837 35:0.63397884 36:-0.62781405 37:0.015556932 38:-0.39440826 39:0.76120585 40:0.37994623 41:-0.13067377 42:-0.10414882 44:0.11928742 45:0.65231001 46:-0.38951853 #
