SVM-light Version V6.20
0 # kernel type
3 # kernel parameter -d 
1 # kernel parameter -g 
1 # kernel parameter -s 
1 # kernel parameter -r 
empty# kernel parameter -u 
47 # highest feature index 
69 # number of training documents 
2 # number of support vectors plus 1 
0 # threshold b, each following line is a SV (starting with alpha*y)
1 1:-0.31466031 2:0.12943321 3:0.88126498 4:-0.071553916 5:0.029336369 11:-0.15678249 12:0.0056609521 13:0.054793306 14:0.093735471 15:-0.04243046 16:0.039885413 17:0.075311646 18:-0.7469402 19:0.17863265 20:0.079857834 21:0.057096094 22:1.3925939 23:0.29905096 24:-0.30403087 25:-0.32637957 26:-0.40649414 27:-0.44466457 28:0.58496898 29:-0.63940835 30:-0.40568808 31:0.82942075 32:-0.5296061 33:0.038477015 34:0.15765224 35:0.2370045 36:-0.61740506 37:-0.19014512 38:-0.54781008 39:0.68626362 40:-0.053402614 41:0.19517793 42:-0.94302356 44:-0.41601869 45:0.16167235 46:0.32451287 #
