SVM-light Version V6.20
0 # kernel type
3 # kernel parameter -d 
1 # kernel parameter -g 
1 # kernel parameter -s 
1 # kernel parameter -r 
empty# kernel parameter -u 
47 # highest feature index 
65 # number of training documents 
2 # number of support vectors plus 1 
0 # threshold b, each following line is a SV (starting with alpha*y)
1 1:0.018119555 2:-0.90407056 3:-0.18338342 4:0.010080131 5:-0.33012509 11:0.68168294 12:0.8429026 13:-0.06288252 14:-0.16193008 15:0.0084143216 16:0.11975587 17:-0.3544327 18:0.40146834 19:-0.057825848 20:0.094923221 21:-0.19052862 22:-0.023253515 23:0.71909642 24:-0.013513874 25:-0.20328178 26:-0.32137218 27:0.58582628 28:0.034088444 29:0.27010086 30:1.0609479 31:-0.73501658 32:0.15190618 33:0.23884973 34:0.33669984 35:0.33947998 36:-0.25448185 37:-0.095487811 38:0.049890038 39:0.34581852 40:0.21921611 41:0.53913593 42:-0.20083146 44:0.1922379 45:0.11306068 46:-0.39609319 #
