SVM-light Version V6.20
0 # kernel type
3 # kernel parameter -d 
1 # kernel parameter -g 
1 # kernel parameter -s 
1 # kernel parameter -r 
empty# kernel parameter -u 
47 # highest feature index 
64 # number of training documents 
2 # number of support vectors plus 1 
0 # threshold b, each following line is a SV (starting with alpha*y)
1 1:-0.011642474 2:0.35702124 3:0.27768719 4:-0.19824356 5:-0.11013864 11:0.034834549 12:-0.70739454 13:-0.49687231 14:0.68873006 15:-0.014736724 16:0.14025287 17:-0.35097277 18:-0.12376936 19:0.42895368 20:0.14496356 21:0.13687544 22:0.26856595 23:1.086695 24:0.24569015 25:0.44074693 26:0.15973155 27:-0.26332092 28:0.4936932 29:0.21991527 30:-0.030415129 31:0.20532966 32:0.14306533 33:-0.24374169 34:-0.13642323 35:1.0109665 36:-1.5270538 37:0.50162488 38:-0.61041021 39:0.45923752 40:-0.76044762 41:-0.3906799 42:-0.45777366 44:0.2236281 45:-0.35910213 46:0.095004834 #
