SVM-light Version V6.20
0 # kernel type
3 # kernel parameter -d 
1 # kernel parameter -g 
1 # kernel parameter -s 
1 # kernel parameter -r 
empty# kernel parameter -u 
47 # highest feature index 
61 # number of training documents 
2 # number of support vectors plus 1 
0 # threshold b, each following line is a SV (starting with alpha*y)
1 1:0.54525948 2:-0.38022456 3:0.068746269 4:-0.099020392 5:0.25080577 11:0.025535775 12:0.41705102 13:0.14986284 14:-0.59954607 15:-0.37227324 16:-0.045742966 17:-0.70242184 18:0.089451015 19:0.57537442 20:-0.029754834 21:-0.029843617 22:0.00031987362 23:0.48517203 24:0.1390869 25:1.1574844 26:-1.5402322 27:0.1545376 28:0.6002236 29:0.12155538 30:0.58703172 31:-0.036962546 32:-0.29119194 33:0.39958557 34:-0.81717145 35:0.33510336 36:0.30117497 37:0.36097819 38:-0.3635478 39:0.44924283 40:-0.62452519 41:-0.03284074 42:-0.87751353 44:0.48976582 45:-0.08700265 46:-0.24019898 #
