SVM-light Version V6.20
0 # kernel type
3 # kernel parameter -d 
1 # kernel parameter -g 
1 # kernel parameter -s 
1 # kernel parameter -r 
empty# kernel parameter -u 
47 # highest feature index 
63 # number of training documents 
2 # number of support vectors plus 1 
0 # threshold b, each following line is a SV (starting with alpha*y)
1 1:0.1017956 2:-0.074578889 3:0.052830674 4:-0.13566288 5:0.020023469 11:0.25354335 12:-0.75372314 13:-0.18926974 14:0.43770653 15:-0.17365351 16:-0.091895364 17:0.3255825 18:-0.2939465 19:-0.45779309 20:-0.090455547 21:-0.39787444 22:-0.84258407 23:1.1593446 24:0.073867954 25:0.46834245 26:-0.44865745 27:0.29143786 28:0.41525412 29:0.66003591 30:-0.23556979 31:0.11418603 32:0.13002886 33:-0.30345184 34:-0.89655548 35:-0.18363191 36:1.0379524 37:0.64984369 38:0.010872021 39:0.67913181 40:0.24145071 41:0.13307211 42:-0.10263266 44:-0.10754301 45:-0.10053518 46:0.31864691 #
