SVM-light Version V6.20
0 # kernel type
3 # kernel parameter -d 
1 # kernel parameter -g 
1 # kernel parameter -s 
1 # kernel parameter -r 
empty# kernel parameter -u 
47 # highest feature index 
63 # number of training documents 
2 # number of support vectors plus 1 
0 # threshold b, each following line is a SV (starting with alpha*y)
1 1:0.33260578 2:0.027479023 3:-0.0018061803 4:0.071997143 5:0.22761506 11:0.04878341 12:-0.23406073 13:-0.19274949 14:-0.073133394 15:-0.1958617 16:-0.28567174 17:-0.071637765 18:0.18125317 19:-0.12561589 20:-0.27738988 21:0.23697914 22:-0.40776667 23:1.121635 24:0.058946148 25:0.36784279 26:-0.029193766 27:0.16942476 28:0.28083414 29:0.33161223 30:-0.3605161 31:0.056659937 32:0.64186257 33:-0.20801722 34:-0.0030824521 35:-0.13078415 36:0.31580067 37:0.49641591 38:-0.67540479 39:1.3847576 40:0.2525793 41:0.0096292263 42:-0.17665896 44:0.082572021 45:-0.26082703 46:-0.059246372 #
