SVM-light Version V6.20
0 # kernel type
3 # kernel parameter -d 
1 # kernel parameter -g 
1 # kernel parameter -s 
1 # kernel parameter -r 
empty# kernel parameter -u 
47 # highest feature index 
66 # number of training documents 
2 # number of support vectors plus 1 
0 # threshold b, each following line is a SV (starting with alpha*y)
1 1:-0.16786252 2:0.20357828 3:0.28485551 4:-0.87799591 5:-0.11730336 11:-0.18315414 12:-0.267676 13:-0.40669423 14:0.14763308 15:-0.14259063 16:0.17495129 17:-0.28514814 18:-0.069009922 19:0.18200023 20:0.18549705 21:0.45733759 22:-0.24776074 23:1.3936783 24:0.60280848 25:0.13754432 26:-0.16574995 27:0.36063513 28:0.47116929 29:0.41509277 30:-0.25401348 31:0.1641573 32:0.1734294 33:0.57309186 34:-0.49624926 35:0.23751265 36:0.1747828 37:-0.0068831393 38:-0.34959713 39:0.67215824 40:-0.27740765 41:0.012291632 42:-0.28485015 44:0.098350257 45:-0.57793397 46:-0.30568382 #
