SVM-light Version V6.20
0 # kernel type
3 # kernel parameter -d 
1 # kernel parameter -g 
1 # kernel parameter -s 
1 # kernel parameter -r 
empty# kernel parameter -u 
47 # highest feature index 
66 # number of training documents 
2 # number of support vectors plus 1 
0 # threshold b, each following line is a SV (starting with alpha*y)
1 1:-0.080461249 2:0.26824012 3:0.78258222 4:-0.56353515 5:-0.21315305 11:0.15241568 12:-0.81003106 13:-0.81920213 14:0.61004055 15:-0.10655963 16:0.075457662 17:-0.086133622 18:-0.08563149 19:0.17454417 20:0.060259238 21:0.064521 22:-0.97369808 23:1.314935 24:0.65770948 25:0.48345703 26:0.21411827 27:0.16793162 28:0.16024703 29:0.34922394 30:-0.24702333 31:0.5057162 32:-0.14769766 33:0.042927586 34:0.2439328 35:-0.86939245 36:0.40204471 37:0.017634569 38:-0.26689339 39:0.70591426 40:-0.0042865793 41:0.030294651 42:-0.40887806 44:0.17781733 45:-0.42747381 46:-0.45963126 #
