SVM-light Version V6.20
0 # kernel type
3 # kernel parameter -d 
1 # kernel parameter -g 
1 # kernel parameter -s 
1 # kernel parameter -r 
empty# kernel parameter -u 
47 # highest feature index 
63 # number of training documents 
2 # number of support vectors plus 1 
0 # threshold b, each following line is a SV (starting with alpha*y)
1 1:-0.61304754 2:-0.18158336 3:0.58060938 4:-0.86045396 5:-0.42850462 11:-0.039838854 12:-0.71151501 13:-0.64581615 14:-0.6551469 15:0.13251449 16:-0.082875833 17:-0.095548712 18:-0.21148145 19:-0.063690461 20:-0.091240898 21:0.23491535 22:-0.059496626 23:0.76586014 24:0.65940094 25:0.41873276 26:-0.69637269 27:-0.097281165 28:-0.11502385 29:0.24999017 30:-0.49841246 31:0.2615048 32:0.14981078 33:0.45975876 34:-0.38059443 35:-0.18067344 36:-0.077035643 37:0.015542782 38:0.16134679 39:0.65962976 40:1.0300652 41:-0.079772264 42:-0.57262397 44:-0.68156189 45:0.064621314 46:0.05318493 #
