SVM-light Version V6.20
0 # kernel type
3 # kernel parameter -d 
1 # kernel parameter -g 
1 # kernel parameter -s 
1 # kernel parameter -r 
empty# kernel parameter -u 
47 # highest feature index 
65 # number of training documents 
2 # number of support vectors plus 1 
0 # threshold b, each following line is a SV (starting with alpha*y)
1 1:-0.17783026 2:-0.0015331298 3:-0.067963511 4:-0.055485431 5:-0.061941594 11:-0.049742002 12:-0.64747274 13:-0.1621743 14:-0.18649471 15:-0.064907596 16:0.16720487 17:0.2715081 18:5.3294876e-05 19:-0.39224952 20:0.19277625 21:0.42728114 22:-0.26013699 23:1.4938461 24:0.14480512 25:0.48252824 26:-0.3482838 27:0.01817818 28:0.76657873 29:0.34354159 30:-0.09509068 31:-0.051548488 32:0.42173621 33:0.35795096 34:-0.22111599 35:-0.19839111 36:0.2134223 37:0.44346449 38:-0.50927573 39:0.82800633 40:-0.051259674 41:0.32409847 42:-0.51144028 44:-0.10961769 45:-0.272901 46:-0.23559394 #
