SVM-light Version V6.20
0 # kernel type
3 # kernel parameter -d 
1 # kernel parameter -g 
1 # kernel parameter -s 
1 # kernel parameter -r 
empty# kernel parameter -u 
47 # highest feature index 
67 # number of training documents 
2 # number of support vectors plus 1 
0 # threshold b, each following line is a SV (starting with alpha*y)
1 1:0.14525484 2:-0.020804288 3:0.11649885 4:-0.50657946 5:0.24260144 11:-0.1008297 12:-0.63619506 13:0.1255623 14:-0.49742088 15:-0.17972554 16:-0.086706549 17:0.19050516 18:-0.35279059 19:-0.74224907 20:-0.078535222 21:0.82266986 22:-1.0602223 23:1.5744201 24:-0.20090248 25:0.20467629 26:-0.51567429 27:0.18566965 28:1.0642123 29:0.30384743 30:-0.42067781 31:0.17446992 32:0.22558236 33:1.0724236 34:-0.0049203178 35:-0.33018857 36:0.19765185 37:0.34091631 38:-0.63747776 39:0.79625398 40:0.44270927 41:0.057222262 42:0.28698945 44:-0.076347716 45:-0.053846013 46:0.080614001 #
