SVM-light Version V6.20
0 # kernel type
3 # kernel parameter -d 
1 # kernel parameter -g 
1 # kernel parameter -s 
1 # kernel parameter -r 
empty# kernel parameter -u 
47 # highest feature index 
63 # number of training documents 
2 # number of support vectors plus 1 
0 # threshold b, each following line is a SV (starting with alpha*y)
1 1:-0.27846739 2:-0.17631246 3:0.49994293 4:-0.89676541 5:-0.18634175 11:0.19660619 12:-0.20981036 13:-0.30482322 14:0.19747244 15:0.032376338 16:0.1154293 17:-0.17565954 18:-0.21640676 19:0.22491027 20:0.13360107 21:-0.26733056 22:-0.20358738 23:1.4502594 24:-0.15570766 25:0.50089496 26:-0.8463344 27:0.095122926 28:0.93801576 29:0.29960835 30:0.039711084 31:-0.015597297 32:-0.13513795 33:0.62675875 34:-0.63092494 35:0.069482334 36:0.33841762 37:0.59486455 38:-0.24795929 39:0.49117741 40:0.26971924 41:0.24174963 42:-0.42843014 44:0.11181611 45:0.05179172 46:0.037301194 #
