SVM-light Version V6.20
0 # kernel type
3 # kernel parameter -d 
1 # kernel parameter -g 
1 # kernel parameter -s 
1 # kernel parameter -r 
empty# kernel parameter -u 
47 # highest feature index 
59 # number of training documents 
2 # number of support vectors plus 1 
0 # threshold b, each following line is a SV (starting with alpha*y)
1 1:0.13974559 2:-0.085271858 3:-0.51083934 4:-0.029777311 5:-0.095419571 11:-0.25408855 12:-0.1158051 13:-0.59097224 14:-0.0033977674 15:-0.49144453 16:0.13310359 17:0.86548859 18:0.23258595 19:-0.93723547 20:0.13788453 21:0.7954011 22:0.3072069 23:-0.25406048 24:-0.8213734 25:-0.22845651 26:-0.40745369 27:0.16873837 28:0.2554827 29:1.0108604 30:1.2540197 31:0.029426843 32:-1.2896861 33:-0.043806244 34:0.19078153 35:-0.42160478 36:0.27309233 37:0.13356359 38:0.9241789 39:-0.2888473 40:-0.42923909 41:-0.087956317 42:0.7470479 44:0.15341324 45:0.095719449 46:-0.088524178 #
