SVM-light Version V6.20
0 # kernel type
3 # kernel parameter -d 
1 # kernel parameter -g 
1 # kernel parameter -s 
1 # kernel parameter -r 
empty# kernel parameter -u 
47 # highest feature index 
62 # number of training documents 
2 # number of support vectors plus 1 
0 # threshold b, each following line is a SV (starting with alpha*y)
1 1:-0.34265855 2:-0.25553435 3:0.23702247 4:-0.42236331 5:-0.31831095 11:0.15165494 12:0.34924489 13:0.020068044 14:-0.16960739 15:0.012798582 16:0.24854754 17:0.030424545 18:-0.48606637 19:-0.49187586 20:0.26087362 21:-0.22799785 22:-0.2032681 23:1.1594417 24:-0.045451663 25:0.073233865 26:-0.449357 27:-0.64105171 28:1.1274633 29:-0.011790639 30:0.1828419 31:0.32509851 32:-0.070507511 33:0.20854965 34:-0.79800636 35:1.1970974 36:-0.42675716 37:0.42848054 38:0.060248259 39:0.66805816 40:0.3766129 41:-0.082189396 42:-0.28107125 44:-0.10469118 45:0.092558064 46:-0.15353791 #
