SVM-light Version V6.20
0 # kernel type
3 # kernel parameter -d 
1 # kernel parameter -g 
1 # kernel parameter -s 
1 # kernel parameter -r 
empty# kernel parameter -u 
47 # highest feature index 
61 # number of training documents 
2 # number of support vectors plus 1 
0 # threshold b, each following line is a SV (starting with alpha*y)
1 1:0.088415876 2:-0.030948453 3:0.54501641 4:0.14583607 5:0.032333542 11:-0.45549664 12:-0.52286613 13:-0.52230489 14:-0.80473357 15:-0.49363029 16:0.01607802 17:0.42989382 18:-0.82994795 19:-0.76628345 20:0.034371696 21:0.30161318 22:-0.0054672905 23:0.64747488 24:0.24352691 25:0.091556057 26:0.41242692 27:-0.0015887324 28:-0.0018419989 29:0.045512699 30:-0.42484218 31:-0.2657724 32:0.65957397 33:0.68027884 34:0.098157108 35:-0.47088498 36:0.56697226 37:0.92443061 38:-1.4036605 39:0.69308579 40:-0.51887977 41:0.63718057 42:-0.22847328 44:0.37752119 45:-0.55892777 46:-0.72694635 #
