SVM-light Version V6.20
0 # kernel type
3 # kernel parameter -d 
1 # kernel parameter -g 
1 # kernel parameter -s 
1 # kernel parameter -r 
empty# kernel parameter -u 
47 # highest feature index 
63 # number of training documents 
2 # number of support vectors plus 1 
0 # threshold b, each following line is a SV (starting with alpha*y)
1 1:-0.0083892727 2:0.43027362 3:-0.48513055 4:-0.49490699 5:0.040521052 11:0.018779233 12:-0.83973092 13:0.22033721 14:-0.1099408 15:-0.041760553 16:-0.048409652 17:-0.20760626 18:-0.092080452 19:-0.20241846 20:-0.034054663 21:0.21608342 22:-0.56859255 23:1.4174277 24:0.30219814 25:0.60054761 26:-0.57461309 27:0.1928179 28:0.81719953 29:0.49359196 30:-0.64628756 31:0.19355954 32:0.73767394 33:0.37287161 34:-0.24428347 35:-0.1362209 36:0.42993969 37:0.08820606 38:-0.46647522 39:0.94376111 40:0.23632886 41:0.14045951 42:0.054605506 44:-0.0097737871 45:-0.12207428 46:-0.22028401 #
