SVM-light Version V6.20
0 # kernel type
3 # kernel parameter -d 
1 # kernel parameter -g 
1 # kernel parameter -s 
1 # kernel parameter -r 
empty# kernel parameter -u 
47 # highest feature index 
61 # number of training documents 
2 # number of support vectors plus 1 
0 # threshold b, each following line is a SV (starting with alpha*y)
1 1:-0.042335346 2:0.50896043 3:0.8272655 4:0.5457269 5:-0.1946169 11:-0.12600809 12:-0.44672227 13:-0.74919921 14:-0.13357164 15:-0.29842648 16:-0.02236316 17:-0.23041026 18:0.032868512 19:0.18221226 20:-0.03713952 21:-0.1022631 22:-0.87265569 23:1.3290557 24:-0.10882099 25:0.095998496 26:0.62251633 27:0.29992235 28:-0.43802348 29:0.041783646 30:0.60029918 31:-0.24079001 32:-0.28034508 33:-0.33238471 34:-0.73673368 35:0.2424818 36:0.66263551 37:-0.40135857 38:-0.29415584 39:0.698686 40:0.87741244 41:0.3162629 42:-0.80138534 44:-0.25707686 45:-0.0045537953 46:0.213805 #
