SVM-light Version V6.20
0 # kernel type
3 # kernel parameter -d 
1 # kernel parameter -g 
1 # kernel parameter -s 
1 # kernel parameter -r 
empty# kernel parameter -u 
47 # highest feature index 
65 # number of training documents 
2 # number of support vectors plus 1 
0 # threshold b, each following line is a SV (starting with alpha*y)
1 1:-0.11667643 2:0.11840641 3:0.34061086 4:-0.46205163 5:-0.095901109 11:0.038567133 12:-0.49114966 13:-0.25173306 14:-0.3687723 15:0.043885481 16:0.047872297 17:-0.19692056 18:-0.2000158 19:-0.25542888 20:0.071065418 21:-0.21227241 22:-0.11297294 23:1.6631743 24:0.023805529 25:0.37195113 26:0.0045560719 27:0.38823703 28:0.2413159 29:0.52903736 30:-0.47961959 31:0.097906105 32:0.17719533 33:0.49483249 34:0.16038503 35:-0.043984491 36:-0.081792608 37:0.35747862 38:0.030537976 39:0.94581729 40:-0.37496099 41:0.093439497 42:-0.01793349 44:-0.046823442 45:-0.21473266 46:-0.27843186 #
