SVM-light Version V6.20
0 # kernel type
3 # kernel parameter -d 
1 # kernel parameter -g 
1 # kernel parameter -s 
1 # kernel parameter -r 
empty# kernel parameter -u 
47 # highest feature index 
60 # number of training documents 
2 # number of support vectors plus 1 
0 # threshold b, each following line is a SV (starting with alpha*y)
1 1:0.2331111 2:-0.20708901 3:-0.021971928 4:0.41471863 5:0.33833569 11:0.16483891 12:-0.4674812 13:-0.20481153 14:-0.44348472 15:0.312819 16:-0.30243602 17:0.16974755 18:-0.24524125 19:-0.018324852 20:-0.28443977 21:0.51333904 22:-0.6466288 23:0.7677083 24:0.13075677 25:0.22305271 26:0.055198744 27:0.09672343 28:0.27423632 29:0.70298845 30:-0.62420511 31:0.039617594 32:0.69564241 33:0.097545028 34:0.63111895 35:-0.74923635 36:0.15827158 37:-0.38030583 38:-0.005163027 39:-0.13757192 40:1.0460793 41:0.024520744 42:-0.15678921 44:0.25910357 45:-0.61943001 46:0.40326309 #
