SVM-light Version V6.20
0 # kernel type
3 # kernel parameter -d 
1 # kernel parameter -g 
1 # kernel parameter -s 
1 # kernel parameter -r 
empty# kernel parameter -u 
47 # highest feature index 
66 # number of training documents 
2 # number of support vectors plus 1 
0 # threshold b, each following line is a SV (starting with alpha*y)
1 1:-0.4991428 2:-0.30890629 3:-0.10526296 4:-0.69303536 5:-0.38082537 11:0.034638863 12:-0.95827985 13:-0.3178955 14:-0.57889098 15:-0.033196159 16:-0.30312446 17:0.040536303 18:-0.077985041 19:-0.20722757 20:-0.2999897 21:0.41054413 22:-0.41989738 23:1.0109628 24:1.3429743 25:0.39282438 26:-0.52750748 27:0.087260939 28:-0.20415801 29:0.51036638 30:-0.69912428 31:-0.27332312 32:1.124951 33:0.54753906 34:-0.26142311 35:-0.28202814 36:-0.23736349 37:-0.0064693079 38:-0.16694473 39:1.0087538 40:0.74796897 41:0.157847 42:-0.37406442 44:-0.48450801 45:-0.39437464 46:0.20294778 #
