SVM-light Version V6.20
0 # kernel type
3 # kernel parameter -d 
1 # kernel parameter -g 
1 # kernel parameter -s 
1 # kernel parameter -r 
empty# kernel parameter -u 
47 # highest feature index 
68 # number of training documents 
2 # number of support vectors plus 1 
0 # threshold b, each following line is a SV (starting with alpha*y)
1 1:0.069299936 2:-0.35920724 3:-0.36409658 4:1.1156442 5:0.023976471 11:0.19666435 12:-0.10619324 13:0.41716751 14:-1.39324 15:-0.041867588 16:-0.1657958 17:-0.11931156 18:0.20787442 19:-0.46648613 20:-0.15962115 21:-0.2576527 22:0.29257309 23:0.86194688 24:1.0934051 25:-0.17459542 26:0.019028215 27:0.12240965 28:0.87245262 29:-0.19885197 30:-0.087912031 31:-0.33882734 32:0.75551361 33:0.21360998 34:0.11068112 35:-0.62014729 36:0.36720613 37:-0.10922653 38:-0.38772473 39:0.34300286 40:-0.7169767 41:0.081505477 42:0.14360307 44:0.15185122 45:0.021479366 46:-0.020106945 #
