SVM-light Version V6.20
0 # kernel type
3 # kernel parameter -d 
1 # kernel parameter -g 
1 # kernel parameter -s 
1 # kernel parameter -r 
empty# kernel parameter -u 
47 # highest feature index 
64 # number of training documents 
2 # number of support vectors plus 1 
0 # threshold b, each following line is a SV (starting with alpha*y)
1 1:-0.34526235 2:-0.12376082 3:-0.71657884 4:-0.50321549 5:-0.1664888 11:-0.26545843 12:0.79522735 13:0.89377034 14:1.611112 15:-0.30190146 16:0.45040721 17:-1.0451916 18:0.22847369 19:-0.028575515 20:0.47281939 21:-0.99407709 22:-0.48910436 23:0.57449341 24:-0.11501569 25:-0.91996092 26:-0.0077767842 27:-0.12787037 28:0.66215962 29:-0.25099275 30:0.62800461 31:0.28653836 32:-0.84021586 33:-0.84949523 34:-1.0078728 35:0.23707068 36:0.65508974 37:0.42753005 38:-0.75879186 39:0.72170854 40:0.74187565 41:0.41647339 42:0.24489717 44:0.48080379 45:-0.29935551 46:0.42628193 #
