SVM-light Version V6.20
0 # kernel type
3 # kernel parameter -d 
1 # kernel parameter -g 
1 # kernel parameter -s 
1 # kernel parameter -r 
empty# kernel parameter -u 
47 # highest feature index 
64 # number of training documents 
2 # number of support vectors plus 1 
0 # threshold b, each following line is a SV (starting with alpha*y)
1 1:-0.32153332 2:0.68395543 3:0.7087965 4:-0.54932541 5:-0.20617887 11:0.0079370914 12:-0.35387737 13:-0.2901974 14:0.35978696 15:0.024201173 16:0.11056051 17:-0.25262696 18:-0.35864472 19:0.18234713 20:0.11866612 21:0.038318228 22:-0.36669457 23:0.81411523 24:0.51401216 25:0.12396838 26:-1.337913 27:-0.28786108 28:1.5094699 29:0.15500787 30:-0.66131341 31:-0.13304675 32:0.56828886 33:0.3992373 34:0.50268126 35:0.40957159 36:-1.3327802 37:0.35030624 38:-0.89186615 39:0.95256907 40:0.1597355 41:-0.2959916 42:-0.47325072 44:-0.012860547 45:0.10123274 46:-0.049162615 #
