SVM-light Version V6.20
0 # kernel type
3 # kernel parameter -d 
1 # kernel parameter -g 
1 # kernel parameter -s 
1 # kernel parameter -r 
empty# kernel parameter -u 
47 # highest feature index 
66 # number of training documents 
2 # number of support vectors plus 1 
0 # threshold b, each following line is a SV (starting with alpha*y)
1 1:0.028775666 2:0.28477785 3:0.096084274 4:-0.6836251 5:0.012268912 11:0.18416306 12:-0.88604218 13:-0.31426048 14:0.31425253 15:-0.081720702 16:0.053427063 17:0.39470127 18:-0.0030179268 19:-0.064235136 20:0.070025422 21:0.18035436 22:0.34456655 23:0.9528901 24:-0.29891512 25:0.49432975 26:-0.10556743 27:0.08512152 28:0.27438143 29:1.0619761 30:-0.50472033 31:-0.26290661 32:0.32103041 33:0.53809935 34:0.18804115 35:-0.54386997 36:-0.18951198 37:0.42972249 38:-0.25851265 39:0.62774825 40:-0.029391356 41:-0.16569017 42:0.032516837 44:0.24696581 45:-0.32843527 46:0.15166984 #
