SVM-light Version V6.20
0 # kernel type
3 # kernel parameter -d 
1 # kernel parameter -g 
1 # kernel parameter -s 
1 # kernel parameter -r 
empty# kernel parameter -u 
47 # highest feature index 
64 # number of training documents 
2 # number of support vectors plus 1 
0 # threshold b, each following line is a SV (starting with alpha*y)
1 1:-0.65185374 2:0.20988895 3:0.060935225 4:-0.41764247 5:-0.44182658 11:-0.069719188 12:0.24954388 13:0.13032657 14:-0.27242392 15:0.19193219 16:0.38241217 17:0.068582483 18:0.057494976 19:-0.34491405 20:0.3645708 21:-0.16451538 22:0.31342104 23:1.1919909 24:-0.32712221 25:0.0038794747 26:-0.26745325 27:-0.52132243 28:0.46174091 29:0.35435879 30:-1.2935299 31:0.3095071 32:0.80129606 33:0.40124699 34:0.012009298 35:0.82505357 36:-0.39859539 37:-0.018324129 38:-0.24063116 39:0.79593337 40:-0.13842447 41:-0.14788325 42:0.067596048 44:-0.013827886 45:-0.083910003 46:-0.37570012 #
