SVM-light Version V6.20
0 # kernel type
3 # kernel parameter -d 
1 # kernel parameter -g 
1 # kernel parameter -s 
1 # kernel parameter -r 
empty# kernel parameter -u 
47 # highest feature index 
64 # number of training documents 
2 # number of support vectors plus 1 
0 # threshold b, each following line is a SV (starting with alpha*y)
1 1:-0.84931505 2:-0.2318379 3:-0.58558601 4:-0.37381473 5:-0.37789151 11:-0.24152137 12:-0.77878797 13:-0.12144623 14:-0.43611795 15:0.31829971 16:-0.27244425 17:-0.0048409789 18:0.20789894 19:-0.22827026 20:-0.25585017 21:0.013910766 22:-0.37998155 23:1.8172399 24:0.96672511 25:0.49759638 26:-0.0052955532 27:-0.33656359 28:0.55457556 29:1.071721 30:-1.7233052 31:-0.24315374 32:1.1538607 33:0.27323896 34:-0.26470289 35:-0.097045131 36:-0.43172231 37:-0.046224613 38:-0.54288816 39:1.1933528 40:0.227815 41:-0.16455434 42:-0.55791157 44:-0.25575069 45:-0.6185841 46:-0.47354141 #
