SVM-light Version V6.20
0 # kernel type
3 # kernel parameter -d 
1 # kernel parameter -g 
1 # kernel parameter -s 
1 # kernel parameter -r 
empty# kernel parameter -u 
47 # highest feature index 
61 # number of training documents 
2 # number of support vectors plus 1 
0 # threshold b, each following line is a SV (starting with alpha*y)
1 1:0.080482088 2:0.51411676 3:-0.466483 4:-0.24670392 5:0.12925813 11:0.43570787 12:-0.74182892 13:-0.1129888 14:-0.50919956 15:0.27834341 16:0.093537383 17:0.089777403 18:0.57842988 19:0.71187145 20:0.10659114 21:0.53375554 22:-0.41276041 23:-0.99661821 24:-0.030988401 25:-0.99460143 26:0.89528584 27:-0.52249783 28:0.61970502 29:0.47699952 30:-0.014023636 31:-0.16758743 32:0.78125572 33:0.95562595 34:0.16231968 35:-0.73605728 36:0.34698227 37:-0.072972149 38:0.78184021 39:-0.21206097 40:0.48730186 41:-0.3603234 42:-0.58727717 44:0.085673556 45:0.2050478 46:-0.15788232 #
