SVM-light Version V6.20
0 # kernel type
3 # kernel parameter -d 
1 # kernel parameter -g 
1 # kernel parameter -s 
1 # kernel parameter -r 
empty# kernel parameter -u 
47 # highest feature index 
62 # number of training documents 
2 # number of support vectors plus 1 
0 # threshold b, each following line is a SV (starting with alpha*y)
1 1:0.45622674 2:0.64447868 3:-0.65293401 4:-0.080942467 5:0.38072845 11:-0.31122199 12:-0.27722815 13:0.47173208 14:-0.46760508 15:-0.038344964 16:-0.48064423 17:0.24019405 18:-0.16708007 19:-0.85526502 20:-0.50631469 21:0.80701452 22:-0.2906234 23:0.57575828 24:-0.51809454 25:0.0082349563 26:0.51707768 27:-0.94163728 28:0.11440074 29:-0.64629388 30:1.0061243 31:-0.00056306581 32:0.35613051 33:-0.17735764 34:1.3343271 35:-0.1335223 36:-0.60219574 37:-0.47300753 38:-0.55362505 39:0.46237993 40:0.24393365 41:0.65967071 42:0.61762935 44:-0.48294246 45:0.077739142 46:0.35382468 #
