SVM-light Version V6.20
0 # kernel type
3 # kernel parameter -d 
1 # kernel parameter -g 
1 # kernel parameter -s 
1 # kernel parameter -r 
empty# kernel parameter -u 
47 # highest feature index 
65 # number of training documents 
2 # number of support vectors plus 1 
0 # threshold b, each following line is a SV (starting with alpha*y)
1 1:0.080778785 2:-0.61012429 3:0.2876032 4:-0.87052292 5:0.1977765 11:-0.27060854 12:0.12826505 13:-0.23489644 14:-0.15452577 15:-0.23046058 16:0.089122348 17:-0.18103229 18:-0.13148083 19:-0.050043181 20:0.1064145 21:0.23187348 22:0.019626185 23:1.6355193 24:0.34660098 25:0.48315009 26:0.27246669 27:-0.10271458 28:0.24521436 29:0.19269906 30:-0.12527849 31:-0.1839782 32:0.46228528 33:0.82027286 34:0.054527968 35:0.42119518 36:-0.51379824 37:0.56222713 38:-1.375381 39:0.59703767 40:-0.14979357 41:0.10464783 42:-0.38613477 44:0.21595208 45:-0.25993195 46:-0.22379218 #
