SVM-light Version V6.20
0 # kernel type
3 # kernel parameter -d 
1 # kernel parameter -g 
1 # kernel parameter -s 
1 # kernel parameter -r 
empty# kernel parameter -u 
47 # highest feature index 
59 # number of training documents 
2 # number of support vectors plus 1 
0 # threshold b, each following line is a SV (starting with alpha*y)
1 1:-0.91447675 2:-0.050373752 3:0.03280044 4:-0.38512826 5:-0.57149249 11:-0.14792947 12:-0.88929164 13:-0.54532605 14:-0.63597155 15:0.20486324 16:0.13906571 17:0.22752821 18:0.073899314 19:-0.038668755 20:0.15000224 21:0.20952192 22:-0.62224829 23:1.4432973 24:1.0530365 25:0.61249441 26:-0.23451823 27:-0.2612156 28:0.068625078 29:0.72364801 30:-0.25643674 31:-0.26435643 32:0.58450419 33:0.37446213 34:-0.16143923 35:0.010412411 36:-0.64294177 37:-0.11453994 38:-0.3486008 39:1.1466664 40:0.56063491 41:0.066362254 42:-0.70588708 44:-0.10963644 45:-0.68011916 46:-0.088503949 #
