SVM-light Version V6.20
0 # kernel type
3 # kernel parameter -d 
1 # kernel parameter -g 
1 # kernel parameter -s 
1 # kernel parameter -r 
empty# kernel parameter -u 
47 # highest feature index 
61 # number of training documents 
2 # number of support vectors plus 1 
0 # threshold b, each following line is a SV (starting with alpha*y)
1 1:-0.068940185 2:-0.094964162 3:0.16439405 4:-0.045796733 5:-0.091742299 11:-0.0075246207 12:-0.40087232 13:-0.018342631 14:-0.27299932 15:-0.12658647 16:0.07633204 17:0.0296962 18:-0.18574569 19:-0.2987355 20:0.068749927 21:0.41766027 22:-0.21582274 23:1.5932506 24:0.19074655 25:0.22829294 26:-0.48095194 27:0.34912148 28:0.75621808 29:0.31841779 30:-0.67516679 31:-0.085553624 32:0.7547608 33:0.33845004 34:0.07451044 35:-0.62229925 36:0.72302246 37:0.22519793 38:-0.395843 39:1.1179968 40:-0.239224 41:0.16322933 42:-0.39622304 44:0.017995337 45:-0.084795922 46:-0.19593066 #
