SVM-light Version V6.20
0 # kernel type
3 # kernel parameter -d 
1 # kernel parameter -g 
1 # kernel parameter -s 
1 # kernel parameter -r 
empty# kernel parameter -u 
47 # highest feature index 
63 # number of training documents 
2 # number of support vectors plus 1 
0 # threshold b, each following line is a SV (starting with alpha*y)
1 1:-0.15809365 2:0.080260731 3:0.43646747 4:0.27591601 5:-0.31482491 11:0.31515506 12:0.059989762 13:-0.41434503 14:-1.4318864 15:-0.074775346 16:0.093124583 17:-0.25772625 18:-0.31701776 19:-0.3003467 20:0.082864597 21:-0.1063827 22:-0.041881371 23:1.3991067 24:-0.066208489 25:-0.29109013 26:-0.19401728 27:0.17770277 28:0.51762855 29:0.72215015 30:-0.69847906 31:0.31253201 32:0.18578997 33:0.86470026 34:-0.10119157 35:0.62890738 36:-0.18847235 37:-0.076250166 38:-0.38711089 39:0.45323536 40:0.69114238 41:-0.15528247 42:0.0028324288 44:0.12693967 45:-0.32390323 46:-0.25901678 #
