SVM-light Version V6.20
0 # kernel type
3 # kernel parameter -d 
1 # kernel parameter -g 
1 # kernel parameter -s 
1 # kernel parameter -r 
empty# kernel parameter -u 
47 # highest feature index 
63 # number of training documents 
2 # number of support vectors plus 1 
0 # threshold b, each following line is a SV (starting with alpha*y)
1 1:0.19426043 2:-0.12582676 3:-0.081634723 4:-0.38200617 5:0.25032815 11:-0.15295634 12:-0.41584814 13:0.15555479 14:-0.33668479 15:-0.14303586 16:-0.10921814 17:0.29638848 18:-0.33713287 19:-0.34820038 20:-0.10645487 21:0.10301591 22:-0.1751315 23:1.0189903 24:-0.042282447 25:0.45406505 26:-0.48146409 27:0.022385484 28:0.58827209 29:0.42848593 30:0.015746206 31:-0.23948903 32:0.16581839 33:0.74780655 34:-0.20225523 35:-0.15579607 36:-0.047160335 37:0.47786865 38:-0.011496443 39:0.77337545 40:-0.25697166 41:0.086575143 42:0.057234947 44:0.25459421 45:-0.56674808 46:0.031994592 #
