SVM-light Version V6.20
0 # kernel type
3 # kernel parameter -d 
1 # kernel parameter -g 
1 # kernel parameter -s 
1 # kernel parameter -r 
empty# kernel parameter -u 
47 # highest feature index 
59 # number of training documents 
2 # number of support vectors plus 1 
0 # threshold b, each following line is a SV (starting with alpha*y)
1 1:-0.5887112 2:0.2132757 3:0.2370562 4:-0.54906929 5:-0.42863587 11:-0.19611613 12:-0.93537539 13:-0.31470063 14:-0.23845468 15:-0.015096103 16:-0.049985696 17:0.097530864 18:-0.22201315 19:-0.21691066 20:-0.048176747 21:0.24468294 22:-0.59773374 23:1.5235293 24:0.97853404 25:0.56667322 26:-0.14465341 27:-0.26168576 28:-0.04537008 29:0.532839 30:-0.18102576 31:-0.43659905 32:0.49041307 33:0.11801618 34:0.075819582 35:-0.41171354 36:-0.7049734 37:0.086692095 38:-0.73916811 39:1.3324329 40:0.54048783 41:-0.022697736 42:-0.21368398 44:0.0082814815 45:-0.39622334 46:-0.23585805 #
