SVM-light Version V6.20
0 # kernel type
3 # kernel parameter -d 
1 # kernel parameter -g 
1 # kernel parameter -s 
1 # kernel parameter -r 
empty# kernel parameter -u 
47 # highest feature index 
61 # number of training documents 
2 # number of support vectors plus 1 
0 # threshold b, each following line is a SV (starting with alpha*y)
1 1:-0.17846583 2:-0.19998257 3:1.2730409 4:-0.75410867 5:0.026145985 11:0.12323993 12:-0.20539436 13:-0.25903144 14:0.47382492 15:0.54485667 16:-0.29641956 17:-0.52844638 18:-0.73622501 19:-0.2075901 20:-0.28017026 21:-0.34756714 22:-0.4033995 23:1.066312 24:-0.15329652 25:0.26037955 26:-0.067620508 27:-0.72855103 28:0.41074172 29:-0.6724233 30:-0.4324246 31:0.017757516 32:0.57158321 33:-0.15285912 34:-0.84149015 35:0.085136451 36:1.0632441 37:0.54130024 38:-0.39109045 39:0.43473759 40:-0.2245678 41:-0.25794539 42:-0.08036001 44:-0.076169834 45:0.35030925 46:-0.17914145 #
