SVM-light Version V6.20
0 # kernel type
3 # kernel parameter -d 
1 # kernel parameter -g 
1 # kernel parameter -s 
1 # kernel parameter -r 
empty# kernel parameter -u 
47 # highest feature index 
66 # number of training documents 
2 # number of support vectors plus 1 
0 # threshold b, each following line is a SV (starting with alpha*y)
1 1:-0.26899257 2:1.2362366 3:0.3412233 4:-0.86535168 5:0.050975978 11:-0.26162755 12:-0.55606115 13:-0.33312964 14:-0.28192636 15:-0.07158871 16:0.26024169 17:-0.36051562 18:-0.62164134 19:-0.23268807 20:0.27655178 21:0.23423441 22:-0.28196338 23:1.1177665 24:0.38655996 25:-0.47977272 26:0.24889965 27:-0.59550554 28:0.30640617 29:0.55153096 30:-0.36663496 31:0.43123078 32:-0.16948935 33:1.2203189 34:-0.78109765 35:0.62363082 36:-0.1816753 37:0.16082954 38:-0.40149277 39:0.45118904 40:0.11142874 41:-0.053804163 42:0.081307657 44:0.25102314 45:-0.21549696 46:-0.094345108 #
