SVM-light Version V6.20
0 # kernel type
3 # kernel parameter -d 
1 # kernel parameter -g 
1 # kernel parameter -s 
1 # kernel parameter -r 
empty# kernel parameter -u 
47 # highest feature index 
63 # number of training documents 
2 # number of support vectors plus 1 
0 # threshold b, each following line is a SV (starting with alpha*y)
1 1:0.0944077 2:-0.020224484 3:0.66640913 4:-0.13067368 5:0.038903967 11:0.022596862 12:0.025131099 13:-0.60662621 14:-0.75067222 15:-0.18375598 16:0.036919158 17:0.47064707 18:-0.50537235 19:-0.32268721 20:0.01872219 21:0.17540275 22:0.056567434 23:0.5753063 24:0.13257219 25:0.14241666 26:-0.16413045 27:-0.60027707 28:0.75698507 29:0.12212162 30:0.26332617 31:0.12999734 32:-0.23769803 33:0.65668458 34:-0.61429292 35:-0.087777719 36:0.81027836 37:0.032375734 38:0.14244443 39:0.56055433 40:0.091769665 41:0.24465214 42:-0.2490321 44:-0.17420527 45:0.31081718 46:-0.22144294 #
