SVM-light Version V6.20
0 # kernel type
3 # kernel parameter -d 
1 # kernel parameter -g 
1 # kernel parameter -s 
1 # kernel parameter -r 
empty# kernel parameter -u 
47 # highest feature index 
62 # number of training documents 
2 # number of support vectors plus 1 
0 # threshold b, each following line is a SV (starting with alpha*y)
1 1:0.029743439 2:0.034267791 3:0.63491493 4:-0.34401312 5:-0.18925743 11:-0.094192095 12:-0.58797389 13:-0.34714541 14:0.99554688 15:-0.37287986 16:0.086489551 17:-0.083045296 18:-0.32991201 19:-0.30854386 20:0.064280152 21:0.9973802 22:-0.54498202 23:1.2916131 24:0.34849921 25:0.28308952 26:0.1555668 27:0.91067493 28:-0.35035673 29:-0.12003557 30:0.14869557 31:-0.24350818 32:0.40276241 33:-0.4828538 34:-0.30928016 35:0.19213322 36:-0.18894424 37:-0.76910156 38:-0.45835543 39:0.43764818 40:-0.044796403 41:-0.19647591 42:-0.10629611 44:-0.14728928 45:-0.35883605 46:-0.40588924 #
