SVM-light Version V6.20
0 # kernel type
3 # kernel parameter -d 
1 # kernel parameter -g 
1 # kernel parameter -s 
1 # kernel parameter -r 
empty# kernel parameter -u 
47 # highest feature index 
67 # number of training documents 
2 # number of support vectors plus 1 
0 # threshold b, each following line is a SV (starting with alpha*y)
1 1:-0.31023616 2:0.056959748 3:0.287135 4:0.41554791 5:-0.29234096 11:-0.029740147 12:0.68679887 13:-0.6134612 14:0.12227041 15:0.029967684 16:0.25239235 17:0.090965651 18:-0.3528432 19:-0.71788925 20:0.20877305 21:-0.98667669 22:0.34742898 23:0.35904908 24:-1.3105816 25:-0.76511651 26:1.742378 27:-0.62803853 28:-1.3334554 29:0.1208424 30:-0.36298823 31:0.780837 32:0.46764052 33:-0.18547583 34:-0.57846487 35:-0.14060748 36:0.42190155 37:0.71847957 38:0.68942678 39:0.81215352 40:0.39212674 41:-0.40883547 42:0.57764214 44:-0.21720937 45:0.05302057 46:-0.064967215 #
