SVM-light Version V6.20
0 # kernel type
3 # kernel parameter -d 
1 # kernel parameter -g 
1 # kernel parameter -s 
1 # kernel parameter -r 
empty# kernel parameter -u 
47 # highest feature index 
67 # number of training documents 
2 # number of support vectors plus 1 
0 # threshold b, each following line is a SV (starting with alpha*y)
1 1:-0.046601549 2:-0.69047445 3:0.092422709 4:0.0070741251 5:-0.15217742 11:0.16167599 12:0.14401932 13:-0.3743571 14:-0.24874432 15:-0.14531849 16:0.11262932 17:0.1905238 18:0.15584137 19:-0.15291619 20:0.10968282 21:0.34981054 22:-0.24894165 23:1.2902294 24:-0.0010705444 25:0.39595512 26:-0.38137555 27:0.27126107 28:0.49606442 29:0.5288077 30:-0.091976613 31:-0.15381806 32:0.47583497 33:0.24623828 34:0.027878599 35:-0.28882989 36:-0.053464711 37:0.11558256 38:-0.27539787 39:0.78027606 40:0.0058775884 41:-0.24297127 42:-0.025319666 44:-0.16698726 45:-0.037232399 46:-0.38944149 #
