SVM-light Version V6.20
0 # kernel type
3 # kernel parameter -d 
1 # kernel parameter -g 
1 # kernel parameter -s 
1 # kernel parameter -r 
empty# kernel parameter -u 
47 # highest feature index 
63 # number of training documents 
2 # number of support vectors plus 1 
0 # threshold b, each following line is a SV (starting with alpha*y)
1 1:-0.37207574 2:0.0088880025 3:-0.5390327 4:-1.0058937 5:-0.073378563 11:-0.32042962 12:-0.71213889 13:0.51196182 14:0.20155479 15:-0.1473241 16:-0.32817063 17:-0.17958602 18:-0.32863319 19:-0.832726 20:-0.31924912 21:1.1582839 22:-1.6474272 23:1.8035113 24:0.8412171 25:-0.11528756 26:-0.88957208 27:0.3512145 28:0.66665763 29:0.12419534 30:-0.7778579 31:-0.44398123 32:1.4128582 33:0.13291788 34:0.089305647 35:-0.14242221 36:0.13718535 37:0.29106662 38:-1.0016589 39:1.299208 40:1.2992115 41:0.057530031 42:-0.44382325 44:-0.29618773 45:-0.60073024 46:-0.13350222 #
