SVM-light Version V6.20
0 # kernel type
3 # kernel parameter -d 
1 # kernel parameter -g 
1 # kernel parameter -s 
1 # kernel parameter -r 
empty# kernel parameter -u 
47 # highest feature index 
66 # number of training documents 
2 # number of support vectors plus 1 
0 # threshold b, each following line is a SV (starting with alpha*y)
1 1:-0.32358325 2:-0.36533189 3:0.57204556 4:-0.92027014 5:-0.083566718 11:0.18692832 12:-0.17817274 13:-0.22987072 14:-0.17475809 15:0.069449522 16:0.057268877 17:-0.23807469 18:-0.43186608 19:0.3220745 20:0.068751022 21:-0.56385362 22:-0.80538237 23:0.48361129 24:0.13400961 25:0.13980269 26:-0.55625391 27:0.74465573 28:0.44394538 29:0.21114999 30:-0.87863123 31:0.41406927 32:0.3643907 33:0.47054762 34:0.10393663 35:0.33780184 36:-0.061941274 37:0.14717977 38:0.63522869 39:1.0012755 40:0.21341135 41:-0.28305435 42:-0.11248143 44:-0.2194124 45:0.0064493101 46:0.32513016 #
