SVM-light Version V6.20
0 # kernel type
3 # kernel parameter -d 
1 # kernel parameter -g 
1 # kernel parameter -s 
1 # kernel parameter -r 
empty# kernel parameter -u 
47 # highest feature index 
64 # number of training documents 
2 # number of support vectors plus 1 
0 # threshold b, each following line is a SV (starting with alpha*y)
1 1:-0.072635472 2:-0.52825421 3:0.67377466 4:-0.35991651 5:-0.16445619 11:-0.15931317 12:0.46526748 13:-0.66696978 14:-0.17452686 15:-0.22823793 16:0.23140785 17:-0.41340771 18:0.11163896 19:-0.068304799 20:0.23460026 21:0.54670131 22:0.015468156 23:1.6805648 24:0.59950805 25:0.051758461 26:0.037888814 27:0.33433807 28:0.31134886 29:0.5948813 30:-0.1545818 31:-0.10972881 32:0.23635374 33:0.50555229 34:-0.086953796 35:0.35726905 36:-0.19502059 37:-0.12441775 38:-0.92296332 39:0.89512438 40:-0.71782702 41:-0.0080031445 42:-0.38671991 44:0.42526546 45:-0.25650993 46:-0.53456438 #
