SVM-light Version V6.20
0 # kernel type
3 # kernel parameter -d 
1 # kernel parameter -g 
1 # kernel parameter -s 
1 # kernel parameter -r 
empty# kernel parameter -u 
47 # highest feature index 
64 # number of training documents 
2 # number of support vectors plus 1 
0 # threshold b, each following line is a SV (starting with alpha*y)
1 1:-0.44200587 2:0.6793521 3:0.51686484 4:-0.28327906 5:-0.5059303 11:0.33458635 12:-0.59248424 13:0.39934433 14:-0.80913424 15:0.24441673 16:0.34795839 17:-0.40895781 18:-0.39284375 19:-0.26627484 20:0.35230169 21:-0.51858312 22:-0.25652507 23:1.1259403 24:-0.36424991 25:0.43248945 26:-0.55465847 27:-0.36042544 28:0.85301161 29:-0.63080126 30:0.70849919 31:-0.30333471 32:-0.14047045 33:0.45524183 34:0.24903968 35:0.22470039 36:-0.069557875 37:0.080564201 38:0.19319877 39:0.71502542 40:0.56003261 41:0.2000415 42:0.07230217 44:-0.18870825 45:0.55254972 46:-0.090279981 #
