SVM-light Version V6.20
0 # kernel type
3 # kernel parameter -d 
1 # kernel parameter -g 
1 # kernel parameter -s 
1 # kernel parameter -r 
empty# kernel parameter -u 
47 # highest feature index 
61 # number of training documents 
2 # number of support vectors plus 1 
0 # threshold b, each following line is a SV (starting with alpha*y)
1 1:-0.023524029 2:-0.2995297 3:0.043614782 4:-0.4018994 5:-0.14198241 11:0.013585427 12:-0.30248779 13:0.63717926 14:-0.254509 15:-0.31429827 16:0.12812103 17:-0.20258369 18:0.19427794 19:0.16870545 20:0.10557791 21:0.027925991 22:0.05412792 23:0.42538068 24:-0.22344787 25:-0.023585312 26:-0.41336906 27:0.93180364 28:0.16298558 29:-0.19225907 30:0.092637435 31:-0.51030004 32:0.27652308 33:0.10876989 34:-0.34464955 35:-0.25025511 36:0.93794107 37:0.59695792 38:0.033289045 39:-0.090425238 40:0.26278687 41:-0.26218519 42:-0.49045286 44:0.097307853 45:0.14841428 46:0.22414371 #
