SVM-light Version V6.20
0 # kernel type
3 # kernel parameter -d 
1 # kernel parameter -g 
1 # kernel parameter -s 
1 # kernel parameter -r 
empty# kernel parameter -u 
47 # highest feature index 
63 # number of training documents 
2 # number of support vectors plus 1 
0 # threshold b, each following line is a SV (starting with alpha*y)
1 1:-0.029911006 2:-0.40016985 3:0.098974034 4:0.54788589 5:0.11494172 11:0.034694284 12:0.13491096 13:0.02999681 14:-0.98011506 15:-0.017180564 16:-0.12160888 17:-0.017771501 18:-0.10747288 19:-0.4518497 20:-0.10034116 21:0.39859706 22:-0.39639303 23:1.2768477 24:0.22012492 25:0.20126499 26:-0.2719734 27:0.11285496 28:0.73289639 29:0.16514379 30:-0.42432126 31:-0.14162748 32:0.61286908 33:0.20835783 34:-0.11560278 35:-0.15927868 36:0.31615373 37:0.18790337 38:-0.20874479 39:0.92195946 40:-0.30303246 41:0.13591549 42:-0.0059445044 44:-0.10241897 45:-0.097865492 46:-0.14017133 #
