SVM-light Version V6.20
0 # kernel type
3 # kernel parameter -d 
1 # kernel parameter -g 
1 # kernel parameter -s 
1 # kernel parameter -r 
empty# kernel parameter -u 
47 # highest feature index 
63 # number of training documents 
2 # number of support vectors plus 1 
0 # threshold b, each following line is a SV (starting with alpha*y)
1 1:-0.27041569 2:0.17798837 3:0.15838563 4:-0.39500558 5:-0.13704412 11:-0.18929571 12:-0.28094551 13:0.29113781 14:0.17024867 15:-0.032799505 16:0.43502358 17:-0.13779959 18:-0.33935049 19:0.45245388 20:0.44368786 21:0.28376487 22:0.49581057 23:0.64669907 24:-0.25858518 25:0.48224661 26:0.036842261 27:0.14396061 28:0.014921463 29:0.13487136 30:-0.69995934 31:0.26755601 32:0.24435961 33:-0.06229471 34:0.049052373 35:0.66454422 36:-0.49454844 37:0.27807191 38:0.25900477 39:0.066935986 40:-0.38417789 41:-0.020265833 42:-0.91711897 44:0.3706609 45:0.02649359 46:-0.2594682 #
