SVM-light Version V6.20
0 # kernel type
3 # kernel parameter -d 
1 # kernel parameter -g 
1 # kernel parameter -s 
1 # kernel parameter -r 
empty# kernel parameter -u 
47 # highest feature index 
62 # number of training documents 
2 # number of support vectors plus 1 
0 # threshold b, each following line is a SV (starting with alpha*y)
1 1:0.063311636 2:0.1458092 3:0.17861643 4:0.37703732 5:-0.048364226 11:-0.25600564 12:0.25858569 13:0.033960313 14:-1.1143975 15:-0.25064299 16:0.27511182 17:0.20483458 18:0.69637281 19:-0.3906014 20:0.2997348 21:0.40966916 22:0.4979727 23:0.19051406 24:-1.3551315 25:-0.45869699 26:-0.62745833 27:0.15527438 28:0.063130192 29:0.94813919 30:0.82568735 31:-0.63193065 32:-0.69959342 33:0.97813708 34:-1.368746 35:1.5197618 36:-0.49741048 37:-0.32409966 38:1.0065916 39:0.30654961 40:-0.11953273 41:0.11451536 42:0.34208712 44:0.25119072 45:-0.55196202 46:0.086490557 #
