SVM-light Version V6.20
0 # kernel type
3 # kernel parameter -d 
1 # kernel parameter -g 
1 # kernel parameter -s 
1 # kernel parameter -r 
empty# kernel parameter -u 
47 # highest feature index 
63 # number of training documents 
2 # number of support vectors plus 1 
0 # threshold b, each following line is a SV (starting with alpha*y)
1 1:0.42398402 2:-0.081663415 3:0.78536409 4:-0.40486655 5:0.046971329 11:-0.21517679 12:0.9020406 13:-1.0262576 14:-0.19348736 15:-0.27770746 16:0.096533678 17:-0.29702988 18:-0.029977331 19:-0.22473884 20:0.10330793 21:0.15762155 22:0.15298155 23:0.93837243 24:-0.21995886 25:0.12938339 26:-0.26389 27:-0.19204059 28:0.028401975 29:0.24283943 30:0.07687591 31:-0.32914159 32:0.86130792 33:0.53160822 34:0.35504994 35:0.083172001 36:-0.83583784 37:0.066745989 38:-0.018121941 39:0.61663997 40:-0.38988033 41:0.097085424 42:0.028210701 44:0.19309907 45:-0.51209301 46:0.11011553 #
