SVM-light Version V6.20
0 # kernel type
3 # kernel parameter -d 
1 # kernel parameter -g 
1 # kernel parameter -s 
1 # kernel parameter -r 
empty# kernel parameter -u 
47 # highest feature index 
60 # number of training documents 
2 # number of support vectors plus 1 
0 # threshold b, each following line is a SV (starting with alpha*y)
1 1:-0.10104128 2:-0.011387918 3:0.26329467 4:-0.21971157 5:0.03008507 11:-0.14401041 12:-0.24126886 13:-0.64751923 14:0.31574297 15:-0.11528687 16:0.082323208 17:-0.19201475 18:-0.044754419 19:-0.88326854 20:0.09403342 21:0.084033407 22:-0.019395776 23:1.439908 24:-0.10839394 25:0.5581404 26:-0.18500102 27:0.1076889 28:0.36005193 29:0.39544624 30:0.29001859 31:-0.068890773 32:0.20698647 33:0.15688297 34:0.42187187 35:0.23662451 36:-0.95506042 37:0.46043321 38:-0.38361043 39:1.0055815 40:-0.31026712 41:-0.0029879187 42:0.24124621 44:-0.072234087 45:-0.19324799 46:-0.39264262 #
