SVM-light Version V6.20
0 # kernel type
3 # kernel parameter -d 
1 # kernel parameter -g 
1 # kernel parameter -s 
1 # kernel parameter -r 
empty# kernel parameter -u 
47 # highest feature index 
66 # number of training documents 
2 # number of support vectors plus 1 
0 # threshold b, each following line is a SV (starting with alpha*y)
1 1:-0.13174751 2:0.47892231 3:0.57045722 4:-0.34444225 5:-0.079101473 11:-0.22820042 12:-0.60813648 13:-0.7636742 14:-0.5352999 15:-0.062358439 16:0.23418488 17:0.14252536 18:0.061267652 19:-0.89098245 20:0.25852039 21:0.5635016 22:0.22512434 23:1.1230679 24:-0.31471109 25:-0.023927065 26:0.47027463 27:-0.10989515 28:0.1512495 29:0.42440563 30:-0.31221813 31:-0.88980353 32:1.2825792 33:0.70013255 34:-0.28755689 35:-0.56076068 36:0.81369942 37:-0.34288761 38:0.26702458 39:0.20700806 40:-0.2010961 41:-0.11379001 42:0.7807579 44:-0.25303128 45:-0.11591878 46:-0.23857871 #
