SVM-light Version V6.20
0 # kernel type
3 # kernel parameter -d 
1 # kernel parameter -g 
1 # kernel parameter -s 
1 # kernel parameter -r 
empty# kernel parameter -u 
47 # highest feature index 
62 # number of training documents 
2 # number of support vectors plus 1 
0 # threshold b, each following line is a SV (starting with alpha*y)
1 1:-0.21182059 2:0.44767198 3:0.0064151729 4:-0.58547819 5:-0.2330035 11:-0.076251641 12:-0.41983309 13:0.4484435 14:-0.12010615 15:-0.045121308 16:0.40644547 17:-0.24905336 18:-0.35115698 19:-0.25033739 20:0.41661686 21:0.20179211 22:-0.17152593 23:1.4136512 24:0.23616658 25:0.60364491 26:-0.6894328 27:0.021158712 28:0.47517949 29:-0.0067396243 30:-0.10487381 31:-0.13270663 32:0.35270721 33:0.194952 34:0.63169014 35:0.19941902 36:-0.34160575 37:0.31199434 38:-0.21836573 39:0.74953395 40:0.3212685 41:-0.21291314 42:-0.49443442 44:-0.17252617 45:0.071835868 46:-0.13587779 #
