SVM-light Version V6.20
0 # kernel type
3 # kernel parameter -d 
1 # kernel parameter -g 
1 # kernel parameter -s 
1 # kernel parameter -r 
empty# kernel parameter -u 
47 # highest feature index 
65 # number of training documents 
2 # number of support vectors plus 1 
0 # threshold b, each following line is a SV (starting with alpha*y)
1 1:0.20763159 2:0.21071585 3:0.22307318 4:-0.56148624 5:-0.14191283 11:0.33271936 12:0.22590449 13:-0.62844008 14:1.4095677 15:-0.14906083 16:-0.168466 17:-0.14356714 18:0.12381215 19:-0.81094247 20:-0.18153085 21:0.055500314 22:-0.51781398 23:0.44351974 24:0.010888112 25:0.37211442 26:0.16250533 27:-0.4133479 28:-0.062737882 29:0.85191238 30:-0.083141379 31:0.51639402 32:-0.37860271 33:-0.70268351 34:1.0012491 35:0.53171736 36:-1.3455209 37:-0.14312965 38:-0.25916034 39:0.73396617 40:0.6354081 41:-0.086024322 42:0.68434143 44:0.24868733 45:-0.08503557 46:-0.7449134 #
