SVM-light Version V6.20
0 # kernel type
3 # kernel parameter -d 
1 # kernel parameter -g 
1 # kernel parameter -s 
1 # kernel parameter -r 
empty# kernel parameter -u 
47 # highest feature index 
68 # number of training documents 
2 # number of support vectors plus 1 
0 # threshold b, each following line is a SV (starting with alpha*y)
1 1:-0.11726048 2:0.34224266 3:-0.48210207 4:0.22771962 5:-0.24332561 11:0.36972907 12:-0.49315408 13:0.019095302 14:-0.56711084 15:0.037595294 16:0.041895855 17:0.057498734 18:0.036766134 19:0.47737396 20:0.023074629 21:0.23829393 22:-0.25127968 23:0.70435172 24:-0.25288352 25:-0.053397808 26:-1.1358508 27:0.46359992 28:0.58336687 29:0.46185172 30:-0.38961747 31:-0.15758735 32:1.1937245 33:0.082450882 34:0.83122575 35:1.0214235 36:-1.1943815 37:0.33314115 38:0.13603424 39:0.43993706 40:-0.18228821 41:0.22702231 42:-0.34836009 44:0.16916148 45:0.17365946 46:-0.090907127 #
