SVM-light Version V6.20
0 # kernel type
3 # kernel parameter -d 
1 # kernel parameter -g 
1 # kernel parameter -s 
1 # kernel parameter -r 
empty# kernel parameter -u 
47 # highest feature index 
67 # number of training documents 
2 # number of support vectors plus 1 
0 # threshold b, each following line is a SV (starting with alpha*y)
1 1:0.26544902 2:-0.44246542 3:-0.098842286 4:-0.47597045 5:0.31853175 11:0.024999132 12:-0.30352134 13:0.075949743 14:0.13597314 15:-0.019693431 16:-0.23942015 17:0.25346476 18:0.15165381 19:-0.17770588 20:-0.24031557 21:0.74687129 22:-0.10936609 23:1.2573278 24:0.25693953 25:0.72100383 26:-0.97477323 27:0.27927455 28:1.0302719 29:0.15501045 30:0.37749934 31:-0.23904812 32:0.12121919 33:0.29746011 34:-0.0044476027 35:0.023571461 36:-0.070436649 37:-0.27890781 38:-0.63528782 39:1.0199698 40:-0.45525962 41:-0.022226846 42:-0.40096381 44:0.047797862 45:0.067878544 46:-0.2565628 #
