SVM-light Version V6.20
0 # kernel type
3 # kernel parameter -d 
1 # kernel parameter -g 
1 # kernel parameter -s 
1 # kernel parameter -r 
empty# kernel parameter -u 
47 # highest feature index 
65 # number of training documents 
2 # number of support vectors plus 1 
0 # threshold b, each following line is a SV (starting with alpha*y)
1 1:0.058194999 2:-0.33065695 3:-0.32487574 4:-0.0024381471 5:-0.016539451 11:-0.039332137 12:-0.20862822 13:0.30845836 14:-0.06748832 15:-0.26760975 16:0.14085153 17:0.082151681 18:-0.14774197 19:-0.11899464 20:0.14334343 21:0.26200113 22:-0.51258099 23:0.77381063 24:-0.098669797 25:0.050010283 26:0.079924703 27:0.090005793 28:0.43995914 29:-0.14461184 30:-0.16080597 31:-0.58357316 32:1.1926824 33:-0.17619488 34:0.11290895 35:-0.76707584 36:1.1461034 37:0.80503333 38:-0.00079777441 39:0.76757282 40:-0.0038764174 41:0.087112144 42:-0.32210931 44:-0.071964815 45:-0.13223946 46:0.035226393 #
