SVM-light Version V6.20
0 # kernel type
3 # kernel parameter -d 
1 # kernel parameter -g 
1 # kernel parameter -s 
1 # kernel parameter -r 
empty# kernel parameter -u 
47 # highest feature index 
63 # number of training documents 
2 # number of support vectors plus 1 
0 # threshold b, each following line is a SV (starting with alpha*y)
1 1:0.13413024 2:-0.30756512 3:0.66797441 4:0.62980098 5:0.078708962 11:-0.09065824 12:-0.034143265 13:-0.75472337 14:-0.020925267 15:-0.49606842 16:-0.058113299 17:-0.26542914 18:0.052233964 19:-0.024403168 20:-0.047993675 21:0.25011146 22:0.81959873 23:0.9470976 24:-0.78721583 25:0.21561106 26:-0.35955861 27:0.040694937 28:0.48692128 29:-0.20988013 30:0.18548441 31:-0.41279039 32:0.55449963 33:-0.65635514 34:0.34783912 35:0.55578607 36:-0.82613033 37:0.50088209 38:-0.78143597 39:0.50271815 40:-0.058219321 41:-0.32135695 42:0.25486466 44:0.42933667 45:-0.11179439 46:0.46661186 #
