SVM-light Version V6.20
0 # kernel type
3 # kernel parameter -d 
1 # kernel parameter -g 
1 # kernel parameter -s 
1 # kernel parameter -r 
empty# kernel parameter -u 
47 # highest feature index 
64 # number of training documents 
2 # number of support vectors plus 1 
0 # threshold b, each following line is a SV (starting with alpha*y)
1 1:-0.045638639 2:-0.180703 3:0.47787321 4:-0.23035635 5:-0.066040941 11:0.029524229 12:-0.25349239 13:-0.15919906 14:-0.030256098 15:0.0048226165 16:0.0051902034 17:-0.11277293 18:-0.17884821 19:-0.2130623 20:-0.01180739 21:-0.11823411 22:0.080614589 23:0.83160287 24:0.78811723 25:0.49982131 26:-0.34420988 27:0.34848017 28:0.28611055 29:0.038460061 30:0.35776466 31:0.45486066 32:-0.50264418 33:-0.0050311117 34:-0.34115195 35:0.18285999 36:0.19155924 37:-0.10604737 38:-0.53595608 39:0.56983173 40:0.19347689 41:-0.01318936 42:0.48436034 44:0.028948532 45:-0.31478181 46:0.0022562058 #
