SVM-light Version V6.20
0 # kernel type
3 # kernel parameter -d 
1 # kernel parameter -g 
1 # kernel parameter -s 
1 # kernel parameter -r 
empty# kernel parameter -u 
47 # highest feature index 
63 # number of training documents 
2 # number of support vectors plus 1 
0 # threshold b, each following line is a SV (starting with alpha*y)
1 1:0.018403634 2:-0.20047677 3:0.67781353 4:-0.12653564 5:0.15141711 11:-0.13858074 12:-0.2300169 13:-0.70867747 14:-0.34249401 15:-0.13711686 16:0.033168186 17:-0.17329165 18:-0.23742765 19:-0.10914462 20:0.066659153 21:0.47745755 22:-0.28390512 23:2.0475466 24:0.066019401 25:0.4817194 26:0.074638091 27:-0.12084438 28:0.41628525 29:0.55848026 30:-0.14304624 31:-0.072133593 32:0.2808854 33:0.20816593 34:0.35289404 35:0.026247362 36:-0.26383421 37:-0.25926387 38:-0.11517593 39:0.70772105 40:-0.3642661 41:-0.20160265 42:-0.0015567609 44:0.30516279 45:-0.35271823 46:-0.28779685 #
