SVM-light Version V6.20
0 # kernel type
3 # kernel parameter -d 
1 # kernel parameter -g 
1 # kernel parameter -s 
1 # kernel parameter -r 
empty# kernel parameter -u 
47 # highest feature index 
60 # number of training documents 
2 # number of support vectors plus 1 
0 # threshold b, each following line is a SV (starting with alpha*y)
1 1:0.19590704 2:0.50667298 3:-0.27095732 4:-0.37600172 5:-0.14086288 11:0.059956197 12:-0.24789612 13:-0.34103423 14:0.15371658 15:-0.38156229 16:-0.10120858 17:0.17597169 18:0.56448001 19:-0.130963 20:-0.13112427 21:0.71711957 22:-0.50585121 23:0.69846964 24:-0.081083328 25:0.47425881 26:-0.21861182 27:-0.22461025 28:-0.12265318 29:0.74256641 30:-0.84930289 31:0.43519399 32:0.41172272 33:0.32815248 34:-0.014275794 35:-0.59691894 36:0.74427223 37:0.43196681 38:-0.10723678 39:0.35449517 40:-0.22248738 41:-0.40687808 42:0.4578653 44:-0.16475795 45:-0.066302411 46:-0.37794885 #
