SVM-light Version V6.20
0 # kernel type
3 # kernel parameter -d 
1 # kernel parameter -g 
1 # kernel parameter -s 
1 # kernel parameter -r 
empty# kernel parameter -u 
47 # highest feature index 
65 # number of training documents 
2 # number of support vectors plus 1 
0 # threshold b, each following line is a SV (starting with alpha*y)
1 1:0.39381242 2:-0.77747083 3:0.83472532 4:-0.70992559 5:0.077175915 11:0.26516593 12:0.16732305 13:-0.774454 14:-0.04475268 15:-0.029491493 16:-0.39610231 17:-0.1582762 18:-0.15951456 19:-0.031526715 20:-0.38016194 21:0.21886078 22:-0.77714521 23:0.71581876 24:0.56523478 25:0.17274618 26:0.072675727 27:0.29944825 28:0.25239202 29:-0.13494636 30:0.27064869 31:0.23546763 32:-0.12703708 33:0.91043949 34:0.45110217 35:0.22164023 36:-0.79198712 37:0.53191555 38:-0.60536426 39:0.010974571 40:0.39268032 41:-0.38830504 42:0.092462495 44:0.38652906 45:-0.14259993 46:-0.090773247 #
