SVM-light Version V6.20
0 # kernel type
3 # kernel parameter -d 
1 # kernel parameter -g 
1 # kernel parameter -s 
1 # kernel parameter -r 
empty# kernel parameter -u 
47 # highest feature index 
65 # number of training documents 
2 # number of support vectors plus 1 
0 # threshold b, each following line is a SV (starting with alpha*y)
1 1:-0.46690568 2:0.61328608 3:-0.02022749 4:-0.63150805 5:-0.40395561 11:0.013206706 12:-0.63970131 13:0.53226256 14:-0.50393796 15:0.0020077443 16:0.38730904 17:-0.23314589 18:-0.47926795 19:-0.47409531 20:0.40395027 21:-0.11757399 22:-0.23062295 23:1.484201 24:0.1105677 25:0.19357637 26:-0.41914624 27:-0.1035763 28:0.52330834 29:0.30483586 30:-0.3184655 31:-0.078140557 32:0.17648192 33:1.0045427 34:0.18202585 35:0.20284069 36:-0.53338146 37:0.70610243 38:-0.10245402 39:1.0690607 40:-0.0032358428 41:-0.057504877 42:-0.16886412 44:0.14184563 45:-0.098349892 46:0.057233103 #
