SVM-light Version V6.20
0 # kernel type
3 # kernel parameter -d 
1 # kernel parameter -g 
1 # kernel parameter -s 
1 # kernel parameter -r 
empty# kernel parameter -u 
47 # highest feature index 
66 # number of training documents 
2 # number of support vectors plus 1 
0 # threshold b, each following line is a SV (starting with alpha*y)
1 1:-0.068584122 2:-0.37314028 3:-0.15630378 4:0.032011718 5:0.080041759 11:0.091262482 12:0.74394649 13:-0.47772935 14:-0.1354921 15:0.012926789 16:0.16532843 17:-0.29385284 18:0.129897 19:0.3477295 20:0.1881299 21:0.55446392 22:0.42278424 23:1.0018648 24:0.076744579 25:-0.20524378 26:-0.38619027 27:0.20904951 28:0.64184707 29:0.59762472 30:-0.35332927 31:0.48049584 32:-0.2016927 33:0.71112031 34:-0.43722865 35:0.35335842 36:-0.13559635 37:-0.1821961 38:-0.25721177 39:0.49428561 40:-0.55859894 41:0.19618864 42:-0.72854239 44:-0.08095216 45:-0.15731899 46:0.10550623 #
