SVM-light Version V6.20
0 # kernel type
3 # kernel parameter -d 
1 # kernel parameter -g 
1 # kernel parameter -s 
1 # kernel parameter -r 
empty# kernel parameter -u 
47 # highest feature index 
67 # number of training documents 
2 # number of support vectors plus 1 
0 # threshold b, each following line is a SV (starting with alpha*y)
1 1:0.02706054 2:-0.15930028 3:0.17008977 4:0.020469243 5:-0.10431502 11:0.0059850328 12:-0.35945478 13:-0.026179058 14:-0.36080179 15:-0.1755235 16:0.1146407 17:-0.072485313 18:-0.30981472 19:-0.33414569 20:0.1202121 21:0.15065664 22:0.31843063 23:1.5397269 24:-0.7225346 25:0.36403102 26:-0.83840728 27:0.40957224 28:1.0079668 29:0.39980155 30:-0.27006313 31:-0.20824623 32:0.55940241 33:0.28953561 34:-0.37078866 35:0.18211249 36:0.15869682 37:0.095542945 38:0.15450104 39:1.0066611 40:-0.018467207 41:0.2111464 42:-0.21661298 44:0.072182201 45:0.0007571482 46:0.088688388 #
