SVM-light Version V6.20
0 # kernel type
3 # kernel parameter -d 
1 # kernel parameter -g 
1 # kernel parameter -s 
1 # kernel parameter -r 
empty# kernel parameter -u 
47 # highest feature index 
61 # number of training documents 
2 # number of support vectors plus 1 
0 # threshold b, each following line is a SV (starting with alpha*y)
1 1:-0.721977 2:-0.0011838044 3:-0.15946595 4:-0.93826717 5:-0.41911003 11:-0.20311253 12:-1.0291966 13:-0.14449216 14:0.32042533 15:-0.025813561 16:-0.19647057 17:0.011576529 18:-0.34281957 19:-0.73231977 20:-0.18410823 21:0.33789051 22:-0.48364186 23:1.2458513 24:1.6447449 25:0.3434085 26:-0.71904409 27:0.039704625 28:0.182199 29:0.25998101 30:-1.2662013 31:-0.5597887 32:2.0050635 33:-0.32421267 34:0.31744125 35:-0.30391952 36:-0.20491368 37:0.59497416 38:-0.77264476 39:0.96576244 40:0.41498262 41:0.25905654 42:-0.53972018 44:-0.60272861 45:-0.43000758 46:-0.42660752 #
