SVM-light Version V6.20
0 # kernel type
3 # kernel parameter -d 
1 # kernel parameter -g 
1 # kernel parameter -s 
1 # kernel parameter -r 
empty# kernel parameter -u 
47 # highest feature index 
63 # number of training documents 
2 # number of support vectors plus 1 
0 # threshold b, each following line is a SV (starting with alpha*y)
1 1:0.15653136 2:0.37515983 3:-0.080186605 4:-0.67099339 5:0.0074772867 11:-0.017924871 12:-0.67111868 13:0.036154505 14:0.047684498 15:-0.043192688 16:-0.29065529 17:-0.24866493 18:0.21349466 19:-0.42640501 20:-0.28718409 21:-0.3842164 22:-0.14105967 23:1.6248032 24:-0.1227557 25:0.39378831 26:0.24780387 27:0.75382626 28:-0.3479571 29:0.014717205 30:0.41887036 31:-0.46476683 32:0.22611538 33:0.5203684 34:0.063758671 35:0.64098215 36:-0.83853263 37:0.24517335 38:-0.2260206 39:0.68644762 40:-0.058817402 41:0.0032775744 42:0.011508184 44:-0.0049255854 45:-0.12789659 46:-0.70378035 #
