SVM-light Version V6.20
0 # kernel type
3 # kernel parameter -d 
1 # kernel parameter -g 
1 # kernel parameter -s 
1 # kernel parameter -r 
empty# kernel parameter -u 
47 # highest feature index 
65 # number of training documents 
2 # number of support vectors plus 1 
0 # threshold b, each following line is a SV (starting with alpha*y)
1 1:-0.30586812 2:-1.0236748 3:-0.37058955 4:-0.48621094 5:-0.21063504 11:-0.29110003 12:0.76348764 13:0.6119141 14:0.23540249 15:-0.16407861 16:0.32778862 17:-0.32555562 18:0.19810438 19:-0.43174165 20:0.3158167 21:0.28367537 22:-0.50962383 23:1.1984904 24:-0.23874699 25:-0.010638792 26:-0.70535594 27:0.34559527 28:0.8831225 29:0.10501278 30:0.012474859 31:0.038244426 32:-0.17862211 33:0.17147441 34:0.42741507 35:-0.20510966 36:0.054827604 37:-0.026417932 38:0.72257131 39:0.59292406 40:-0.26064429 41:-0.34508854 42:0.66885692 44:0.28299835 45:0.045274675 46:-0.31229013 #
