SVM-light Version V6.20
0 # kernel type
3 # kernel parameter -d 
1 # kernel parameter -g 
1 # kernel parameter -s 
1 # kernel parameter -r 
empty# kernel parameter -u 
47 # highest feature index 
62 # number of training documents 
2 # number of support vectors plus 1 
0 # threshold b, each following line is a SV (starting with alpha*y)
1 1:-0.081234314 2:0.05687869 3:0.3619394 4:-0.072234958 5:-0.065055281 11:-0.098454341 12:-0.21676964 13:-0.20903516 14:-0.39157906 15:-0.21531117 16:0.071018726 17:-0.26257733 18:-0.11987691 19:-0.069845371 20:0.072687544 21:0.0624648 22:0.34723362 23:1.9557492 24:0.047767159 25:0.38281918 26:-0.46705076 27:0.43146977 28:0.48665375 29:0.32003331 30:0.10254301 31:-0.082745932 32:0.28584388 33:0.20305187 34:-0.061680868 35:0.27182576 36:-0.22269666 37:0.13408743 38:-0.60238326 39:1.2067655 40:-0.49405137 41:-0.14132731 42:-0.13816939 44:-0.13404894 45:-0.29891697 46:-0.37015691 #
