SVM-light Version V6.20
0 # kernel type
3 # kernel parameter -d 
1 # kernel parameter -g 
1 # kernel parameter -s 
1 # kernel parameter -r 
empty# kernel parameter -u 
47 # highest feature index 
64 # number of training documents 
2 # number of support vectors plus 1 
0 # threshold b, each following line is a SV (starting with alpha*y)
1 1:-0.13396116 2:0.084320061 3:-0.21759337 4:-0.086315617 5:-0.03541695 11:0.1602343 12:-0.45478657 13:0.15567023 14:-0.58528191 15:0.10008566 16:-0.01148927 17:-0.061879735 18:0.24873136 19:-0.11938367 20:-0.0095708808 21:-0.032091428 22:-0.16661733 23:1.3240534 24:-0.17348155 25:0.44853726 26:0.17726073 27:-0.075491525 28:0.108641 29:0.65546274 30:-0.95133913 31:0.29439706 32:0.54669744 33:0.65108675 34:0.21758503 35:-0.23150574 36:0.0334653 37:-0.2340384 38:0.012764014 39:0.825634 40:0.16128106 41:-0.075318925 42:-0.48337492 44:0.12035181 45:-0.24137843 46:-0.5207113 #
