SVM-light Version V6.20
0 # kernel type
3 # kernel parameter -d 
1 # kernel parameter -g 
1 # kernel parameter -s 
1 # kernel parameter -r 
empty# kernel parameter -u 
47 # highest feature index 
59 # number of training documents 
2 # number of support vectors plus 1 
0 # threshold b, each following line is a SV (starting with alpha*y)
1 1:-0.32286352 2:-0.065924719 3:0.36411107 4:-0.1767502 5:-0.37583098 11:0.050518092 12:-0.094234213 13:0.37787735 14:-0.2478314 15:-0.082671158 16:0.37782574 17:-0.1396023 18:-0.55936229 19:-0.22209355 20:0.38188705 21:0.092042245 22:-0.16687606 23:1.6039369 24:-0.058982991 25:0.36701941 26:-0.55006069 27:0.20458771 28:0.26720262 29:-0.10638762 30:-0.10192616 31:-0.39476132 32:0.61418533 33:0.19479539 34:-0.57543528 35:1.0522364 36:-0.43293691 37:0.27446571 38:0.047505591 39:0.87939662 40:0.14863642 41:0.061209563 42:-0.61436141 44:-0.092785969 45:0.13986556 46:-0.0046578902 #
