SVM-light Version V6.20
0 # kernel type
3 # kernel parameter -d 
1 # kernel parameter -g 
1 # kernel parameter -s 
1 # kernel parameter -r 
empty# kernel parameter -u 
47 # highest feature index 
62 # number of training documents 
2 # number of support vectors plus 1 
0 # threshold b, each following line is a SV (starting with alpha*y)
1 1:-1.001147 2:-0.1773244 3:-0.14249642 4:-0.43049815 5:-0.56883389 11:-0.20754179 12:-0.83161807 13:-0.45351753 14:-0.31518501 15:0.22683525 16:-0.044357527 17:0.08295086 18:0.083023898 19:0.15350354 20:-0.031655263 21:0.34240112 22:-0.64339066 23:1.8428952 24:1.0423636 25:0.54082739 26:-0.051306538 27:-0.35422117 28:0.1773188 29:0.96055204 30:-1.0836002 31:0.012494524 32:0.81653255 33:0.24887563 34:-0.15327455 35:0.073115617 36:-0.77692473 37:-0.32041517 38:-0.46276003 39:1.0343455 40:0.60833454 41:-0.090881728 42:-0.82085437 44:-0.33729589 45:-0.59776241 46:-0.16091658 #
