SVM-light Version V6.20
0 # kernel type
3 # kernel parameter -d 
1 # kernel parameter -g 
1 # kernel parameter -s 
1 # kernel parameter -r 
empty# kernel parameter -u 
47 # highest feature index 
62 # number of training documents 
2 # number of support vectors plus 1 
0 # threshold b, each following line is a SV (starting with alpha*y)
1 1:0.33023062 2:0.13191909 3:0.23667991 4:-0.1982518 5:0.15802078 11:-0.24672218 12:-0.52773136 13:0.084148638 14:0.48445129 15:-0.30655742 16:-0.12520996 17:-0.41559234 18:0.05158757 19:-0.41273871 20:-0.11255971 21:-0.02951085 22:0.45028421 23:0.5662353 24:0.27375993 25:-0.10212009 26:-0.82232696 27:0.99561262 28:0.85268402 29:-0.05429272 30:-0.014866988 31:-0.26935181 32:0.49677813 33:-0.30896702 34:0.65762532 35:-0.24195933 36:-0.0096476022 37:-0.36670649 38:-0.21437404 39:1.2788018 40:-0.74556005 41:-0.21071133 42:0.48458371 44:0.39684257 45:-0.61499518 46:-0.11214495 #
