SVM-light Version V6.20
0 # kernel type
3 # kernel parameter -d 
1 # kernel parameter -g 
1 # kernel parameter -s 
1 # kernel parameter -r 
empty# kernel parameter -u 
47 # highest feature index 
65 # number of training documents 
2 # number of support vectors plus 1 
0 # threshold b, each following line is a SV (starting with alpha*y)
1 1:0.076355062 2:0.17520164 3:0.53951591 4:-0.24334456 5:-0.097104549 11:0.21374188 12:-1.0234311 13:-0.47762173 14:-0.15100299 15:-0.10725608 16:-0.10449096 17:0.21369691 18:-0.26714635 19:-0.080778427 20:-0.087099135 21:0.30527773 22:0.21091355 23:1.2671747 24:0.43122739 25:0.29081428 26:0.16628096 27:0.038147535 28:0.53197104 29:0.17382479 30:0.44756147 31:0.26158118 32:-0.5955798 33:0.39146832 34:-0.37048364 35:-0.084044069 36:0.46233815 37:-0.06183463 38:-0.45524091 39:0.32464191 40:-0.49257559 41:-0.06920597 42:-0.13114926 44:0.29256654 45:-0.17007554 46:-0.03689168 #
