SVM-light Version V6.20
0 # kernel type
3 # kernel parameter -d 
1 # kernel parameter -g 
1 # kernel parameter -s 
1 # kernel parameter -r 
empty# kernel parameter -u 
47 # highest feature index 
65 # number of training documents 
2 # number of support vectors plus 1 
0 # threshold b, each following line is a SV (starting with alpha*y)
1 1:0.12141725 2:-0.086026423 3:-0.20584115 4:-0.61556631 5:0.20549428 11:0.030331304 12:-0.52219296 13:0.17481297 14:0.031483911 15:0.049861271 16:-0.099223204 17:0.11310381 18:0.15430199 19:-0.60561538 20:-0.071572833 21:0.09385892 22:-0.079481341 23:1.0307915 24:-0.069824696 25:0.040219214 26:-0.25913337 27:0.26006836 28:0.69087577 29:0.38262582 30:-0.47415468 31:-0.078365058 32:0.57252365 33:0.5929544 34:0.64695346 35:-0.41280851 36:-0.090461642 37:0.14424124 38:-0.031835731 39:0.93941069 40:-0.036815882 41:-0.086145602 42:0.064818837 44:-0.10295012 45:-0.15101837 46:0.008491247 #
