SVM-light Version V6.20
0 # kernel type
3 # kernel parameter -d 
1 # kernel parameter -g 
1 # kernel parameter -s 
1 # kernel parameter -r 
empty# kernel parameter -u 
47 # highest feature index 
65 # number of training documents 
2 # number of support vectors plus 1 
0 # threshold b, each following line is a SV (starting with alpha*y)
1 1:-0.097578712 2:-0.19563714 3:0.3171657 4:-0.39909396 5:-0.043116789 11:-0.42627341 12:0.16232009 13:-0.23941574 14:-0.4769541 15:-0.18655477 16:0.26433009 17:-0.071640931 18:-0.18736677 19:-0.34095284 20:0.28238788 21:-0.28115478 22:0.61699343 23:1.1634917 24:-0.49331871 25:0.28787279 26:-0.40746132 27:-0.15646662 28:0.42763939 29:-0.30495429 30:-0.39959565 31:0.058069967 32:0.96414995 33:0.59405351 34:0.99218667 35:0.52287966 36:-1.1253703 37:0.14986362 38:0.070612207 39:0.78875893 40:-0.60149908 41:-0.17736985 42:0.10877975 44:-0.1813806 45:0.2339976 46:-0.1063951 #
